<?xml version="1.0"?>
<MethodSetup Method="MLP::MLPBNN">
  <GeneralInfo>
    <Info name="TMVA Release" value="4.2.1 [262657]"/>
    <Info name="ROOT Release" value="6.22/06 [398854]"/>
    <Info name="Creator" value="ikoljanin"/>
    <Info name="Date" value="Thu Jan  7 13:58:43 2021"/>
    <Info name="Host" value="Linux buildvm-x86-05.iad2.fedoraproject.org 5.7.11-200.fc32.x86_64 #1 SMP Wed Jul 29 17:15:52 UTC 2020 x86_64 x86_64 x86_64 GNU/Linux"/>
    <Info name="Dir" value="/home/ikoljanin/v12"/>
    <Info name="Training events" value="2000"/>
    <Info name="TrainingTime" value="5.55126491e+01"/>
    <Info name="AnalysisType" value="Classification"/>
  </GeneralInfo>
  <Options>
    <Option name="NCycles" modified="Yes">60</Option>
    <Option name="HiddenLayers" modified="Yes">N+5</Option>
    <Option name="NeuronType" modified="Yes">tanh</Option>
    <Option name="RandomSeed" modified="No">1</Option>
    <Option name="EstimatorType" modified="No">CE</Option>
    <Option name="NeuronInputType" modified="No">sum</Option>
    <Option name="V" modified="Yes">False</Option>
    <Option name="VerbosityLevel" modified="No">Default</Option>
    <Option name="VarTransform" modified="Yes">N</Option>
    <Option name="H" modified="Yes">True</Option>
    <Option name="CreateMVAPdfs" modified="No">False</Option>
    <Option name="IgnoreNegWeightsInTraining" modified="No">False</Option>
    <Option name="TrainingMethod" modified="Yes">BFGS</Option>
    <Option name="LearningRate" modified="No">2.000000e-02</Option>
    <Option name="DecayRate" modified="No">1.000000e-02</Option>
    <Option name="TestRate" modified="Yes">5</Option>
    <Option name="EpochMonitoring" modified="No">False</Option>
    <Option name="Sampling" modified="No">1.000000e+00</Option>
    <Option name="SamplingEpoch" modified="No">1.000000e+00</Option>
    <Option name="SamplingImportance" modified="No">1.000000e+00</Option>
    <Option name="SamplingTraining" modified="No">True</Option>
    <Option name="SamplingTesting" modified="No">False</Option>
    <Option name="ResetStep" modified="No">50</Option>
    <Option name="Tau" modified="No">3.000000e+00</Option>
    <Option name="BPMode" modified="No">sequential</Option>
    <Option name="BatchSize" modified="No">-1</Option>
    <Option name="ConvergenceImprove" modified="No">1.000000e-30</Option>
    <Option name="ConvergenceTests" modified="No">-1</Option>
    <Option name="UseRegulator" modified="Yes">True</Option>
    <Option name="UpdateLimit" modified="No">10000</Option>
    <Option name="CalculateErrors" modified="No">False</Option>
    <Option name="WeightRange" modified="No">1.000000e+00</Option>
  </Options>
  <Variables NVar="4">
    <Variable VarIndex="0" Expression="ele_pt" Label="ele_pt" Title="ele_pt" Unit="" Internal="ele_pt" Type="F" Min="5.00599241e+00" Max="3.06198883e+02"/>
    <Variable VarIndex="1" Expression="scl_eta" Label="scl_eta" Title="scl_eta" Unit="" Internal="scl_eta" Type="F" Min="-2.55902076e+00" Max="2.58148694e+00"/>
    <Variable VarIndex="2" Expression="ele_hadronicOverEm" Label="ele_hadronicOverEm" Title="ele_hadronicOverEm" Unit="" Internal="ele_hadronicOverEm" Type="F" Min="0.00000000e+00" Max="2.11394310e+01"/>
    <Variable VarIndex="3" Expression="ele_gsfchi2" Label="ele_gsfchi2" Title="ele_gsfchi2" Unit="" Internal="ele_gsfchi2" Type="F" Min="1.93670884e-01" Max="1.90824783e+02"/>
  </Variables>
  <Spectators NSpec="0"/>
  <Classes NClass="2">
    <Class Name="Signal" Index="0"/>
    <Class Name="Background" Index="1"/>
  </Classes>
  <Transformations NTransformations="1">
    <Transform Name="Normalize">
      <Selection>
        <Input NInputs="4">
          <Input Type="Variable" Label="ele_pt" Expression="ele_pt"/>
          <Input Type="Variable" Label="scl_eta" Expression="scl_eta"/>
          <Input Type="Variable" Label="ele_hadronicOverEm" Expression="ele_hadronicOverEm"/>
          <Input Type="Variable" Label="ele_gsfchi2" Expression="ele_gsfchi2"/>
        </Input>
        <Output NOutputs="4">
          <Output Type="Variable" Label="ele_pt" Expression="ele_pt"/>
          <Output Type="Variable" Label="scl_eta" Expression="scl_eta"/>
          <Output Type="Variable" Label="ele_hadronicOverEm" Expression="ele_hadronicOverEm"/>
          <Output Type="Variable" Label="ele_gsfchi2" Expression="ele_gsfchi2"/>
        </Output>
      </Selection>
      <Class ClassIndex="0">
        <Ranges>
          <Range Index="0" Min="5.9320044517517090e+00" Max="2.9407147216796875e+02"/>
          <Range Index="1" Min="-2.5590207576751709e+00" Max="2.5319814682006836e+00"/>
          <Range Index="2" Min="0.0000000000000000e+00" Max="9.7469508647918701e-01"/>
          <Range Index="3" Min="1.9367088377475739e-01" Max="1.7504608154296875e+02"/>
        </Ranges>
      </Class>
      <Class ClassIndex="1">
        <Ranges>
          <Range Index="0" Min="5.0059924125671387e+00" Max="3.0619888305664062e+02"/>
          <Range Index="1" Min="-2.5213608741760254e+00" Max="2.5814869403839111e+00"/>
          <Range Index="2" Min="0.0000000000000000e+00" Max="2.1139430999755859e+01"/>
          <Range Index="3" Min="2.4230565130710602e-01" Max="1.9082478332519531e+02"/>
        </Ranges>
      </Class>
      <Class ClassIndex="2">
        <Ranges>
          <Range Index="0" Min="5.0059924125671387e+00" Max="3.0619888305664062e+02"/>
          <Range Index="1" Min="-2.5590207576751709e+00" Max="2.5814869403839111e+00"/>
          <Range Index="2" Min="0.0000000000000000e+00" Max="2.1139430999755859e+01"/>
          <Range Index="3" Min="1.9367088377475739e-01" Max="1.9082478332519531e+02"/>
        </Ranges>
      </Class>
    </Transform>
  </Transformations>
  <MVAPdfs/>
  <Weights>
    <Layout NLayers="3">
      <Layer Index="0" NNeurons="5">
        <Neuron NSynapses="9">
          -3.5231611576846418e+00 4.6871945111338240e+00 4.3754127412688498e-01 6.0832343989933513e+00 -1.3413454131416467e+00 -1.7523567716682367e+00 -7.8254225766744001e-01 -1.8634827099289544e+00 8.4784971280704891e-01 
        </Neuron>
        <Neuron NSynapses="9">
          -1.0367894543792859e+00 -2.7438988134169207e-01 -1.9234036455938356e-02 -8.2799517314739293e-02 -1.6326385534856100e+00 -5.4748021200067998e-01 6.9036037848583609e-01 -4.8817168717289522e-01 7.0060585213234372e-01 
        </Neuron>
        <Neuron NSynapses="9">
          2.1157493699140382e+00 -9.3764334669856819e-01 -1.5133503103016119e-02 -5.0266613490113894e+00 -1.0899881530893902e+00 -9.1466933743270125e-04 -1.1790047997861515e+00 -4.5040034757275371e-01 2.7773831038947026e+00 
        </Neuron>
        <Neuron NSynapses="9">
          -1.6094096616293609e-02 -2.3756204966316790e+00 6.9614339261161695e-01 2.4056582594683013e-01 -2.5017338924561550e-01 -4.4477544815641668e-01 -1.5888545107862900e-01 1.3458338421889269e+00 7.2318005496165749e-01 
        </Neuron>
        <Neuron NSynapses="9">
          -1.5159715450011901e+00 1.9171419070789208e+00 -1.6539582968527391e+00 1.6318881744415867e+00 2.9077863002965625e+00 9.4006966974870421e-01 1.8558652158681723e+00 1.9670425530546154e-02 -2.1521524916913544e+00 
        </Neuron>
      </Layer>
      <Layer Index="1" NNeurons="10">
        <Neuron NSynapses="1">
          -1.6012628848334178e+00 
        </Neuron>
        <Neuron NSynapses="1">
          3.0549574042381300e+00 
        </Neuron>
        <Neuron NSynapses="1">
          1.3872680528175556e+00 
        </Neuron>
        <Neuron NSynapses="1">
          5.9650914584405621e+00 
        </Neuron>
        <Neuron NSynapses="1">
          -3.0718383405438270e+00 
        </Neuron>
        <Neuron NSynapses="1">
          1.0103725756572657e-01 
        </Neuron>
        <Neuron NSynapses="1">
          -3.0508790228426413e-01 
        </Neuron>
        <Neuron NSynapses="1">
          2.0646831245197537e+00 
        </Neuron>
        <Neuron NSynapses="1">
          1.0118069585469726e-01 
        </Neuron>
        <Neuron NSynapses="1">
          -3.4852471587694498e+00 
        </Neuron>
      </Layer>
      <Layer Index="2" NNeurons="1">
        <Neuron NSynapses="0"/>
      </Layer>
    </Layout>
    <InverseHessian NElements="3025" NRows="55" NCols="55">
      <Row Index="0">
        6.0991868953412030e+01 -1.7299994208803625e+01 -7.3920097655214113e+02 2.0656617459576823e+00 6.0299919633521586e+02 -8.0088458667960867e+02 1.3466120274166824e+03 5.7222707933583026e+00 8.9171070919201156e-01 1.0983400560789367e+01 2.0052760717105098e+00 -3.5893237434460320e+02 -1.1785626745077016e+00 2.6501074042546617e+02 -3.2674610507551137e+02 6.9862969920370261e+01 2.9992774659733503e+00 -6.7587570426985621e-01 -3.5950086091405367e+01 2.1031340364260959e+01 3.1825974246062685e+02 -5.7022774817126356e+00 3.7394261969426589e+02 -4.9313066367091147e+02 1.1755621814523238e+02 1.8351385050691093e+01 4.8578391899354756e-01 8.5320539154250703e+00 3.5130628206769230e+00 -5.1716674689002048e+01 8.9339479164283420e-01 -5.9613383018742297e+02 9.7191871728612682e+02 2.2892449874568717e+02 -2.2585763456854359e+01 -1.2706243674620055e-01 3.1459638875327077e+01 7.2994169110887590e+00 -1.8971559626630875e+02 -2.5138481569583520e+00 -2.8150437664886067e+02 4.4419975347898617e+02 -1.0130032028772803e+02 -1.4559493918416392e+01 -7.3795241210609674e-01 -4.0581598635604415e+01 1.4940954755264423e+01 -2.8084129528718506e+02 -2.3316184156978750e+00 -2.5729405684217994e+01 -1.8633545394330795e+02 -1.3500892139922291e+02 2.0139167256939260e+01 -2.4267477585535104e+01 2.0492779828856367e+01 
      </Row>
      <Row Index="1">
        -1.7299994210582611e+01 7.8076478220026601e+01 9.2818361137231739e+02 -4.7953191146169296e+01 -2.1018218343491367e+02 1.0902254967051394e+02 -6.1415903373358105e+01 1.1410694338564753e+01 -2.6560708217293723e+00 -4.6701840644307602e+00 -3.3841149549958911e+00 3.8089884383848812e+01 2.2258114334433210e+00 7.9133370956006274e+01 -9.8393122466813139e+01 -1.4949687435256783e+02 -2.7654132383223233e+00 2.5609527621418238e+00 -1.6347974766866365e+01 -2.3876771704013652e+01 4.5477108020289722e+02 3.5751482568990205e+01 -1.3102992814776280e+02 -2.4862667562565869e+02 -1.7400860380208860e+02 -2.0833334055251385e-01 -2.5986272082664073e+00 -3.0369849839007230e+00 -2.1462611218539983e+01 7.4946246025607047e+02 -3.3352547144389622e-01 5.0475731403022974e+02 -1.9718657050322236e+01 -4.4290976535071923e+02 2.5513110981035192e+00 9.7840200198697858e-01 -3.5026069089285301e+01 3.0327482028686834e+01 1.5810471513179687e+02 -7.8867604160988636e+00 1.1089936818618662e+02 1.8920817891273964e+02 9.5590898448747794e+01 1.3956904905623162e+01 2.6800631456426345e+00 1.7903105285561807e+01 -4.6072409722110571e+01 3.9275722026490492e+01 6.8270319761312791e+01 -2.0373231854817263e+01 7.0846847583102431e+01 1.1191057997130991e+02 -4.9083179652519497e+00 5.2289063782561328e+01 -3.9014232133303629e+01 
      </Row>
      <Row Index="2">
        -7.3920097686127258e+02 9.2818361145121935e+02 8.6724697386700092e+04 -8.1722495409911005e+02 -1.0002816599995651e+04 8.6909949153179929e+04 5.1267650164349099e+04 3.5429501693785630e+02 -7.0447644441388547e+01 -1.6474701552561626e+02 -9.2977438239552654e+01 1.2623019293352103e+04 4.8498332001725871e+01 9.0749488475557391e+03 4.0378353193199262e+04 2.5032534282751381e+04 6.7707501396466682e+01 1.1339246630948037e+02 -2.2371729728133556e+02 -5.2161300294336297e+02 -1.6631215792158073e+04 8.8764800405117444e+02 2.2028509248302173e+04 3.0414234001661840e+04 -2.2230365609994653e+04 2.0843548872525460e+02 -1.4776345032453537e+02 -3.9174829977806291e+02 -3.2389188780264260e+02 2.6465278823717214e+04 -5.3658909325242959e+01 -1.7412930598162598e+04 -7.9361058525862158e+04 -3.0952346667944617e+04 9.5889313862279877e+01 1.5843037529382855e+01 -1.2910855472577828e+03 5.6259520688941649e+01 2.6422687093043860e+04 1.1048348990567105e+02 -1.6429120028513196e+04 -4.9322258918039646e+04 2.1283922871130417e+04 6.3967813064690290e+02 1.4578162313252687e+02 6.2652382557317719e+02 -9.9339492331586314e+02 7.3699092583348020e+03 1.6214519402306537e+03 -1.2555986746195875e+04 1.5678597236463749e+04 2.5697605914784464e+04 4.1694804126461986e+02 1.0594518613440083e+04 -9.8758286798627159e+03 
      </Row>
      <Row Index="3">
        2.0656617497511016e+00 -4.7953191146814554e+01 -8.1722495413770866e+02 6.2797986747959897e+01 7.1703986477328726e+01 -8.1870631143054959e+02 4.6909675071064186e+01 2.4242317619467100e+00 2.3730899393558502e+00 5.4890422753031958e+00 1.6239437327002579e+00 -2.5264491964227645e+01 -1.6910104253520863e+00 -3.4388093542451577e+02 -2.6054666746984003e+02 4.0245802220040059e+02 2.0219035062716371e+00 -2.3612076007993892e+00 1.6917105355841208e+01 1.3646971301116395e+01 -2.0154371808755192e+02 -5.7550190194947668e+01 -2.5076952919694168e+02 -1.7902064992171330e+02 7.6549874795292908e+01 -6.7521725561399464e+00 2.5192054802319035e+00 9.7397081784283301e-02 1.8284592476085326e+01 -4.9444099195338077e+02 2.1845954856391003e+00 1.5418814125934887e+01 2.9296278149078091e+02 2.9179021155939756e+02 -1.0013559696030278e-01 -7.8558533515752060e-01 1.9039542534851254e+01 -1.6730840919016252e+01 -2.0713088351166022e+02 -1.6240062866380460e+00 2.6437970005056047e+02 2.1278685720257607e+02 -4.3820113056719492e+01 -4.2534875105799479e+00 -2.9050765528809279e+00 -1.6198654042127309e+01 3.6583120392718222e+01 -3.7505192104175983e+01 -1.2231359705098906e+02 7.9776542719656533e+01 -1.2948058063516535e+02 -4.2149488921970857e+01 1.0864055237386708e+01 -5.0675715716476745e+01 3.6140715029462811e+01 
      </Row>
      <Row Index="4">
        6.0299919627666168e+02 -2.1018218340812126e+02 -1.0002816597864359e+04 7.1703986478829805e+01 6.6182360531501719e+04 -2.7964517202101160e+04 5.6427852796311228e+04 -2.6964848846655519e+02 1.8977027130126953e+02 -4.8480660602098716e+01 -2.7858238158032481e+01 -3.9652082530202188e+02 9.4667364891497172e+00 8.0797669602104346e+04 -2.1601576063253451e+04 2.6946946577821858e+04 -1.9278696188664361e+02 2.8106723785400391e+01 -4.3076926351145227e+02 1.0673593942825394e+02 -4.7728078678308357e+03 -7.6545447250132483e+01 2.3123582158603938e+04 5.5893713136757942e+03 -6.2847851864340191e+03 -1.0868158485013984e+02 -1.6439069962501526e+02 -6.2093824915407446e+01 4.8983508406260434e+01 -3.7525023827228920e+03 -1.9221890457434725e+01 3.0735261922651574e+04 -1.3425102902814822e+04 3.5696040710129237e+03 -8.2420446897051633e+01 -1.9407403793372214e+02 7.9254177367353378e+01 -3.5057557143678657e+01 -8.5761547693126540e+03 -4.4948411305467239e+01 -1.7262561739331111e+04 -1.4302994034176809e+04 7.8887032026305678e+03 -3.6856767833660831e+02 1.5440794014930725e+02 -1.1583138266426198e+02 1.9148045775118470e+02 -1.3566267149273065e+03 -6.8458053112961693e+01 -5.3885192714031946e+03 -4.4146982534271401e+03 1.2517303873051147e+04 6.4316151791526863e+01 2.6282430646681105e+03 -1.8701234823159771e+03 
      </Row>
      <Row Index="5">
        -8.0088458703937533e+02 1.0902254949687429e+02 8.6909949123490456e+04 -8.1870631096480452e+02 -2.7964517208163426e+04 5.4809957046485553e+05 6.1399034758947178e+04 -2.7926885073807471e+03 9.3095550537109375e+00 -2.7798666678272684e+02 -5.4760338986755059e+01 2.2473245071486523e+04 2.4105349326924216e+01 3.0772397626665010e+04 1.9007761889840662e+05 2.6101206023536623e+04 -4.1324866693090411e+02 1.9584503173828125e+01 9.4902916648948860e+02 -5.6786991400358306e+02 -3.7053074174551773e+04 8.9764004082147972e+02 4.1620173628870034e+04 -1.6322893312493768e+04 -2.1768400166371055e+04 -2.8694235209617534e+02 -4.5088941454887390e+01 -4.0556315480869830e+02 1.6177303232495667e+01 -4.7046000399536060e+03 1.3001742800047705e+01 -1.0432321326024987e+04 1.8199892331179784e+05 -5.7438642600346619e+04 3.1851660973547314e+03 -1.8216099991463125e+01 -2.1204813561961549e+02 -4.6735834140837500e+02 3.8672551868729919e+04 2.2794906869816236e+02 -3.9811678967955879e+04 1.7585897233599433e+04 2.0670211063566308e+04 4.5346112734711033e+02 4.3284255385398865e+01 1.3397397924133149e+03 -5.5346066861140912e+02 3.9011950697611421e+04 1.8466214607230747e+03 -1.5945107492207406e+04 5.3456180544403906e+04 2.4500337389128672e+04 -5.5749514904616390e+03 9.7575829860204467e+03 -9.5447435382809508e+03 
      </Row>
      <Row Index="6">
        1.3466120274819450e+03 -6.1415903311832096e+01 5.1267650171697955e+04 4.6909674913207112e+01 5.6427852798536042e+04 6.1399034761072086e+04 6.1451580229617481e+05 -4.4322311739760778e+02 -1.8767995786666870e+02 1.4525316649209446e+02 -9.9596256477104802e+01 9.6343679486660021e+03 -2.0519219110652905e+01 -4.6240161204637596e+04 -2.8453950943084201e+03 -7.7887466202790616e+04 -5.2375421350795122e+01 -7.1808443069458008e+01 -1.4363573776205709e+02 5.3152915128185771e+02 -2.5247460654510669e+04 -1.5868159544325917e+02 -3.5196289126023970e+04 -1.5263963138865984e+04 1.3668016902776697e+04 3.5822026864134847e+02 2.2202231693267822e+02 -5.1180733755105075e+02 9.6541385865998080e+01 2.2384082868182886e+04 -4.8051068569993006e+01 2.5675277094641817e+04 3.6989791222625478e+04 -2.1926583564763961e+04 5.3944661004653335e+02 3.2473543073609471e+02 5.2820099506233566e+02 4.8673842482456968e+02 -7.4175696847986110e+03 -1.4390601693823422e+02 4.7397365329341847e+04 -2.4100148661101703e+03 -7.9960244538591942e+03 3.4666489768332650e+02 -3.2149015426635742e+02 -8.7948975567484536e+02 -2.8075431673718964e+02 -7.8654889290073361e+03 1.8660952272762643e+01 8.4805189137767029e+03 3.9972408971326701e+02 -1.8531222427511064e+04 -1.9015587291203065e+02 -2.3198393946964502e+03 6.8040694686385314e+02 
      </Row>
      <Row Index="7">
        5.7222707921978113e+00 1.1410694340316077e+01 3.5429501718170661e+02 2.4242317590346767e+00 -2.6964848843387824e+02 -2.7926885069387295e+03 -4.4322311748826246e+02 6.5957646296923713e+01 -7.7668195962905884e-01 3.9236885956230338e+00 9.9013205936453907e-01 -2.9459527891918003e+02 -3.2373258619397505e-01 -2.4538972736325665e+01 -8.0055878383063100e+02 9.3014470402486040e+01 1.4849399710169932e+01 9.7099459171295166e-01 -3.4986137735028016e+01 7.4474399225231416e+00 4.4899571677322780e+02 -4.5404322470590213e+00 2.4751071235626841e+02 -1.0107547797176385e+03 -1.5213726970356447e+02 1.3672927229789201e+01 -1.3064528236864135e+00 8.4077527504856491e+00 -6.0028398205265372e+00 5.6141900259883766e+02 3.5651596824611992e-01 -4.8529979758513554e+02 -6.2642459616442102e+02 -6.7197612336434986e+02 -5.2590685773806605e+01 4.1628897679220245e-01 -2.0395450750829308e+01 1.2311837104167298e+01 5.7086663677751886e+01 -2.7678725276557476e+00 -1.0728317197589513e+02 5.0826894092602424e+02 9.9668432973550807e+01 4.1174649653766258e+00 1.4503104113973677e+00 -2.4650180675493885e+01 -5.4130620344828317e+00 -2.3415136102934139e+02 -9.2691463502360580e+00 -7.1121256281642133e+01 -1.6593912832773157e+02 1.0552994577776312e+02 8.8431234788683980e+01 5.9854151944595891e+01 -5.2626666319095996e+01 
      </Row>
      <Row Index="8">
        8.9171079063687542e-01 -2.6560709280946648e+00 -7.0447632328069801e+01 2.3730899832496348e+00 1.8977026640126357e+02 9.3095745096591394e+00 -1.8767995259740024e+02 -7.7668217520225502e-01 9.9991772395324707e+05 3.1365900912830857e-01 -2.7904235908858953e-02 2.3238072044099120e+01 -1.3690304786250387e-03 -1.3072306027790231e+02 1.1846564443796524e+02 1.8275597834377550e+01 -1.6077274086048599e-01 -1.1704774379730225e+01 1.2493436921974210e+00 2.1551813373095730e-01 7.1186673522043719e+01 -2.5038357613741611e+00 -3.5493146232467595e+01 8.7018785191903589e+00 -2.8628101726874661e+01 -3.0306209211281288e-01 7.9098157737287693e+01 -1.8629184411001543e-01 4.7218766997050038e-01 -7.1801758294749646e+01 6.7319715435754690e-01 -2.3426452820724720e+02 -4.5555952191096338e+00 2.2612801930358145e+01 -2.6859493860771981e+00 -4.9879513448220678e+01 2.0310172123941195e+00 -1.8031814792111946e+00 1.4333594346000663e+02 2.2790356230167247e-01 1.4430941164517606e+01 1.0585588802706525e-01 -1.4141258851745232e+02 -3.6770386883627029e+00 8.1982960101217031e+01 -6.8405137239159330e-01 3.3590080852510340e+00 -1.1283516927293410e+02 -4.9545047179226946e+00 1.5674269570612228e+02 -3.7519008321355085e+00 -9.1207347440187405e+01 7.9101014432068695e-01 3.3222300620359283e+02 1.5445426522480602e+02 
      </Row>
      <Row Index="9">
        1.0983400560963908e+01 -4.6701840640159258e+00 -1.6474701545364451e+02 5.4890422744305312e+00 -4.8480660589601314e+01 -2.7798666671543737e+02 1.4525316648696923e+02 3.9236885960334411e+00 3.1365897133946419e-01 4.4719246343626580e+00 1.8808184511513254e-01 -7.7221890510166432e+01 -3.8678744077311522e-01 -2.1812419853894991e+02 -1.1340631318748456e+02 1.1479895893724097e+02 1.2613438067188758e+00 -3.5737079381942749e-01 -7.3581069980050318e+00 4.8232477282352217e+00 1.2566719111520459e+02 -6.1158173589661260e+00 -4.8431863901895831e+01 -1.5652143052226234e+02 -3.9419754379549374e+00 3.5243068385572087e+00 3.6334597505629063e-01 1.7972383247498849e+00 1.4889630943435634e+00 2.4748735547964049e+01 8.5973109433915174e-02 -1.6021115105502054e+02 2.6387305498276589e+02 -2.2184308983170922e+01 -4.6433395421432220e+00 1.6280825133435428e-02 5.6399930450596427e+00 1.3610569199828475e+00 -3.1257629671937607e+01 -1.0434364961213298e+00 5.4658193983416879e+01 1.7871925453047459e+02 -1.2764647819975607e+00 -2.0227251529279737e+00 -4.2802425008267164e-01 -1.2432380823560692e+01 3.5448339890619933e+00 -6.6885023398253523e+01 -1.1058264809846797e+01 4.2980559326492491e+00 -5.1666413718176415e+01 -7.7592097009029324e+00 6.4007376269550385e+00 2.6964865559063886e+00 -4.8443269776324387e+00 
      </Row>
      <Row Index="10">
        2.0052760717292002e+00 -3.3841149547983749e+00 -9.2977438216956386e+01 1.6239437323829848e+00 -2.7858238154455861e+01 -5.4760338966325335e+01 -9.9596256478234523e+01 9.9013205948178984e-01 -2.7904255315661430e-02 1.8808184510806406e-01 1.1000980236377618e+00 -1.8556864927580371e+01 -4.1431647821333284e-01 -5.1986436559292613e+01 7.9889371915633092e+00 3.4258737971733353e+01 7.2316338190633211e-01 1.9956037402153015e-02 8.8419098401224339e-01 2.3066815005029131e+00 -6.0433385103377539e+01 -2.4261884618114626e+00 3.9753756047917847e+01 -3.3172209392210590e+01 1.6923434168101338e+01 3.1451402838977938e+00 2.4511441588401794e-02 -4.6123597920051895e-01 1.1453160739636163e+00 -7.2583154636169610e+01 7.3612287956479150e-01 -1.5012487531288693e+02 2.8967505292346502e+01 -8.1824494808288364e+01 -4.5974095052845820e+00 -8.2646696711890399e-02 2.0272640169643523e+00 1.7713494551433429e-01 -4.9369450271143577e+01 -2.3203026388648090e-01 -3.1066646156735942e+01 1.2579111531433597e+01 -9.5112165209588682e+00 -1.2639490564527933e+00 -2.9789679683744907e-04 -1.6627425542906931e+00 4.7432025874209396e+00 -1.7196945527215753e+01 -3.8999968736519648e+00 -3.0058210740785709e+00 -9.1971506127442826e+00 -1.5275691190407947e+01 2.4837868539633998e+00 -2.0791419295476348e+00 2.0919446140063451e+00 
      </Row>
      <Row Index="11">
        -3.5893237430501381e+02 3.8089884351411705e+01 1.2623019288389361e+04 -2.5264491923185176e+01 -3.9652082559967585e+02 2.2473245061171434e+04 9.6343679504115407e+03 -2.9459527890653021e+02 2.3238074302673340e+01 -7.7221890499063903e+01 -1.8556864925139962e+01 8.2283429412634796e+03 1.2471980607908936e+01 1.7770426213907745e+03 7.0351074083254207e+03 3.4278351095896214e+03 -1.0666704715755792e+02 -2.2713878631591797e+01 4.3293898087716553e+02 -1.6876816106945682e+02 -6.9787712314736764e+03 6.1954305051985372e+01 -4.5448458173289237e+03 1.6214588736162274e+04 4.6020147708552740e+03 -1.1896864165971277e+02 2.4749107360839844e+01 -2.9082890516554102e+02 3.0265334777944059e+01 -1.6558473747699813e+02 -1.7380370582871780e+01 1.3943981541378689e+04 -2.0874227948072723e+04 -1.0472634658658057e+04 2.7439428395464267e+02 -1.1686782717704773e+01 -1.9783020551120143e+02 -1.0176534770717613e+02 3.3388706275037157e+03 2.3150613664500959e+01 4.1577039540380792e+03 -1.4488807235480825e+04 -4.2737037848955515e+03 6.8044085408063609e+01 -2.5102737944573164e+01 3.9217533303189339e+02 -1.4629266819482325e+01 3.9097922761697109e+03 5.0896342268511006e+01 2.4288417850199321e+03 3.2632186454860980e+03 -5.2122524737100721e+03 -3.5876303287711426e+02 -1.8626876579767131e+03 1.7386116606619680e+03 
      </Row>
      <Row Index="12">
        -1.1785626745583642e+00 2.2258114333430226e+00 4.8498331988775078e+01 -1.6910104251698250e+00 9.4667364870693120e+00 2.4105349318547983e+01 -2.0519219111632964e+01 -3.2373258628973600e-01 -1.3690497726202011e-03 -3.8678744077678401e-01 -4.1431647821676343e-01 1.2471980609751684e+01 2.4300339286863781e-01 3.8180171756682554e+01 -6.5516337025933353e+00 -2.6366365458919063e+01 -3.7312496452152411e-01 1.0402267798781395e-02 -3.9354871520839907e-01 -1.7099024977034578e+00 3.0074972584487782e+01 1.8758424101493498e+00 -5.4638425315387735e+00 1.7952854187296836e+01 -8.6595416385201212e+00 -1.4731111215420722e+00 -2.1815951913595200e-02 -1.1611240557576613e-01 -5.5871549904187923e-01 3.1422736564528844e+01 -2.1807101423172162e-01 6.5216288154009945e+01 -2.6435686102285885e+01 2.1330559595568985e+01 1.6336775837427460e+00 -7.5239175930619240e-04 -1.4995374023156320e+00 -1.1826589183878794e-01 2.9546561957593230e+01 1.7857951004732911e-01 2.3408582479148663e+00 -7.2921343293534484e+00 5.1039693123431178e+00 3.3103377505577658e-01 3.0550394207239151e-02 1.6284084104506300e+00 -1.9068812133622797e+00 1.0495976825977589e+01 3.3404546104954735e+00 -4.7673448755599646e-01 6.4968656933964493e+00 7.7749679954428697e+00 -9.7036048919845985e-01 1.0593914268144686e+00 -9.0443013262020955e-01 
      </Row>
      <Row Index="13">
        2.6501074033475879e+02 7.9133370961388337e+01 9.0749488484668509e+03 -3.4388093547023095e+02 8.0797669599848305e+04 3.0772397644077366e+04 -4.6240161206101417e+04 -2.4538972841177070e+01 -1.3072306060791016e+02 -2.1812419857171258e+02 -5.1986436562704341e+01 1.7770426242309868e+03 3.8180171760482637e+01 1.9632571983079924e+05 -1.5579271773113869e+03 1.4186236218782142e+04 -1.7880805303121224e+02 -2.2723636627197266e+01 -6.9270694526010834e+02 -1.1172195840033386e+02 -8.9078133617692547e+03 3.9153510987489699e+02 7.7063914720229339e+04 -2.1378759841738778e+04 1.8730452866998821e+03 -2.0600044768772301e+02 1.1886735916137695e+02 -1.6667096948140394e+02 -5.8647029188939264e+01 2.5933774789819736e+03 -4.9180842736733155e+01 4.6201352729198385e+04 1.9819186872320570e+04 -7.5126578669874089e+03 -1.4512564445584039e+02 1.3257082444429398e+02 -5.9588417502544894e+02 -7.2163876482834482e+01 -3.8612319585853984e+03 2.7066814747435885e+01 -6.8987532820052322e+04 2.2592289002588950e+02 -1.7144446496381424e+03 -3.5957933686689569e+02 -1.0665581238269806e+02 2.4015744791042971e+02 -6.5082075743127064e+01 -3.4903176618942407e+03 8.0578733990861417e+02 -1.0286088376359086e+04 6.4511703884992321e+03 -2.9794792769976621e+03 1.4092260209022061e+02 -1.7806799296408021e+03 1.2596724720195477e+03 
      </Row>
      <Row Index="14">
        -3.2674610516800010e+02 -9.8393122505072313e+01 4.0378353183301224e+04 -2.6054666736794496e+02 -2.1601576065558856e+04 1.9007761889700717e+05 -2.8453950935758767e+03 -8.0055878395805394e+02 1.1846564006805420e+02 -1.1340631320857017e+02 7.9889371859826497e+00 7.0351074118919987e+03 -6.5516336996841318e+00 -1.5579271843494798e+03 9.1091372374950675e+04 -2.8125505993464496e+04 9.7573933678544904e+00 6.9807857513427734e+01 3.3096378562598017e+02 -2.4907984355300997e+01 -2.5935432640677507e+04 2.8537031113994215e+02 2.0033611135682673e+04 1.2361171346742020e+04 8.1137171111108910e+02 1.2513232151565498e+02 -1.8986689758300781e+02 1.9446466176593844e+01 5.6724761564207515e+00 -2.3492050605399977e+03 3.8490122304108070e+01 -3.2051286865982689e+04 9.4975721173967959e+03 1.2083764074438972e+04 8.6693757561820826e+02 -1.5782597678899765e+02 6.3234362269723636e+00 -1.2029158023572202e+02 1.4192631454737351e+04 1.1401581916673901e+02 -1.5348329804388515e+04 -3.0114919275406348e+04 -7.9207355009921775e+02 2.7548517775075868e+02 1.9241902567446232e+02 4.4344271063224892e+02 -1.6067350930605201e+02 1.1563014262148772e+04 6.7032365795547241e+02 -3.5939586135578347e+03 2.0237566641537902e+04 -1.4174314991627871e+03 -1.4900161155203186e+03 1.9193068899111781e+03 -9.6725165951248152e+02 
      </Row>
      <Row Index="15">
        6.9862968801193716e+01 -1.4949687429786343e+02 2.5032534264428425e+04 4.0245802321389965e+02 2.6946946579360738e+04 2.6101206053495240e+04 -7.7887466238166729e+04 9.3014469602670118e+01 1.8275634765625000e+01 1.1479895877961826e+02 3.4258737893462239e+01 3.4278351182654651e+03 -2.6366365428797508e+01 1.4186236219485058e+04 -2.8125505985707045e+04 6.6343823185698688e+05 -2.4198673971848984e+02 -2.2354003906250000e+01 -5.8639968521474941e+02 -7.5981961083273973e+01 5.9706925124679146e+03 -4.1313269296526238e+02 -3.6435771511842904e+02 6.3186602404252626e+03 -1.7730082532757771e+05 3.4318293414229396e+02 2.8008666992187500e+01 -3.0219942219216335e+02 1.6666074566957022e+01 -4.4671487816255285e+03 7.8159844983091403e+01 1.6201525404160930e+04 -1.3122549792879236e+04 -1.6951831494034332e+05 -3.0256039560396846e+02 -2.2471920013427734e+01 -7.9491405075992384e+02 -1.8589864405690298e+02 9.1696804247936761e+03 -6.4943108021911016e+00 -7.0355351077546948e+02 -3.6577965220978658e+03 1.7648874160013290e+05 1.6598291890645970e+02 -9.2004917860031128e+00 -8.9849060887194355e+01 3.0377352168132711e+02 6.3776806547451873e+04 -9.1279599595178320e+02 -5.7160467089127240e+04 1.5026952444177912e+03 2.3416249814334256e+05 1.3927904264580320e+02 5.6988964844421709e+04 -5.7024767508605313e+04 
      </Row>
      <Row Index="16">
        2.9992774657250534e+00 -2.7654132379945442e+00 6.7707501439927427e+01 2.0219035058137145e+00 -1.9278696187533228e+02 -4.1324866686540304e+02 -5.2375421371429638e+01 1.4849399710173989e+01 -1.6077271848917007e-01 1.2613438066514018e+00 7.2316338188312690e-01 -1.0666704716061122e+02 -3.7312496450343946e-01 -1.7880805302709862e+02 9.7573933816056524e+00 -2.4198673946196868e+02 5.1104156322570713e+00 1.5270954370498657e-01 -8.3700363430862854e+00 4.7257749654834793e+00 4.2480899390932400e+01 -2.3325135988213557e+00 9.8279701430724117e+01 -2.0323153760037042e+02 -2.3649410892130049e+01 4.6310709728776729e+00 -1.9512611627578735e-01 4.8676203174876695e+00 -2.5368310744512479e-01 7.0581951166335756e+01 5.7534559234942417e-01 -3.9295865810669187e+02 -1.5535757285054100e+02 5.2196175084096211e+01 -1.2990192437237422e+01 1.2973226304166019e-01 -8.7279259907137607e-01 1.6814785588995234e+00 3.3744123509799053e+01 9.8768202634330893e-02 -5.8528776945070149e+01 5.2895995556567016e+01 1.2525291782437989e+01 -1.2900894217215836e-01 2.3325024358928204e-01 -8.1391395142417977e+00 1.6141132175069008e+00 -2.9901101359783311e+01 -3.1163491955039548e+00 -1.7496352785470606e+01 -1.7196934441468834e+01 1.3785600324888774e+01 2.0913789047009026e+01 8.8314075169399970e+00 -7.6623660610026940e+00 
      </Row>
      <Row Index="17">
        -6.7587255689370396e-01 2.5609537297184848e+00 1.1339245672699019e+02 -2.3612168560013616e+00 2.8106690805162177e+01 1.9584185844335877e+01 -7.1808521233045326e+01 9.7099559274568481e-01 -1.1704772636294365e+01 -3.5737209087945554e-01 1.9956059175857854e-02 -2.2713861113351044e+01 1.0402362324170217e-02 -2.2723641470501342e+01 6.9808043973619306e+01 -2.2354043286248270e+01 1.5270946221271620e-01 9.9999595451224968e+05 -1.2625084043942221e+00 -6.2184063664746203e-01 -7.0015334429506595e+01 2.3004919032892865e+00 -1.7193994670425656e+02 -7.2838490439901051e+01 -4.2289022442071946e+01 1.1275421444212599e+00 1.5418750472366810e+01 -5.5912644552631341e-01 -1.4816606669602680e-01 9.3092981674725522e+01 -5.5131765799130461e-01 2.9451587668762147e+02 3.9588644967311126e+01 1.0234294791724773e+01 2.5268115788871466e+00 -8.9124757178360596e+00 -2.5690223798908765e+00 1.5348448904833742e+00 -8.0705528979561691e+01 -2.9850020636311986e-01 1.8899254538783816e+02 3.0909824491531090e+01 1.1824899630347886e+01 4.5105604082812238e+00 1.1302681615459733e+01 6.6192531061503068e-01 -2.8915703439634211e+00 -2.3982932475958219e+01 4.6176810600421225e+00 2.9066826389894608e+01 9.3811526301210417e+00 1.4386878808327593e+01 9.1810514960197542e-02 7.1233880968893601e+01 -1.8414903330555232e+00 
      </Row>
      <Row Index="18">
        -3.5950086076750807e+01 -1.6347974781544281e+01 -2.2371729832503655e+02 1.6917105377225887e+01 -4.3076926330164588e+02 9.4902916293382441e+02 -1.4363573750795877e+02 -3.4986137723558713e+01 1.2493457794189453e+00 -7.3581069923639006e+00 8.8419098521441697e-01 4.3293898058221345e+02 -3.9354871618285614e-01 -6.9270694609348175e+02 3.3096378425287548e+02 -5.8639968462311663e+02 -8.3700363416129733e+00 -1.2625026702880859e+00 2.4648871299652785e+02 -4.8968135109255712e+01 3.5537075149634370e+03 3.6061290267244786e+01 3.9136584557480728e+02 1.0195814669415995e+02 9.0956279785308880e+01 -3.9257914973628345e+01 1.5922451019287109e+00 -1.8729228331661574e+01 9.5045381997885627e+00 -5.3225823380598388e+02 -4.6817541527413237e-01 5.4955623126955322e+02 -2.9318311005928194e+02 6.4702981124557573e+02 3.3618413935859500e+01 -6.9279144704341888e-01 1.9033304012400430e+02 -5.5656670889827723e+01 3.5734258951063675e+03 5.1285596411991492e+01 1.4875702241428153e+03 -1.0315777674690039e+03 -6.5966582444323285e+02 -1.6438355952092717e+01 -2.0008726119995117e+00 3.2900228283561660e+01 1.2804578566819529e+01 1.2154496604732074e+03 -2.4358963121281956e+01 7.3373540074991922e+02 8.6477166827255829e+01 -5.9849524000362078e+02 -4.8013095929605015e+01 -5.0075450345299396e+02 4.9067732250671725e+02 
      </Row>
      <Row Index="19">
        2.1031340359568183e+01 -2.3876771693347628e+01 -5.2161300202348718e+02 1.3646971284668563e+01 1.0673593950477840e+02 -5.6786991229455998e+02 5.3152915111249354e+02 7.4474399222454544e+00 2.1551617980003357e-01 4.8232477259287023e+00 2.3066814999110665e+00 -1.6876816102855415e+02 -1.7099024971888834e+00 -1.1172195803749662e+02 -2.4907983804514515e+01 -7.5981958492106060e+01 4.7257749657726080e+00 -6.2184512615203857e-01 -4.8968135119564124e+01 1.7963858358569942e+02 -2.2442786532717646e+03 -7.3148911898839160e+01 5.2024528980960895e+01 -1.9989309774268850e+02 -2.4116704754981492e+02 8.1252647712566386e+00 7.1764719486236572e-01 9.2105194241561321e+00 3.9785059712416029e+00 -2.0255423192626131e+02 -3.4893607132680327e-01 -2.1086028264781453e+02 2.5576952314269147e+02 -6.9733401516701065e+01 -1.6585739731269864e+01 5.7002190593630075e-01 -2.0062253614293358e+01 1.6012316801067942e+02 -2.1396672092443450e+03 -6.1210720527560483e+01 2.0812363640612966e+02 1.3865660092918620e+02 -3.1171379461231032e+02 -9.9359957837795747e+00 -8.1567424535751343e-01 -2.1781577521887748e+01 1.3450564662983957e+01 -7.1431633450779634e+02 -2.1030271711936006e+01 -4.3678980866200163e+00 -1.0292563367703696e+02 -5.5162081821074401e+02 1.8052029248166036e+01 3.4177184540397199e+01 -3.8258275345006012e+01 
      </Row>
      <Row Index="20">
        3.1825974314462695e+02 4.5477107925320502e+02 -1.6631215876933431e+04 -2.0154371650555049e+02 -4.7728078557360168e+03 -3.7053074406940257e+04 -2.5247460646408308e+04 4.4899571718852457e+02 7.1186645507812500e+01 1.2566719142554575e+02 -6.0433385052607264e+01 -6.9787712456907611e+03 3.0074972533275741e+01 -8.9078134157817112e+03 -2.5935432730704546e+04 5.9706925018131733e+03 4.2480899393603977e+01 -7.0015808105468750e+01 3.5537075161285184e+03 -2.2442786537745865e+03 3.6427777852289635e+05 1.1700828009952158e+03 2.0330674193632594e+03 -4.3392133823469281e+04 1.7939852219101245e+04 -3.8191224276117455e+03 7.3287353515625000e+01 4.1517748850108137e+02 -1.6670454889189156e+02 6.0247640343806270e+03 -3.5220094501940409e+01 1.3574028444231852e+04 3.3029455365162168e+04 8.1302718506177953e+03 -1.3875711182870003e+02 -3.0145490646362305e+01 4.3119748453398679e+03 -1.9418511622210949e+03 3.0656695672460878e+05 9.3743816032952532e+02 1.4541262574856359e+04 4.4413602286819078e+03 6.6658849312995153e+02 -3.7871202473486783e+03 -7.3191680908203125e+01 -3.8313091108423396e+02 -2.8302374029629664e+02 8.9895317607187957e+04 2.4457754159426207e+02 2.5270566978989598e+04 -5.2030910522617496e+03 2.3914092234702453e+04 2.9443739940699015e+02 -2.3296359696365427e+04 2.2934926901399132e+04 
      </Row>
      <Row Index="21">
        -5.7022774828831055e+00 3.5751482564847890e+01 8.8764800381026714e+02 -5.7550190187644013e+01 -7.6545447219608832e+01 8.9764004054626866e+02 -1.5868159557822156e+02 -4.5404322483150148e+00 -2.5038369968533516e+00 -6.1158173585714737e+00 -2.4261884617815261e+00 6.1954305030196053e+01 1.8758424100566793e+00 3.9153510966091181e+02 2.8537031096913142e+02 -4.1313269211106490e+02 -2.3325135990976729e+00 2.3004904687404633e+00 3.6061290284136476e+01 -7.3148911912103330e+01 1.1700828019420828e+03 9.7780225768872455e+01 3.0626209521266151e+02 3.7173624669256560e+02 4.5052530089443394e+01 -1.7880555710361556e+01 -2.4243967980146408e+00 -1.1221512493824264e+00 -1.7401722942830173e+01 4.6948396971481299e+02 -4.5026160273136933e+00 1.0328407165809267e+01 -4.9139753731117412e+02 -1.7396206209258679e+02 6.3158354570656590e+00 9.9549335858318955e-01 2.9174964362483834e+01 -5.2699089466872124e+01 1.1746762303058672e+03 4.4487925431232071e+01 -2.8634969246387959e+02 -2.4264280371653157e+02 1.1083082578103858e+02 -1.3751771195799922e+01 2.9992093071341515e+00 1.9435955422403396e+01 -3.8703080766022872e+01 3.3779148932001078e+02 1.2619226490725173e+02 -4.2000192451167209e+01 1.5126463918694370e+02 1.9656872490447319e+02 -1.2393680465444334e+01 9.8612419592458522e+00 5.2267227319847684e+00 
      </Row>
      <Row Index="22">
        3.7394261995673031e+02 -1.3102992839867306e+02 2.2028509225224785e+04 -2.5076952861305972e+02 2.3123582165166736e+04 4.1620173555622576e+04 -3.5196289118302811e+04 2.4751071258619939e+02 -3.5493148803710938e+01 -4.8431863774176236e+01 3.9753756057420105e+01 -4.5448458236914012e+03 -5.4638425467542220e+00 7.7063914708163415e+04 2.0033611105464399e+04 -3.6435771384090185e+02 9.8279701432182264e+01 -1.7194018554687500e+02 3.9136584410547380e+02 5.2024529676624070e+01 2.0330673470655856e+03 3.0626209429184939e+02 5.8985908348244173e+05 1.9842388748129364e+04 -1.4555686470232831e+04 1.3318449949763572e+03 3.0148510742187500e+02 -5.4504411398370166e+01 3.8666697935037533e+01 7.5621895403931230e+03 3.3640396791456553e+01 -1.0260822217637813e+05 -3.3506309051749908e+04 -8.8881309987725144e+03 -4.0902867491021010e+02 1.3835127258300781e+02 7.0139289840494564e+02 -3.4730392258868505e+01 7.5175082811491302e+03 1.2431372684048335e+02 4.0105810393354448e+05 -1.4165610084111773e+04 1.2738816809746852e+04 9.0055380620151186e+02 -2.8974295043945312e+02 -1.7620784979703603e+02 1.2961672454204063e+02 1.7944009657994542e+04 5.6183629112155040e+02 4.6617033365726682e+04 6.9850246554813502e+03 6.1220177791824608e+02 4.0436121127666411e+02 1.7462452824394688e+04 -1.8888247453699194e+04 
      </Row>
      <Row Index="23">
        -4.9313066377721447e+02 -2.4862667560474753e+02 3.0414234012343462e+04 -1.7902064983875255e+02 5.5893713156089652e+03 -1.6322893287987768e+04 -1.5263963144120891e+04 -1.0107547797172501e+03 8.7018737792968750e+00 -1.5652143052657993e+02 -3.3172209397554070e+01 1.6214588735737983e+04 1.7952854188313381e+01 -2.1378759842145191e+04 1.2361171352266334e+04 6.3186603189362213e+03 -2.0323153759386946e+02 -7.2838562011718750e+01 1.0195814654153992e+02 -1.9989309775180067e+02 -4.3392133809417624e+04 3.7173624653934820e+02 1.9842388751708102e+04 6.5333593912985222e+05 5.1092221133095536e+03 -1.1639123799592996e+03 1.1892224121093750e+02 -1.6656570872333356e+02 7.2480547944589318e+01 -5.4435098403009597e+03 -3.2943433675176209e+01 -5.6076161663717066e+04 -2.6709727588351269e+05 -1.1157377747160863e+03 4.5446985191551431e+02 1.4794424653053284e+01 -5.3635079191269733e+02 -3.4231534590764983e+02 7.0121108731554705e+02 1.9602687060866802e+02 -1.1967155144686345e+04 3.3334135518613888e+05 -4.0372048007963458e+03 -1.2284119591927099e+03 -1.0074367141723633e+02 8.0243720883681635e+02 2.5724627499708049e+01 4.0384528045378192e+03 5.5813270334173899e+02 8.7084681963385356e+02 4.0820102578938878e+02 -4.2098178353458798e+03 -5.2744080488103555e+02 -3.3261387444825123e+03 2.8377878548913204e+03 
      </Row>
      <Row Index="24">
        1.1755621732997736e+02 -1.7400860370795311e+02 -2.2230365615495364e+04 7.6549875417807016e+01 -6.2847851856015623e+03 -2.1768400130119175e+04 1.3668016877119662e+04 -1.5213727026480797e+02 -2.8628112792968750e+01 -3.9419755620765500e+00 1.6923434111486131e+01 4.6020147769355681e+03 -8.6595416153677434e+00 1.8730452921314863e+03 8.1137172245234251e+02 -1.7730082532627881e+05 -2.3649411070142378e+01 -4.2288330078125000e+01 9.0956278885249958e+01 -2.4116704917069276e+02 1.7939852199672398e+04 4.5052529451348946e+01 -1.4555686479645694e+04 5.1092220615041442e+03 8.7220423764956417e+05 -3.0937600161927662e+02 1.0121630859375000e+02 -5.3078577594507088e+01 1.2031755899321819e+02 -2.9440076836564913e+03 -4.0175671358528902e+01 1.5101398622710258e+04 -4.8844451109130459e+03 -1.2439444072838360e+05 9.2161925599288338e+01 -1.1992807388305664e+02 1.2976467388218521e+02 -3.0807826423402855e+02 -1.3914985568774842e+04 8.3824265895523467e+01 1.1699679079319394e+04 -2.0545860405665007e+03 1.2583715414795507e+05 -3.1573940802753765e+02 9.5264892578125000e+01 -3.6406076737097465e+01 1.7673535368915873e+02 3.7908806808734022e+04 -1.3086880022065196e+02 -4.0378115282582890e+04 -2.7310574952627176e+03 1.6578261176293215e+05 -1.6122251242749610e+02 4.2830450149281765e+04 -4.2259941507731470e+04 
      </Row>
      <Row Index="25">
        1.8351385041527170e+01 -2.0833332921235836e-01 2.0843548979431307e+02 -6.7521725745540664e+00 -1.0868158497262630e+02 -2.8694234929915183e+02 3.5822026851849296e+02 1.3672927224332501e+01 -3.0306148529052734e-01 3.5243068348625002e+00 3.1451402831545607e+00 -1.1896864150810143e+02 -1.4731111208791603e+00 -2.0600044709089889e+02 1.2513232256751508e+02 3.4318293473636732e+02 4.6310709725021297e+00 1.1275529861450195e+00 -3.9257914995368878e+01 8.1252647737596817e+00 -3.8191224280407355e+03 -1.7880555699005747e+01 1.3318449943843766e+03 -1.1639123798749388e+03 -3.0937600145549050e+02 1.5776689890288841e+02 -1.7713603973388672e+00 -3.2556622170376137e+00 -1.8186306866756747e+00 1.1039491195620718e+02 1.8177804009261234e+00 -1.0304458483411436e+03 -2.1073128328378311e+02 -5.0751270586182648e+02 -2.8576089602513729e+01 3.2469981908798218e-01 -2.4864283989119578e+01 6.6370573574427265e+00 -3.4326153853136075e+03 -2.2377246921566528e+01 6.8860269120587100e+02 -1.0497198152028018e+03 1.5078612198335622e+02 1.3267029998319489e+02 1.1065869331359863e+00 -1.5595605304895003e+01 3.8961899189801983e+00 -1.0648339003873230e+03 6.6156160995275544e+00 -2.4374336918149243e+02 -1.1102824625743885e+01 -1.0540432393811679e+02 2.4477727669507203e+01 3.6128575881852635e+02 -3.5615812409918237e+02 
      </Row>
      <Row Index="26">
        4.8578524366602738e-01 -2.5986255246183201e+00 -1.4776330527498635e+02 2.5192053657530469e+00 -1.6439063121393701e+02 -4.5088948832326423e+01 2.2202218465729493e+02 -1.3064518480906460e+00 7.9098156392574310e+01 3.6334581976814206e-01 2.4511520867001479e-02 2.4749050221430934e+01 -2.1816018697508710e-02 1.1886739997576797e+02 -1.8986690519102558e+02 2.8010004975600168e+01 -1.9512607626545275e-01 1.5418751001358032e+01 1.5922298369589996e+00 7.1764654261542682e-01 7.3286855677220004e+01 -2.4243987060416021e+00 3.0148502056607549e+02 1.1892223860883041e+02 1.0121633697700202e+02 -1.7713583370695432e+00 9.9991665116000175e+05 9.3587595568482085e-01 8.7509852841868019e-02 -1.1438646062399847e+02 6.0492600138348684e-01 -3.3396376401426824e+02 -6.0574746595913780e+01 -3.6823737718801397e+01 -2.5602419177741189e+00 5.1258130624890327e+01 3.0727362761576167e+00 -1.4928319826058434e+00 4.4437302842136972e+01 3.7000321079525172e-01 -3.1593021710970788e+02 -5.1184962380581396e+01 7.3652149745040788e+01 -5.3860682220602891e+00 -7.8303222894668579e+01 -5.3378384958784864e-01 3.0879464494549396e+00 1.2163913348486773e+02 -4.9573109746101913e+00 -1.5694286913588752e+02 -1.3985113061175477e+01 2.9943199780774378e+01 -7.8182610694757315e-01 -3.6347513516688571e+02 -1.0532597447598148e+02 
      </Row>
      <Row Index="27">
        8.5320539163278450e+00 -3.0369849846644166e+00 -3.9174829982061158e+02 9.7397082917662470e-02 -6.2093824886191214e+01 -4.0556315502327993e+02 -5.1180733755628944e+02 8.4077527512891344e+00 -1.8629172444343567e-01 1.7972383250974033e+00 -4.6123597914060088e-01 -2.9082890519094394e+02 -1.1611240562852210e-01 -1.6667096951824834e+02 1.9446466085850261e+01 -3.0219942201772210e+02 4.8676203175437553e+00 -5.5912655591964722e-01 -1.8729228334522162e+01 9.2105194250701192e+00 4.1517748831618024e+02 -1.1221512507310334e+00 -5.4504411420265797e+01 -1.6656570872869770e+02 -5.3078577437860531e+01 -3.2556622142203402e+00 9.3587613105773926e-01 2.3141990595396464e+01 -2.5550268885976060e+00 -7.2809777412477146e+01 1.0920724727911397e+00 -1.6322832952437602e+02 1.4179694634857233e+02 -1.8982532190820007e+02 -7.1689842068600775e+00 5.8110691839829087e-01 1.2076448397891157e+01 4.7447694075335090e+00 2.4222236359478109e+02 -1.2090675362062608e-01 5.2696612349028101e+01 1.3248085542612867e+02 1.0224635659048545e+01 -8.7177717274873565e+00 -7.8717854619026184e-01 -1.1103340818865732e+01 -2.9061975066757668e+00 4.1235690551567316e+01 3.3618346640937036e+00 2.8594828717291001e+01 -7.1363579727095370e+01 2.7786998242988791e+01 1.0224416428053722e+01 -2.3879687521404257e+01 2.0061343237860889e+01 
      </Row>
      <Row Index="28">
        3.5130628217871127e+00 -2.1462611218340577e+01 -3.2389188776689764e+02 1.8284592475142869e+01 4.8983508403496671e+01 1.6177303175909401e+01 9.6541385916060790e+01 -6.0028398195620758e+00 4.7218742966651917e-01 1.4889630945212780e+00 1.1453160740611441e+00 3.0265334768072648e+01 -5.5871549908380480e-01 -5.8647029168250128e+01 5.6724761559089529e+00 1.6666074384469539e+01 -2.5368310721630216e-01 -1.4816606044769287e-01 9.5045381940550016e+00 3.9785059768785991e+00 -1.6670454929765606e+02 -1.7401722944142747e+01 3.8666697776066940e+01 7.2480547968578321e+01 1.2031755888110092e+02 -1.8186306818746782e+00 8.7510347366333008e-02 -2.5550268888786762e+00 1.0613449476126128e+01 -2.2429411286051791e+02 1.5404940819739319e+00 -2.0023210611603736e+02 1.2725096356428723e+02 2.4027211355574704e+02 2.3618901364761324e+00 -5.8325190469622612e-01 1.0120525072395898e+01 -7.6231090253725693e+00 -9.9735497106894087e+01 7.4566350997215536e-01 -4.9585582690156912e+01 6.5988515213482799e+00 -9.7826907389842575e+01 -4.0790194666123289e+00 -1.8373715877532959e-01 -4.3788152597363279e+00 2.0047441904136068e+01 -5.6114375945025287e+01 -3.3838448243118478e+01 2.4611552851347835e+01 -2.4025383482809552e+01 -1.2463540714515443e+02 -3.0387070389638673e+00 -3.3813778244884219e+01 3.2865881425712047e+01 
      </Row>
      <Row Index="29">
        -5.1716674876508776e+01 7.4946246043070084e+02 2.6465278843624721e+04 -4.9444099224796241e+02 -3.7525023843934759e+03 -4.7045999859108706e+03 2.2384082863502175e+04 5.6141900250043034e+02 -7.1801757812500000e+01 2.4748735478431627e+01 -7.2583154649520566e+01 -1.6558473479820532e+02 3.1422736576175907e+01 2.5933774894000962e+03 -2.3492050409819931e+03 -4.4671487533468753e+03 7.0581951164776910e+01 9.3093231201171875e+01 -5.3225823396885198e+02 -2.0255423200916158e+02 6.0247640421847100e+03 4.6948396996497394e+02 7.5621895317754534e+03 -5.4435098367470200e+03 -2.9440076692388393e+03 1.1039491178297294e+02 -1.1438644409179688e+02 -7.2809777445395852e+01 -2.2429411294938208e+02 2.0642262168062571e+04 -6.8363070126464663e+01 -9.2382667172695510e+03 -1.1028654672835444e+04 -1.2203417573443558e+04 -1.1285345417459450e+02 2.8886378049850464e+01 -6.1153492408213492e+02 2.8829629192547168e+02 9.2780890134547808e+03 -3.9114655307162053e+01 -6.7398769402579637e+03 6.6146184266877572e+02 2.0557392666952801e+03 3.3921400288516168e+02 1.0837419891357422e+02 -8.8762415757522831e+01 -6.8189421855141086e+02 -1.8243244232854882e+04 8.7621266992059827e+02 -6.3887155563690540e+03 1.5214346065517334e+03 -1.5373179436155920e+03 5.5049282797558772e+02 5.8090409497281389e+03 -5.2771015744580327e+03 
      </Row>
      <Row Index="30">
        8.9339479151357404e-01 -3.3352547130403476e-01 -5.3658909326488953e+01 2.1845954856577516e+00 -1.9221890459210044e+01 1.3001742798046962e+01 -4.8051068569732138e+01 3.5651596820037978e-01 6.7319715023040771e-01 8.5973109410470983e-02 7.3612287955282696e-01 -1.7380370580646627e+01 -2.1807101422550579e-01 -4.9180842734605505e+01 3.8490122306062403e+01 7.8159844940739276e+01 5.7534559232157356e-01 -5.5131715536117554e-01 -4.6817541610950886e-01 -3.4893607114275005e-01 -3.5220094530228778e+01 -4.5026160276957210e+00 3.3640396765045580e+01 -3.2943433697276078e+01 -4.0175671390069056e+01 1.8177804011863223e+00 6.0492569208145142e-01 1.0920724727454081e+00 1.5404940819788271e+00 -6.8363070124958639e+01 2.1619979265080134e+00 -1.1936551249692434e+02 1.5031015844627881e+01 -6.0754658203546853e+01 -3.8958404829654780e+00 -5.1388738863170147e-01 1.1802938020946678e+00 6.4319545659876454e-01 1.4699722364690359e+01 -5.2331389001394446e-01 -1.6675193003461800e+01 -1.6677156077402813e+01 3.6904576858687278e+01 -1.9047295572301874e+00 -6.1681434512138367e-01 -9.0674091740627105e-01 5.8354732599724528e+00 1.6884149608941872e+00 -8.3096754709381493e+00 -1.7913556127077648e+01 1.8465865062723302e-01 4.3848904534768188e+01 1.5155367800988149e+00 1.2168420985914942e+01 -1.5215259251059663e+01 
      </Row>
      <Row Index="31">
        -5.9613382992425409e+02 5.0475731381116202e+02 -1.7412930611836200e+04 1.5418814306483341e+01 3.0735261923228623e+04 -1.0432321364208125e+04 2.5675277102652733e+04 -4.8529979744829916e+02 -2.3426452064514160e+02 -1.6021115098591008e+02 -1.5012487529447685e+02 1.3943981538800508e+04 6.5216288141017799e+01 4.6201352727122357e+04 -3.2051286878582556e+04 1.6201525353590026e+04 -3.9295865808142321e+02 2.9451575469970703e+02 5.4955623113387082e+02 -2.1086028219560052e+02 1.3574028412186060e+04 1.0328406969409412e+01 -1.0260822219214169e+05 -5.6076161656525481e+04 1.5101398591263220e+04 -1.0304458480596847e+03 -3.3396365356445312e+02 -1.6322832951085843e+02 -2.0023210602386155e+02 -9.2382667109078648e+03 -1.1936551250461923e+02 2.6737795227089507e+05 1.0722509907054159e+05 -2.0172337423249075e+04 7.4543632423217343e+02 4.5829992890357971e+01 -1.6923143175904275e+02 9.8732374116605200e+01 1.3893572591017928e+03 -1.2400446902985408e+02 1.0376161194886628e+05 5.6539709976012789e+04 -1.4036508634193044e+04 -2.0107731343080809e+02 3.2125276947021484e+02 7.7852430177564747e+02 -4.9747133547950324e+02 4.5714317338007086e+03 -2.4258962602985207e+01 2.0199239444561146e+04 -1.3817059118770487e+03 -1.9164671976186062e+04 -6.9880418083193581e+02 -1.7615288990421836e+03 3.3421004442144113e+03 
      </Row>
      <Row Index="32">
        9.7191871720051063e+02 -1.9718657161135582e+01 -7.9361058517938538e+04 2.9296278153464277e+02 -1.3425102904824540e+04 1.8199892334769398e+05 3.6989791222598229e+04 -6.2642459628598726e+02 -4.5556106567382812e+00 2.6387305495340206e+02 2.8967505294321199e+01 -2.0874227945461695e+04 -2.6435686102711770e+01 1.9819186882244743e+04 9.4975721328128129e+03 -1.3122549814909697e+04 -1.5535757285226282e+02 3.9588729858398438e+01 -2.9318311033761711e+02 2.5576952340306553e+02 3.3029455349780925e+04 -4.9139753751184895e+02 -3.3506309075672121e+04 -2.6709727588696656e+05 -4.8844451306269038e+03 -2.1073128328583272e+02 -6.0574768066406250e+01 1.4179694630989059e+02 1.2725096361466703e+02 -1.1028654672446912e+04 1.5031015851943607e+01 1.0722509906569822e+05 5.4919828362305160e+05 3.3960064954072644e+04 1.3038891765803326e+03 -1.4289498329162598e-01 8.0687526991414722e+02 3.0039255735843506e+02 -3.7536995554372952e+04 -2.1055888119672790e+02 3.0872829379128525e+04 2.7106013453526038e+05 6.2234094567208085e+03 5.4343442333780303e+01 3.6203041076660156e+01 -9.5020994017229532e+02 2.2262826975630037e+02 -8.6940013408778395e+03 -8.1774233892261577e+02 -2.2631334118952418e+03 7.0112603696425977e+03 4.0354453569467682e+03 -2.9427578568552162e+03 7.4626331931333398e+03 -7.2960955192498568e+03 
      </Row>
      <Row Index="33">
        2.2892449792274579e+02 -4.4290976519651889e+02 -3.0952346665961435e+04 2.9179021208462291e+02 3.5696040719263256e+03 -5.7438642553786281e+04 -2.1926583591016941e+04 -6.7197612389134156e+02 2.2612854003906250e+01 -2.2184309114541975e+01 -8.1824494864296867e+01 -1.0472634653148707e+04 2.1330559619513224e+01 -7.5126578568444820e+03 1.2083764089852571e+04 -1.6951831493671238e+05 5.2196174912693095e+01 1.0235229492187500e+01 6.4702980982642839e+02 -6.9733402901841401e+01 8.1302717985397485e+03 -1.7396206276799103e+02 -8.8881310212325770e+03 -1.1157378246802837e+03 -1.2439444072587974e+05 -5.0751270565131813e+02 -3.6824218750000000e+01 -1.8982532210758447e+02 2.4027211365146368e+02 -1.2203417580448251e+04 -6.0754658170563744e+01 -2.0172337398529984e+04 3.3960064977189046e+04 8.2286999708452867e+05 5.5767133232523656e+02 3.2287363052368164e+01 6.3399643106179201e+02 -2.9860871494084057e+02 -1.5355150214521806e+04 5.5483899056243629e+01 6.3023288421656762e+03 1.0630648228440434e+04 1.2603089305947488e+05 -3.7815722405893479e+02 -3.4837463378906250e+01 -9.8053158798356890e+01 2.6093548874992302e+02 3.2980974852257154e+04 -4.1525146482501077e+02 -4.1155421627896183e+04 -7.7331539757699657e+03 1.6527515301421002e+05 -4.5531027988806045e+02 4.1970933633172885e+04 -4.2179394115312614e+04 
      </Row>
      <Row Index="34">
        -2.2585763457299002e+01 2.5513110972060113e+00 9.5889313764771714e+01 -1.0013559643613146e-01 -8.2420446983690908e+01 3.1851660974851679e+03 5.3944661013798304e+02 -5.2590685775220464e+01 -2.6859498322010040e+00 -4.6433395424455357e+00 -4.5974095052362358e+00 2.7439428401551771e+02 1.6336775837287343e+00 -1.4512564441860209e+02 8.6693757573340372e+02 -3.0256039678533489e+02 -1.2990192437202218e+01 2.5268101990222931e+00 3.3618413947213860e+01 -1.6585739730457153e+01 -1.3875711137324845e+02 6.3158354572208264e+00 -4.0902867487496383e+02 4.5446985192905686e+02 9.2161924692306684e+01 -2.8576089610398739e+01 -2.5602417588233948e+00 -7.1689842064080125e+00 2.3618901370642869e+00 -1.1285345428696394e+02 -3.8958404831027456e+00 7.4543632433096218e+02 1.3038891764243517e+03 5.5767133136455379e+02 7.3388700582437565e+01 1.2808090287726372e+00 5.0679815709773983e+00 -1.3311052527390846e+01 1.4114359822338622e+02 2.9918465398689147e+00 2.3519974851184361e+02 6.2677077932826364e+01 -8.1586354725580861e+01 1.2699551396542539e+01 2.3108967393636703e+00 2.7824445787460959e+01 -1.4437106174203018e+01 4.6877798623116107e+01 6.8126713445826983e+00 3.0404957350069829e+01 2.3519996926003614e+02 -1.3543597977078934e+02 -8.6331785657169121e+01 2.0295878782461507e+01 -9.0112271340894416e+00 
      </Row>
      <Row Index="35">
        -1.2706375393468472e-01 9.7840154074553243e-01 1.5842968739243815e+01 -7.8558572774927349e-01 -1.9407407359319768e+02 -1.8215951939580009e+01 3.2473549887096033e+02 4.1628826874661051e-01 -4.9879512608051300e+01 1.6280912148104676e-02 -8.2646713920009773e-02 -1.1686754291047464e+01 -7.5236531513755978e-04 1.3257081647301584e+02 -1.5782593584730785e+02 -2.2472844653617358e+01 1.2973216581299241e-01 -8.9124758243560791e+00 -6.9278404666051596e-01 5.7002303036246538e-01 -3.0145304220082984e+01 9.9549465333476772e-01 1.3835128459584212e+02 1.4794432580483772e+01 -1.1992814239157269e+02 3.2469973763538179e-01 5.1258129835128784e+01 5.8110671676264802e-01 -5.8325158926270859e-01 2.8886399996632854e+01 -5.1388742628194883e-01 4.5830009479474029e+01 -1.4290391188353624e-01 3.2287190682113305e+01 1.2808090934246059e+00 9.9996693907043710e+05 -2.6279149141443825e-01 9.8351472069344248e-01 -2.8181897287202709e+01 -2.3205717161387832e-01 -1.5593401536990399e+02 -1.5946603993948884e+01 1.0720818009361494e+01 1.7998914788443479e+00 5.0900919795036316e+01 -1.5778770017311672e-01 -2.2331187422688021e+00 -6.2589264182773931e+01 2.1452583544447421e+00 3.7400088719475121e+01 -2.4209698085064328e+00 8.1960920620717900e+01 -5.5610677611752735e-01 2.4042856962437560e+02 6.2829328353428473e+01 
      </Row>
      <Row Index="36">
        3.1459638890655867e+01 -3.5026069102915073e+01 -1.2910855480393839e+03 1.9039542553637915e+01 7.9254177660739515e+01 -2.1204813900696900e+02 5.2820099524342731e+02 -2.0395450737629986e+01 2.0310187339782715e+00 5.6399930508156899e+00 2.0272640181905501e+00 -1.9783020586595376e+02 -1.4995374032830284e+00 -5.9588417580095847e+02 6.3234348664409481e+00 -7.9491404892480932e+02 -8.7279259733801950e-01 -2.5690174102783203e+00 1.9033304010719550e+02 -2.0062253598975076e+01 4.3119748433516343e+03 2.9174964345503941e+01 7.0139289958729933e+02 -5.3635079167417280e+02 1.2976467571368266e+02 -2.4864283956096571e+01 3.0727462768554688e+00 1.2076448399851841e+01 1.0120525077312974e+01 -6.1153492371130585e+02 1.1802938030951680e+00 -1.6923143188606628e+02 8.0687527031291893e+02 6.3399643345709410e+02 5.0679815598078122e+00 -2.6279762387275696e-01 2.3013487406619964e+02 -4.3747136966644689e+01 3.6453561172963919e+03 4.8183935411512927e+01 1.2530382789654250e+03 -4.4072558845098683e+02 -7.2574018622219592e+02 -3.9013495602100619e+01 -3.5621156692504883e+00 -1.8141850701002568e+01 2.3292617417739805e+01 9.8198980183776098e+02 -2.3563924432564022e+01 7.2648659276826788e+02 -1.6126337588942809e+02 -6.7510844398399922e+02 -1.8146756845222626e+01 -5.3962503511617683e+02 5.2178745233757468e+02 
      </Row>
      <Row Index="37">
        7.2994169055924800e+00 3.0327482039487748e+01 5.6259521564071861e+01 -1.6730840935524132e+01 -3.5057557092841307e+01 -4.6735833958668718e+02 4.8673842463514166e+02 1.2311837103031170e+01 -1.8031816780567169e+00 1.3610569174380558e+00 1.7713494481565206e-01 -1.0176534764498592e+02 -1.1826589126512843e-01 -7.2163876111736613e+01 -1.2029157965277409e+02 -1.8589864163364109e+02 1.6814785590603236e+00 1.5348362922668457e+00 -5.5656670891158576e+01 1.6012316800515768e+02 -1.9418511611628553e+03 -5.2699089450862807e+01 -3.4730392835503380e+01 -3.4231534589563489e+02 -3.0807826276841934e+02 6.6370573482627293e+00 -1.4928373098373413e+00 4.7447694071026660e+00 -7.6231090311845469e+00 2.8829629191667374e+02 6.4319545629065544e-01 9.8732373794733576e+01 3.0039255716396553e+02 -2.9860871375225156e+02 -1.3311052527815013e+01 9.8351752385497093e-01 -4.3747136973342606e+01 1.8100725755433186e+02 -2.0426158769346675e+03 -6.7241035840097155e+01 2.6396598964434088e+02 2.9278557229387661e+02 -2.9585602396732793e+02 -1.3001755724976363e+00 1.4091247916221619e+00 -7.5306109643828592e+00 -1.2633376049415252e+01 -7.1743338478819510e+02 1.6850662201587816e+01 -5.6963955729385134e+00 -5.8025094796305339e+01 -5.4047449341141009e+02 1.0262510927574624e+01 5.6009313721714037e+01 -4.9091016980410735e+01 
      </Row>
      <Row Index="38">
        -1.8971559787192746e+02 1.5810471662531143e+02 2.6422687288814224e+04 -2.0713088605974554e+02 -8.5761547813899815e+03 3.8672552348064259e+04 -7.4175697232116945e+03 5.7086663031728676e+01 1.4333584594726562e+02 -3.1257630254440301e+01 -4.9369450372465508e+01 3.3388706471454352e+03 2.9546562049878048e+01 -3.8612318609028589e+03 1.4192631631731987e+04 9.1696806926429272e+03 3.3744123539821885e+01 -8.0705200195312500e+01 3.5734258910657381e+03 -2.1396672085520108e+03 3.0656695662718330e+05 1.1746762317740829e+03 7.5175081693003885e+03 7.0121112387068570e+02 -1.3914985421005636e+04 -3.4326153851155959e+03 4.4436767578125000e+01 2.4222236315816212e+02 -9.9735497834373376e+01 9.2780890424756581e+03 1.4699722382177242e+01 1.3893571786992252e+03 -3.7536995557903079e+04 -1.5355150126390392e+04 1.4114359933804917e+02 -2.8181819915771484e+01 3.6453561113410974e+03 -2.0426158754415865e+03 3.8727993438192137e+05 9.9290047106587303e+02 1.0830752231673338e+04 -4.4903580181278288e+04 3.1091110778415576e+04 -3.2831589575198773e+03 -1.2334838867187500e+02 1.8558694725844543e+02 -1.8600472460249694e+02 -1.6524124586967705e+05 4.3825411808845820e+02 -5.4347004355883553e+04 5.8592186525678690e+03 -4.9214578016112901e+03 5.0259221026499290e+00 5.5441811945004825e+04 -5.6090982350575541e+04 
      </Row>
      <Row Index="39">
        -2.5138481550143759e+00 -7.8867604206289670e+00 1.1048348963916663e+02 -1.6240062794006289e+00 -4.4948411275756371e+01 2.2794906803225604e+02 -1.4390601694058955e+02 -2.7678725264368405e+00 2.2790333628654480e-01 -1.0434364950074162e+00 -2.3203026359488987e-01 2.3150613608655362e+01 1.7857950980510484e-01 2.7066814574390378e+01 1.1401581891257956e+02 -6.4943108049628790e+00 9.8768202734710542e-02 -2.9849898815155029e-01 5.1285596409619707e+01 -6.1210720526455610e+01 9.3743815989361246e+02 4.4487925424679347e+01 1.2431372723878405e+02 1.9602687067917577e+02 8.3824266006581183e+01 -2.2377246916896489e+01 3.7000441551208496e-01 -1.2090675328645517e-01 7.4566351206120718e-01 -3.9114655302430123e+01 -5.2331388963856451e-01 -1.2400446899038434e+02 -2.1055888104352897e+02 5.5483899286599581e+01 2.9918465393382050e+00 -2.3205803055316210e-01 4.8183935411290776e+01 -6.7241035841563516e+01 9.9290047177343831e+02 4.3521371476915171e+01 -7.6937942861140527e+01 -7.5443051384520004e+01 9.7975316277276306e+01 -1.9902111051687001e+01 -1.1409494280815125e-01 3.8259992805331606e+00 -3.9452507679862414e-02 3.0337954497544365e+02 1.5812024113675044e+01 1.1059970974472449e+01 3.9988615724663774e+01 1.8761466487724246e+02 -1.7884598075740143e+00 -2.4144232875315126e+01 2.3707258473692061e+01 
      </Row>
      <Row Index="40">
        -2.8150437705305922e+02 1.1089936826520290e+02 -1.6429119980906369e+04 2.6437969992559556e+02 -1.7262561731971800e+04 -3.9811678870104719e+04 4.7397365303521859e+04 -1.0728317205405529e+02 1.4430969238281250e+01 5.4658193905394000e+01 -3.1066646170663262e+01 4.1577039535770891e+03 2.3408582585489057e+00 -6.8987532822333742e+04 -1.5348329776987433e+04 -7.0355321940034628e+02 -5.8528776911436580e+01 1.8899255371093750e+02 1.4875702245128625e+03 2.0812363545592802e+02 1.4541262662486304e+04 -2.8634969209404619e+02 4.0105810398801020e+05 -1.1967155151719926e+04 1.1699679277133662e+04 6.8860269078350325e+02 -3.1593029785156250e+02 5.2696612398143373e+01 -4.9585582856689982e+01 -6.7398769539088098e+03 -1.6675192937014344e+01 1.0376161192241032e+05 3.0872829370471212e+04 6.3023290255022584e+03 2.3519974839506244e+02 -1.5593394517898560e+02 1.2530382790181034e+03 2.6396598864655653e+02 1.0830752123265833e+04 -7.6937942551920401e+01 5.8491126661733026e+05 2.6459765287804650e+04 -1.2087911011443008e+04 1.0564037615032935e+03 3.3836486816406250e+02 1.2211978005121637e+02 -1.1584458370951688e+02 -1.2762515170445229e+04 -5.7510769399819037e+02 -4.7553791889515080e+04 -6.0479321718662786e+03 2.0225757933619279e+03 -1.0858492605491483e+02 -1.8530039180157728e+04 2.0213272512265969e+04 
      </Row>
      <Row Index="41">
        4.4419975329497674e+02 1.8920817887477361e+02 -4.9322258889432385e+04 2.1278685720308340e+02 -1.4302994033247232e+04 1.7585897308853047e+04 -2.4100148731904337e+03 5.0826894084445871e+02 1.0584259033203125e-01 1.7871925449154242e+02 1.2579111527945997e+01 -1.4488807234477194e+04 -7.2921343274470019e+00 2.2592290551131009e+02 -3.0114919249683619e+04 -3.6577964492347091e+03 5.2895995569097977e+01 3.0910247802734375e+01 -1.0315777686282745e+03 1.3865660141975121e+02 4.4413601872661093e+03 -2.4264280408649415e+02 -1.4165610121197067e+04 3.3334135518632719e+05 -2.0545859956471249e+03 -1.0497198148248808e+03 -5.1184829711914062e+01 1.3248085534275793e+02 6.5988515234976060e+00 6.6146184850744066e+02 -1.6677156047678636e+01 5.6539709956020582e+04 2.7106013454670354e+05 1.0630648268021920e+04 6.2677078145707355e+01 -1.5946687817573547e+01 -4.4072558985017662e+02 2.9278557274371383e+02 -4.4903580140922837e+04 -7.5443051730862919e+01 2.6459765319513506e+04 6.3352639959195151e+05 2.8383987208445324e+03 -8.7544032188493168e+02 5.0059120178222656e+01 -7.0429698425126662e+02 3.9447474175882917e+01 -1.6601494280443541e+04 -6.0478509149551746e+02 -1.0447611938506516e+03 -2.9478323124924982e+03 -6.3078743490270426e+02 -3.8397948935303248e+02 5.5406146219102648e+03 -5.2939304941314176e+03 
      </Row>
      <Row Index="42">
        -1.0130031938152024e+02 9.5590898268947598e+01 2.1283922869282309e+04 -4.3820113569871864e+01 7.8887032023519278e+03 2.0670211008722894e+04 -7.9960244261662010e+03 9.9668433577873657e+01 -1.4141265869140625e+02 -1.2764646292635007e+00 -9.5112164570218738e+00 -4.2737037920427974e+03 5.1039692838294286e+00 -1.7144446582908276e+03 -7.9207356805354357e+02 1.7648874158707261e+05 1.2525291966456280e+01 1.1823974609375000e+01 -6.5966582350901444e+02 -3.1171379290876712e+02 6.6658850914065260e+02 1.1083082631555638e+02 1.2738816820659908e+04 -4.0372047482230701e+03 1.2583715414140839e+05 1.5078612220041970e+02 7.3652587890625000e+01 1.0224635834234135e+01 -9.7826907465476637e+01 2.0557392809966695e+03 3.6904576828827885e+01 -1.4036508664130233e+04 6.2234094377990987e+03 1.2603089305794425e+05 -8.1586355692052166e+01 1.0720527648925781e+01 -7.2574018425245265e+02 -2.9585602246924100e+02 3.1091110936185258e+04 9.7975316381463927e+01 -1.2087910812759772e+04 2.8383987705032341e+03 8.7097296214616392e+05 1.3730048720978061e+02 7.3222412109375000e+01 4.6395695487473859e+01 -1.3129830798825787e+02 -3.3972287939132089e+04 9.5421984650032755e+01 4.2941156403111578e+04 2.4467364527542868e+03 -1.6841422469488537e+05 1.2632463124303922e+02 -4.4449917505162353e+04 4.4885850901747493e+04 
      </Row>
      <Row Index="43">
        -1.4559493927998346e+01 1.3956904916625135e+01 6.3967813169531291e+02 -4.2534875294204895e+00 -3.6856767853160272e+02 4.5346113037355099e+02 3.4666489762237688e+02 4.1174649589239039e+00 -3.6770386695861816e+00 -2.0227251569436930e+00 -1.2639490571683893e+00 6.8044085605703003e+01 3.3103377572222570e-01 -3.5957933618037623e+02 2.7548517894238466e+02 1.6598291848436929e+02 -1.2900894249582961e-01 4.5105676651000977e+00 -1.6438355970579494e+01 -9.9359957790677456e+00 -3.7871202477454563e+03 -1.3751771184646243e+01 9.0055380547649293e+02 -1.2284119590898517e+03 -3.1573940863391181e+02 1.3267029998038589e+02 -5.3860712051391602e+00 -8.7177717303756062e+00 -4.0790194710422245e+00 3.3921400303216700e+02 -1.9047295576377365e+00 -2.0107731366814551e+02 5.4343442288059578e+01 -3.7815722509092848e+02 1.2699551405285163e+01 1.7998901754617691e+00 -3.9013495632453875e+01 -1.3001755611681887e+00 -3.2831589581582125e+03 -1.9902111057007978e+01 1.0564037620944582e+03 -8.7544032235108170e+02 1.3730048779518256e+02 1.5242252025054756e+02 4.6051645278930664e+00 8.7972342832067625e+00 -1.6637894760167768e+01 -1.1192897080045482e+03 4.9899340813229998e+00 -2.1793906104322031e+02 9.4036528811117975e+01 -1.6155185907587111e+02 -1.5225390638261160e+00 4.1331800463030800e+02 -3.9097564620723944e+02 
      </Row>
      <Row Index="44">
        -7.3795197472275476e-01 2.6800629716277480e+00 1.4578158029175393e+02 -2.9050764214844200e+00 1.5440793997592846e+02 4.3284277285480130e+01 -3.2149015636128297e+02 1.4503110092821387e+00 8.1982961058616638e+01 -4.2802397805499481e-01 -2.9781008323936931e-04 -2.5102753682667299e+01 3.0550328614966205e-02 -1.0665579301142861e+02 1.9241902849730104e+02 -9.2009793620673008e+00 2.3325029691386590e-01 1.1302683830261230e+01 -2.0008746507199433e+00 -8.1567356243541767e-01 -7.3191810744914847e+01 2.9992087827129699e+00 -2.8974302338769940e+02 -1.0074368065249837e+02 9.5264561983574822e+01 1.1065883742778624e+00 -7.8303223133087158e+01 -7.8717860188871480e-01 -1.8373685010672991e-01 1.0837420821108856e+02 -6.1681419823568362e-01 3.2125272879766999e+02 3.6203034580473229e+01 -3.4837492314114570e+01 2.3108959908399171e+00 5.0900920137763023e+01 -3.5621137464522210e+00 1.4091254709948196e+00 -1.2334802214494061e+02 -1.1409503348118299e-01 3.3836483742133714e+02 5.0059116273554537e+01 7.3222671344981791e+01 4.6051682268976677e+00 9.9991669121980667e+05 7.7390012796502106e-01 -3.1763883439385694e+00 9.9372689431769331e+01 5.9290407392411950e+00 -9.0634661079875841e+01 1.5657882796361770e+01 -2.3836194109445678e+01 9.6552795598701913e-01 -3.4758909636660019e+02 -1.4590925999268975e+02 
      </Row>
      <Row Index="45">
        -4.0581598635747341e+01 1.7903105283541517e+01 6.2652382524168752e+02 -1.6198654037904213e+01 -1.1583138271160897e+02 1.3397397920046026e+03 -8.7948975563041802e+02 -2.4650180676781748e+01 -6.8405127525329590e-01 -1.2432380823364900e+01 -1.6627425542877126e+00 3.9217533306730252e+02 1.6284084104040004e+00 2.4015744777474271e+02 4.4344271050390762e+02 -8.9849061727552908e+01 -8.1391395145223662e+00 6.6192013025283813e-01 3.2900228303240475e+01 -2.1781577529335550e+01 -3.8313091009095075e+02 1.9435955422530231e+01 -1.7620784936608464e+02 8.0243720878424233e+02 -3.6406077357115805e+01 -1.5595605317243557e+01 -5.3378428518772125e-01 -1.1103340817616516e+01 -4.3788152587002012e+00 -8.8762415994919962e+01 -9.0674091750520658e-01 7.7852430206153201e+02 -9.5020994026244011e+02 -9.8053159419027196e+01 2.7824445786513536e+01 -1.5778737165965140e-01 -1.8141850680466579e+01 -7.5306109728822914e+00 1.8558694534255699e+02 3.8259992841652828e+00 1.2211977967912560e+02 -7.0429698438506102e+02 4.6395696211792938e+01 8.7972342700517245e+00 7.7390131354331970e-01 4.5467416897948283e+01 -1.4109783697554326e+01 3.1438030720783621e+02 3.1441245101920920e+01 2.5749928514254250e+01 2.0582143864967389e+02 7.8054414116161226e+01 -3.8248896183373887e+01 -1.3504916214749794e+00 5.2991202211234603e+00 
      </Row>
      <Row Index="46">
        1.4940954757587726e+01 -4.6072409721697852e+01 -9.9339492324448440e+02 3.6583120391266448e+01 1.9148045776708750e+02 -5.5346066881135357e+02 -2.8075431665611632e+02 -5.4130620322368106e+00 3.3590081334114075e+00 3.5448339895423615e+00 4.7432025876083337e+00 -1.4629266854771458e+01 -1.9068812134530830e+00 -6.5082075719645218e+01 -1.6067350935260765e+02 3.0377352152948151e+02 1.6141132179096012e+00 -2.8915708065032959e+00 1.2804578551953453e+01 1.3450564674392467e+01 -2.8302374127498211e+02 -3.8703080769539859e+01 1.2961672420751711e+02 2.5724627529088593e+01 1.7673535363842257e+02 3.8961899310424073e+00 3.0879479646682739e+00 -2.9061975073974722e+00 2.0047441904172967e+01 -6.8189421834284053e+02 5.8354732600066761e+00 -4.9747133567015135e+02 2.2262826969718560e+02 2.6093548875483771e+02 -1.4437106175167266e+01 -2.2331193126738071e+00 2.3292617404495097e+01 -1.2633376037620302e+01 -1.8600472281353046e+02 -3.9452512359162917e-02 -1.1584458347877444e+02 3.9447474219489777e+01 -1.3129830802818196e+02 -1.6637894748365650e+01 -3.1763884425163269e+00 -1.4109783699996214e+01 5.2124499191077888e+01 -9.5679327642506749e+01 -7.2763568514684636e+01 3.3386230623882760e+01 -1.1421927600219941e+02 -1.6538542819212955e+02 7.8013863998780977e+00 -6.8401915815901120e+01 5.2691808740130590e+01 
      </Row>
      <Row Index="47">
        -2.8084128949046135e+02 3.9275715330717503e+01 7.3699084666310810e+03 -3.7505180357820791e+01 -1.3566266519874334e+03 3.9011948747538030e+04 -7.8654888106621802e+03 -2.3415135854035907e+02 -1.1283410644531250e+02 -6.6885021032212535e+01 -1.7196945144110941e+01 3.9097921917429194e+03 1.0495976447527937e+01 -3.4903180915871635e+03 1.1563013530135155e+04 6.3776805777907372e+04 -2.9901101529379957e+01 -2.3982421875000000e+01 1.2154496769954603e+03 -7.1431633952881566e+02 8.9895318038530881e+04 3.3779148282043991e+02 1.7944010219152085e+04 4.0384526355434209e+03 3.7908806442223489e+04 -1.0648339017982507e+03 1.2164208984375000e+02 4.1235692372574704e+01 -5.6114372809343820e+01 -1.8243244376373797e+04 1.6884149969846476e+00 4.5714320784807205e+03 -8.6940013119864743e+03 3.2980974730988964e+04 4.6877794409374474e+01 -6.2591049194335938e+01 9.8198982549870470e+02 -7.1743339350481983e+02 -1.6524124599833204e+05 3.0337954858151170e+02 -1.2762515840791166e+04 -1.6601494121100754e+04 -3.3972287520613521e+04 -1.1192897106832897e+03 9.9372802734375000e+01 3.1438029969757190e+02 -9.5679319969480275e+01 7.3898428951387003e+05 1.1310096692509251e+02 1.9616589080548106e+05 4.7199102987389688e+03 1.4192576769483916e+05 -2.4612470191041939e+02 -1.9763333666255468e+05 1.9823628081920609e+05 
      </Row>
      <Row Index="48">
        -2.3316184240279014e+00 6.8270319762308674e+01 1.6214519403481588e+03 -1.2231359705038169e+02 -6.8458053088426823e+01 1.8466214617340347e+03 1.8660951909451342e+01 -9.2691463564784051e+00 -4.9545041918754578e+00 -1.1058264811688588e+01 -3.8999968742915421e+00 5.0896342346974507e+01 3.3404546108616007e+00 8.0578733979474168e+02 6.7032365817161917e+02 -9.1279599342666916e+02 -3.1163491964686685e+00 4.6176636219024658e+00 -2.4358963078103510e+01 -2.1030271746426411e+01 2.4457754485197256e+02 1.2619226492192291e+02 5.6183629241894096e+02 5.5813270355180521e+02 -1.3086879862420392e+02 6.6156160613233439e+00 -4.9573109149932861e+00 3.3618346663888303e+00 -3.3838448245023649e+01 8.7621266929341527e+02 -8.3096754707536888e+00 -2.4258962292098659e+01 -8.1774233885978606e+02 -4.1525146342121889e+02 6.8126713455796590e+00 2.1452589742839336e+00 -2.3563924395251654e+01 1.6850662166706730e+01 4.3825411269500722e+02 1.5812024128848314e+01 -5.7510769431415429e+02 -6.0478509149998172e+02 9.5421983276912215e+01 4.9899340421027851e+00 5.9290429353713989e+00 3.1441245110947364e+01 -7.2763568517433299e+01 1.1310099165941409e+02 2.7070926313849054e+02 -1.7533144559542575e+02 2.8476959732539331e+02 9.5097924210579109e+01 -2.1313202542494508e+01 1.1005741569258628e+02 -8.0311529262998945e+01 
      </Row>
      <Row Index="49">
        -2.5729399176634615e+01 -2.0373234981903806e+01 -1.2555987237527035e+04 7.9776547840890998e+01 -5.3885192569643259e+03 -1.5945108860909939e+04 8.4805191828198731e+03 -7.1121252580094733e+01 1.5674255371093750e+02 4.2980578384303953e+00 -3.0058207824331475e+00 2.4288417099909857e+03 -4.7673475042029168e-01 -1.0286088431629352e+04 -3.5939590786695480e+03 -5.7160469163000584e+04 -1.7496352737725829e+01 2.9065917968750000e+01 7.3373538095607000e+02 -4.3678815056773601e+00 2.5270565306916600e+04 -4.2000202913592759e+01 4.6617032806561328e+04 8.7084690705128014e+02 -4.0378116582818329e+04 -2.4374335561154294e+02 -1.5693847656250000e+02 2.8594828245302779e+01 2.4611555433373610e+01 -6.3887152761867910e+03 -1.7913556414107006e+01 2.0199239657800645e+04 -2.2631331050089793e+03 -4.1155422685924917e+04 3.0404957503666083e+01 3.7398559570312500e+01 7.2648657874980563e+02 -5.6963800111552700e+00 -5.4347001577500720e+04 1.1059964778933136e+01 -4.7553791986465454e+04 -1.0447605058923364e+03 4.2941157656412572e+04 -2.1793904526562983e+02 -9.0633300781250000e+01 2.5749920783215202e+01 3.3386235128069529e+01 1.9616587715328377e+05 -1.7533145679104200e+02 7.7569924844730366e+05 -2.0021095559186774e+03 -1.4528167049154942e+05 -5.0347984105814248e+01 2.1595050818562962e+05 -2.1652361696385138e+05 
      </Row>
      <Row Index="50">
        -1.8633545398732275e+02 7.0846847563555059e+01 1.5678597232745204e+04 -1.2948058058026555e+02 -4.4146982541432371e+03 5.3456180544222050e+04 3.9972408933174302e+02 -1.6593912838128870e+02 -3.7519083023071289e+00 -5.1666413726394353e+01 -9.1971506154151825e+00 3.2632186467287211e+03 6.4968656945340229e+00 6.4511703861975293e+03 2.0237566641543643e+04 1.5026952419057488e+03 -1.7196934449500816e+01 9.3811416625976562e+00 8.6477167281029466e+01 -1.0292563390285311e+02 -5.2030910224137988e+03 1.5126463923120818e+02 6.9850246651875350e+03 4.0820102298895654e+02 -2.7310574988888984e+03 -1.1102824980141406e+01 -1.3985122680664062e+01 -7.1363579699357842e+01 -2.4025383477661830e+01 1.5214345997137502e+03 1.8465865059681619e-01 -1.3817059070558607e+03 7.0112603653326478e+03 -7.7331539807075533e+03 2.3519996924054527e+02 -2.4209764301776886e+00 -1.6126337545478680e+02 -5.8025095035591136e+01 5.8592185917435863e+03 3.9988615814671782e+01 -6.0479321838589094e+03 -2.9478323213762778e+03 2.4467364587556076e+03 9.4036528426072039e+01 1.5657880783081055e+01 2.0582143870043478e+02 -1.1421927598005567e+02 4.7199105471128560e+03 2.8476959720707617e+02 -2.0021093820898886e+03 6.3327843732496349e+03 2.8554260528171767e+03 -3.6398886311569686e+02 1.1107938181058530e+03 -1.0326310865169514e+03 
      </Row>
      <Row Index="51">
        -1.3500892431595275e+02 1.1191058027106919e+02 2.5697605888657272e+04 -4.2149486683360010e+01 1.2517303875185549e+04 2.4500337512176484e+04 -1.8531222518611699e+04 1.0552994374129412e+02 -9.1207519531250000e+01 -7.7592101477202959e+00 -1.5275691393064335e+01 -5.2122524504312314e+03 7.7749680788165278e+00 -2.9794792649531737e+03 -1.4174314619898796e+03 2.3416249816381931e+05 1.3785599694834673e+01 1.4389648437500000e+01 -5.9849524189095064e+02 -5.5162082447170906e+02 2.3914092248282279e+04 1.9656872291989092e+02 6.1220176922064275e+02 -4.2098180218823254e+03 1.6578261176992580e+05 -1.0540432535584114e+02 2.9942382812500000e+01 2.7786997769959271e+01 -1.2463540676808969e+02 -1.5373180096753058e+03 4.3848904641370609e+01 -1.9164671858176589e+04 4.0354454147022916e+03 1.6527515300952410e+05 -1.3543597672823489e+02 8.1960811614990234e+01 -6.7510844912678658e+02 -5.4047449916445476e+02 -4.9214584542326629e+03 1.8761466478386501e+02 2.0225750898979604e+03 -6.3078761121444404e+02 -1.6841422467403114e+05 -1.6155185793062992e+02 -2.3836181640625000e+01 7.8054416375118308e+01 -1.6538542799880452e+02 1.4192576957403769e+05 9.5097918519983068e+01 -1.4528166564115713e+05 2.8554260651788286e+03 5.7578495930571971e+05 1.7993382301084057e+02 1.4553224942200293e+05 -1.4564726684655852e+05 
      </Row>
      <Row Index="52">
        2.0139167256820301e+01 -4.9083179630229914e+00 4.1694804153587154e+02 1.0864055234305349e+01 6.4316151877939774e+01 -5.5749514902624514e+03 -1.9015587303170651e+02 8.8431234790209302e+01 7.9101023077964783e-01 6.4007376269326777e+00 2.4837868538754861e+00 -3.5876303293884177e+02 -9.7036048913091655e-01 1.4092260216886120e+02 -1.4900161155115238e+03 1.3927904392867640e+02 2.0913789047037543e+01 9.1813921928405762e-02 -4.8013095951690730e+01 1.8052029250542539e+01 2.9443739838271563e+02 -1.2393680465364877e+01 4.0436121094002260e+02 -5.2744080485921722e+02 -1.6122251145060409e+02 2.4477727683296877e+01 -7.8182518482208252e-01 1.0224416426733875e+01 -3.0387070400736511e+00 5.5049282820418023e+02 1.5155367802018267e+00 -6.9880418105424360e+02 -2.9427578566354632e+03 -4.5531027887904145e+02 -8.6331785655811458e+01 -5.5610714294016361e-01 -1.8146756868419445e+01 1.0262510931136635e+01 5.0259239751461564e+00 -1.7884598100780720e+00 -1.0858492600603586e+02 -3.8397948906892407e+02 1.2632463016904194e+02 -1.5225390482344539e+00 9.6552699804306030e-01 -3.8248896183597701e+01 7.8013863973592921e+00 -2.4612470952397507e+02 -2.1313202536087559e+01 -5.0347988458715314e+01 -3.6398886309371363e+02 1.7993382638669019e+02 1.4434154251973627e+02 3.5849288199419739e+01 -3.0994375491580765e+01 
      </Row>
      <Row Index="53">
        -2.4267479153262684e+01 5.2289061418108759e+01 1.0594518647764344e+04 -5.0675712988719170e+01 2.6282429219186306e+03 9.7575836754254997e+03 -2.3198392137940973e+03 5.9854149352053355e+01 3.3222338867187500e+02 2.6964861571905203e+00 -2.0791418699227506e+00 -1.8626875595683232e+03 1.0593913937118487e+00 -1.7806796645307913e+03 1.9193072449564934e+03 5.6988962626397610e+04 8.8314072367647896e+00 7.1234375000000000e+01 -5.0075451360945226e+02 3.4177192300518072e+01 -2.3296360750322696e+04 9.8612348890014516e+00 1.7462452322146855e+04 -3.3261384228337556e+03 4.2830448480851948e+04 3.6128576270893973e+02 -3.6347314453125000e+02 -2.3879690053581726e+01 -3.3813775832188639e+01 5.8090410509202629e+03 1.2168420918511401e+01 -1.7615287943594158e+03 7.4626333721276606e+03 4.1970931926746853e+04 2.0295884594530435e+01 2.4042848968505859e+02 -5.3962504930896102e+02 5.6009320962170023e+01 5.5441812423807103e+04 -2.4144237567981691e+01 -1.8530039525505155e+04 5.5406149863637984e+03 -4.4449915820579976e+04 4.1331801198812900e+02 -3.4758911132812500e+02 -1.3504905000445433e+00 -6.8401913257948763e+01 -1.9763334086048181e+05 1.1005740962048003e+02 2.1595050606463925e+05 1.1107939004589580e+03 1.4553224387329078e+05 3.5849281536269700e+01 7.7895895199053001e+05 2.1896330225635698e+05 
      </Row>
      <Row Index="54">
        2.0492780506727286e+01 -3.9014238343748730e+01 -9.8758289158232510e+03 3.6140722083800938e+01 -1.8701235781908035e+03 -9.5447435518950224e+03 6.8040706858038902e+02 -5.2626668038283242e+01 1.5445458984375000e+02 -4.8443264627130702e+00 2.0919449701323174e+00 1.7386117252930999e+03 -9.0443036561191548e-01 1.2596723531987518e+03 -9.6725160825252533e+02 -5.7024768441677094e+04 -7.6623659206088632e+00 -1.8437500000000000e+00 4.9067735010138131e+02 -3.8258282698508992e+01 2.2934927907653153e+04 5.2267215664502658e+00 -1.8888246837124228e+04 2.8377881092503667e+03 -4.2259942247077823e+04 -3.5615813342441106e+02 -1.0532226562500000e+02 2.0061343443172518e+01 3.2865884009212550e+01 -5.2771018241461134e+03 -1.5215259102158598e+01 3.3421005575805902e+03 -7.2960956718656234e+03 -4.2179394876871258e+04 -9.0112287084630225e+00 6.2827911376953125e+01 5.2178748052879382e+02 -4.9091028022405226e+01 -5.6090984067001846e+04 2.3707263583048189e+01 2.0213272308945656e+04 -5.2939304737597704e+03 4.4885851726189256e+04 -3.9097565807189676e+02 -1.4591015625000000e+02 5.2991192592307925e+00 5.2691814248537412e+01 1.9823628815156978e+05 -8.0311543055082439e+01 -2.1652361046154250e+05 -1.0326310909149399e+03 -1.4564726941584659e+05 -3.0994375503738411e+01 2.1896329885666617e+05 7.8018861666827032e+05 
      </Row>
    </InverseHessian>
  </Weights>
</MethodSetup>
