<?xml version="1.0"?>
<MethodSetup Method="BDT::BDTG">
  <GeneralInfo>
    <Info name="TMVA Release" value="4.2.1 [262657]"/>
    <Info name="ROOT Release" value="6.22/06 [398854]"/>
    <Info name="Creator" value="ikoljanin"/>
    <Info name="Date" value="Sun Jan 10 17:25:24 2021"/>
    <Info name="Host" value="Linux buildvm-x86-05.iad2.fedoraproject.org 5.7.11-200.fc32.x86_64 #1 SMP Wed Jul 29 17:15:52 UTC 2020 x86_64 x86_64 x86_64 GNU/Linux"/>
    <Info name="Dir" value="/home/ikoljanin/v12"/>
    <Info name="Training events" value="2000"/>
    <Info name="TrainingTime" value="1.21995997e+00"/>
    <Info name="AnalysisType" value="Classification"/>
  </GeneralInfo>
  <Options>
    <Option name="V" modified="Yes">False</Option>
    <Option name="VerbosityLevel" modified="No">Default</Option>
    <Option name="VarTransform" modified="No">None</Option>
    <Option name="H" modified="Yes">False</Option>
    <Option name="CreateMVAPdfs" modified="No">False</Option>
    <Option name="IgnoreNegWeightsInTraining" modified="No">False</Option>
    <Option name="NTrees" modified="Yes">1000</Option>
    <Option name="MaxDepth" modified="Yes">2</Option>
    <Option name="MinNodeSize" modified="Yes">2.5%</Option>
    <Option name="nCuts" modified="Yes">20</Option>
    <Option name="BoostType" modified="Yes">Grad</Option>
    <Option name="AdaBoostR2Loss" modified="No">quadratic</Option>
    <Option name="UseBaggedBoost" modified="Yes">True</Option>
    <Option name="Shrinkage" modified="Yes">1.000000e+00</Option>
    <Option name="AdaBoostBeta" modified="No">5.000000e-01</Option>
    <Option name="UseRandomisedTrees" modified="No">False</Option>
    <Option name="UseNvars" modified="No">2</Option>
    <Option name="UsePoissonNvars" modified="No">True</Option>
    <Option name="BaggedSampleFraction" modified="Yes">5.000000e-01</Option>
    <Option name="UseYesNoLeaf" modified="No">True</Option>
    <Option name="NegWeightTreatment" modified="No">pray</Option>
    <Option name="Css" modified="No">1.000000e+00</Option>
    <Option name="Cts_sb" modified="No">1.000000e+00</Option>
    <Option name="Ctb_ss" modified="No">1.000000e+00</Option>
    <Option name="Cbb" modified="No">1.000000e+00</Option>
    <Option name="NodePurityLimit" modified="No">5.000000e-01</Option>
    <Option name="SeparationType" modified="No">giniindex</Option>
    <Option name="RegressionLossFunctionBDTG" modified="No">huber</Option>
    <Option name="HuberQuantile" modified="No">7.000000e-01</Option>
    <Option name="DoBoostMonitor" modified="No">False</Option>
    <Option name="UseFisherCuts" modified="No">False</Option>
    <Option name="MinLinCorrForFisher" modified="No">8.000000e-01</Option>
    <Option name="UseExclusiveVars" modified="No">False</Option>
    <Option name="DoPreselection" modified="No">False</Option>
    <Option name="SigToBkgFraction" modified="No">1.000000e+00</Option>
    <Option name="PruneMethod" modified="No">nopruning</Option>
    <Option name="PruneStrength" modified="No">0.000000e+00</Option>
    <Option name="PruningValFraction" modified="No">5.000000e-01</Option>
    <Option name="SkipNormalization" modified="No">False</Option>
    <Option name="nEventsMin" modified="No">0</Option>
    <Option name="UseBaggedGrad" modified="No">False</Option>
    <Option name="GradBaggingFraction" modified="No">5.000000e-01</Option>
    <Option name="UseNTrainEvents" modified="No">0</Option>
    <Option name="NNodesMax" modified="No">0</Option>
  </Options>
  <Variables NVar="4">
    <Variable VarIndex="0" Expression="ele_ep" Label="ele_ep" Title="ele_ep" Unit="" Internal="ele_ep" Type="F" Min="4.18868935e-04" Max="2.00000000e+01"/>
    <Variable VarIndex="1" Expression="ele_eelepout" Label="ele_eelepout" Title="ele_eelepout" Unit="" Internal="ele_eelepout" Type="F" Min="2.26789676e-02" Max="2.00000000e+01"/>
    <Variable VarIndex="2" Expression="ele_fbrem" Label="ele_fbrem" Title="ele_fbrem" Unit="" Internal="ele_fbrem" Type="F" Min="-1.00000000e+00" Max="9.91997242e-01"/>
    <Variable VarIndex="3" Expression="ele_pt" Label="ele_pt" Title="ele_pt" Unit="" Internal="ele_pt" Type="F" Min="5.00599241e+00" Max="3.06198883e+02"/>
  </Variables>
  <Spectators NSpec="0"/>
  <Classes NClass="2">
    <Class Name="Signal" Index="0"/>
    <Class Name="Background" Index="1"/>
  </Classes>
  <Transformations NTransformations="0"/>
  <MVAPdfs/>
  <Weights NTrees="1000" AnalysisType="1">
    <BinaryTree type="DecisionTree" boostWeight="1.0000000000000000e+00" itree="0">
      <Node pos="s" depth="0" NCoef="0" IVar="3" Cut="1.9379344940185547e+01" cType="1" res="-3.4046690911054611e-02" rms="4.9883946776390076e-01" purity="4.6595332026481628e-01" nType="0">
        <Node pos="l" depth="1" NCoef="0" IVar="3" Cut="1.1069031715393066e+01" cType="1" res="-3.5968378186225891e-01" rms="3.4731480479240417e-01" purity="1.4031620323657990e-01" nType="0">
          <Node pos="l" depth="2" NCoef="0" IVar="-1" Cut="0.0000000000000000e+00" cType="1" res="-8.8505744934082031e-01" rms="2.3274087905883789e-01" purity="5.7471264153718948e-02" nType="-99"/>
          <Node pos="r" depth="2" NCoef="0" IVar="-1" Cut="0.0000000000000000e+00" cType="1" res="-3.5443037748336792e-01" rms="4.6754121780395508e-01" purity="3.2278481125831604e-01" nType="-99"/>
        </Node>
        <Node pos="r" depth="1" NCoef="0" IVar="0" Cut="2.1508305072784424e+00" cType="1" res="2.8160920739173889e-01" rms="4.1315403580665588e-01" purity="7.8160917758941650e-01" nType="0">
          <Node pos="l" depth="2" NCoef="0" IVar="-1" Cut="0.0000000000000000e+00" cType="1" res="7.6755446195602417e-01" rms="3.2049185037612915e-01" purity="8.8377726078033447e-01" nType="-99"/>
          <Node pos="r" depth="2" NCoef="0" IVar="-1" Cut="0.0000000000000000e+00" cType="1" res="-2.1100917458534241e-01" rms="4.8874205350875854e-01" purity="3.9449542760848999e-01" nType="-99"/>
        </Node>
      </Node>
    </BinaryTree>
    <BinaryTree type="DecisionTree" boostWeight="1.0000000000000000e+00" itree="1">
      <Node pos="s" depth="0" NCoef="0" IVar="2" Cut="2.2900867462158203e-01" cType="1" res="5.7155522517859936e-03" rms="3.8600760698318481e-01" purity="4.8367348313331604e-01" nType="0">
        <Node pos="l" depth="1" NCoef="0" IVar="1" Cut="9.9425870180130005e-01" cType="1" res="-1.3773173093795776e-01" rms="3.5569950938224792e-01" purity="2.6477542519569397e-01" nType="0">
          <Node pos="l" depth="2" NCoef="0" IVar="-1" Cut="0.0000000000000000e+00" cType="1" res="-6.9413697719573975e-01" rms="3.0221664905548096e-01" purity="9.3023255467414856e-02" nType="-99"/>
          <Node pos="r" depth="2" NCoef="0" IVar="-1" Cut="0.0000000000000000e+00" cType="1" res="-6.7472115159034729e-02" rms="3.9972972869873047e-01" purity="5.3333336114883423e-01" nType="-99"/>
        </Node>
        <Node pos="r" depth="1" NCoef="0" IVar="2" Cut="9.1343659162521362e-01" cType="1" res="1.1465307325124741e-01" rms="3.7226250767707825e-01" purity="6.4991021156311035e-01" nType="0">
          <Node pos="l" depth="2" NCoef="0" IVar="-1" Cut="0.0000000000000000e+00" cType="1" res="4.1891941428184509e-01" rms="3.6638522148132324e-01" purity="6.6465860605239868e-01" nType="-99"/>
          <Node pos="r" depth="2" NCoef="0" IVar="-1" Cut="0.0000000000000000e+00" cType="1" res="-1.7732198536396027e-01" rms="3.7739017605781555e-01" purity="5.2542370557785034e-01" nType="-99"/>
        </Node>
      </Node>
    </BinaryTree>
    <BinaryTree type="DecisionTree" boostWeight="1.0000000000000000e+00" itree="2">
      <Node pos="s" depth="0" NCoef="0" IVar="3" Cut="2.7631607055664062e+01" cType="1" res="2.4876477196812630e-02" rms="3.2455611228942871e-01" purity="5.3656125068664551e-01" nType="0">
        <Node pos="l" depth="1" NCoef="0" IVar="3" Cut="2.0092973709106445e+01" cType="1" res="-5.4035164415836334e-02" rms="3.5513368248939514e-01" purity="2.4028268456459045e-01" nType="0">
          <Node pos="l" depth="2" NCoef="0" IVar="-1" Cut="0.0000000000000000e+00" cType="1" res="-1.1665092408657074e-01" rms="3.3529886603355408e-01" purity="1.7161017656326294e-01" nType="-99"/>
          <Node pos="r" depth="2" NCoef="0" IVar="-1" Cut="0.0000000000000000e+00" cType="1" res="-5.9088796377182007e-01" rms="4.2161187529563904e-01" purity="5.8510637283325195e-01" nType="-99"/>
        </Node>
        <Node pos="r" depth="1" NCoef="0" IVar="0" Cut="2.0659284591674805e+00" cType="1" res="1.2501995265483856e-01" rms="2.4704314768314362e-01" purity="9.1255605220794678e-01" nType="0">
          <Node pos="l" depth="2" NCoef="0" IVar="-1" Cut="0.0000000000000000e+00" cType="1" res="4.7059035301208496e-01" rms="1.7792516946792603e-01" purity="9.6590906381607056e-01" nType="-99"/>
          <Node pos="r" depth="2" NCoef="0" IVar="-1" Cut="0.0000000000000000e+00" cType="1" res="4.7822275757789612e-01" rms="4.0427377820014954e-01" purity="7.1276593208312988e-01" nType="-99"/>
        </Node>
      </Node>
    </BinaryTree>
    <BinaryTree type="DecisionTree" boostWeight="1.0000000000000000e+00" itree="3">
      <Node pos="s" depth="0" NCoef="0" IVar="0" Cut="3.8098628520965576e+00" cType="1" res="-6.9132060743868351e-03" rms="3.0263721942901611e-01" purity="5.2959185838699341e-01" nType="0">
        <Node pos="l" depth="1" NCoef="0" IVar="0" Cut="8.7330508232116699e-01" cType="1" res="6.9931428879499435e-03" rms="2.9036939144134521e-01" purity="5.4746139049530029e-01" nType="0">
          <Node pos="l" depth="2" NCoef="0" IVar="-1" Cut="0.0000000000000000e+00" cType="1" res="-5.1351410150527954e-01" rms="2.5559315085411072e-01" purity="2.0000000298023224e-01" nType="-99"/>
          <Node pos="r" depth="2" NCoef="0" IVar="-1" Cut="0.0000000000000000e+00" cType="1" res="1.4110934734344482e-01" rms="2.9165169596672058e-01" purity="6.2198388576507568e-01" nType="-99"/>
        </Node>
        <Node pos="r" depth="1" NCoef="0" IVar="3" Cut="3.4856430053710938e+01" cType="1" res="-1.7717202007770538e-01" rms="3.8639616966247559e-01" purity="3.1081080436706543e-01" nType="0">
          <Node pos="l" depth="2" NCoef="0" IVar="-1" Cut="0.0000000000000000e+00" cType="1" res="-8.0723553895950317e-01" rms="3.5074475407600403e-01" purity="1.2500000000000000e-01" nType="-99"/>
          <Node pos="r" depth="2" NCoef="0" IVar="-1" Cut="0.0000000000000000e+00" cType="1" res="-2.1339614689350128e-01" rms="4.0668112039566040e-01" purity="5.2941179275512695e-01" nType="-99"/>
        </Node>
      </Node>
    </BinaryTree>
    <BinaryTree type="DecisionTree" boostWeight="1.0000000000000000e+00" itree="4">
      <Node pos="s" depth="0" NCoef="0" IVar="3" Cut="1.5649462699890137e+01" cType="1" res="-4.5413133921101689e-04" rms="3.0520194768905640e-01" purity="4.9168398976325989e-01" nType="0">
        <Node pos="l" depth="1" NCoef="0" IVar="2" Cut="4.1556295752525330e-01" cType="1" res="-4.2854942381381989e-02" rms="2.6230522990226746e-01" purity="8.6387433111667633e-02" nType="0">
          <Node pos="l" depth="2" NCoef="0" IVar="-1" Cut="0.0000000000000000e+00" cType="1" res="-9.7378477454185486e-02" rms="2.3856852948665619e-01" purity="7.1146242320537567e-02" nType="-99"/>
          <Node pos="r" depth="2" NCoef="0" IVar="-1" Cut="0.0000000000000000e+00" cType="1" res="-3.4962123632431030e-01" rms="2.9468163847923279e-01" purity="1.1627907305955887e-01" nType="-99"/>
        </Node>
        <Node pos="r" depth="1" NCoef="0" IVar="3" Cut="2.5904823303222656e+01" cType="1" res="2.7471920475363731e-02" rms="3.2744139432907104e-01" purity="7.5862067937850952e-01" nType="0">
          <Node pos="l" depth="2" NCoef="0" IVar="-1" Cut="0.0000000000000000e+00" cType="1" res="2.6371139287948608e-01" rms="4.1734808683395386e-01" purity="5.3370785713195801e-01" nType="-99"/>
          <Node pos="r" depth="2" NCoef="0" IVar="-1" Cut="0.0000000000000000e+00" cType="1" res="8.2636149600148201e-03" rms="2.7450111508369446e-01" purity="8.5820895433425903e-01" nType="-99"/>
        </Node>
      </Node>
    </BinaryTree>
    <BinaryTree type="DecisionTree" boostWeight="1.0000000000000000e+00" itree="5">
      <Node pos="s" depth="0" NCoef="0" IVar="0" Cut="1.9051408767700195e+00" cType="1" res="2.3016440682113171e-03" rms="3.1109091639518738e-01" purity="4.9152541160583496e-01" nType="0">
        <Node pos="l" depth="1" NCoef="0" IVar="0" Cut="1.1701858043670654e+00" cType="1" res="2.2339148446917534e-02" rms="3.0269193649291992e-01" purity="5.5091381072998047e-01" nType="0">
          <Node pos="l" depth="2" NCoef="0" IVar="-1" Cut="0.0000000000000000e+00" cType="1" res="4.0872916579246521e-01" rms="2.9083862900733948e-01" purity="5.8911818265914917e-01" nType="-99"/>
          <Node pos="r" depth="2" NCoef="0" IVar="-1" Cut="0.0000000000000000e+00" cType="1" res="-3.8587820529937744e-01" rms="3.0645611882209778e-01" purity="4.6351930499076843e-01" nType="-99"/>
        </Node>
        <Node pos="r" depth="1" NCoef="0" IVar="0" Cut="2.7697172164916992e+00" cType="1" res="-6.2460925430059433e-02" rms="3.2855367660522461e-01" purity="2.9957807064056396e-01" nType="0">
          <Node pos="l" depth="2" NCoef="0" IVar="-1" Cut="0.0000000000000000e+00" cType="1" res="-4.8537310957908630e-01" rms="2.7303516864776611e-01" purity="2.6415094733238220e-01" nType="-99"/>
          <Node pos="r" depth="2" NCoef="0" IVar="-1" Cut="0.0000000000000000e+00" cType="1" res="3.6467732861638069e-03" rms="3.5490882396697998e-01" purity="3.2824426889419556e-01" nType="-99"/>
        </Node>
      </Node>
    </BinaryTree>
    <BinaryTree type="DecisionTree" boostWeight="1.0000000000000000e+00" itree="6">
      <Node pos="s" depth="0" NCoef="0" IVar="2" Cut="6.0716515779495239e-01" cType="1" res="-1.2893662787973881e-02" rms="3.1401294469833374e-01" purity="4.9848023056983948e-01" nType="0">
        <Node pos="l" depth="1" NCoef="0" IVar="0" Cut="9.5319056510925293e-01" cType="1" res="7.9008266329765320e-03" rms="3.0458080768585205e-01" purity="4.7058823704719543e-01" nType="0">
          <Node pos="l" depth="2" NCoef="0" IVar="-1" Cut="0.0000000000000000e+00" cType="1" res="-3.9765775203704834e-01" rms="2.3187205195426941e-01" purity="2.3636363446712494e-01" nType="-99"/>
          <Node pos="r" depth="2" NCoef="0" IVar="-1" Cut="0.0000000000000000e+00" cType="1" res="1.5424104034900665e-01" rms="3.2207807898521423e-01" purity="5.4819279909133911e-01" nType="-99"/>
        </Node>
        <Node pos="r" depth="1" NCoef="0" IVar="0" Cut="2.7173938751220703e+00" cType="1" res="-5.5445346981287003e-02" rms="3.2840231060981750e-01" purity="5.5555558204650879e-01" nType="0">
          <Node pos="l" depth="2" NCoef="0" IVar="-1" Cut="0.0000000000000000e+00" cType="1" res="-1.9344662129878998e-01" rms="3.0517417192459106e-01" purity="5.8561640977859497e-01" nType="-99"/>
          <Node pos="r" depth="2" NCoef="0" IVar="-1" Cut="0.0000000000000000e+00" cType="1" res="-6.5000617504119873e-01" rms="4.5028138160705566e-01" purity="2.8125000000000000e-01" nType="-99"/>
        </Node>
      </Node>
    </BinaryTree>
    <BinaryTree type="DecisionTree" boostWeight="1.0000000000000000e+00" itree="7">
      <Node pos="s" depth="0" NCoef="0" IVar="2" Cut="1.3564021885395050e-01" cType="1" res="7.7544110827147961e-03" rms="3.0901548266410828e-01" purity="4.8808291554450989e-01" nType="0">
        <Node pos="l" depth="1" NCoef="0" IVar="0" Cut="1.1775298118591309e+00" cType="1" res="-4.1347127407789230e-02" rms="2.7904912829399109e-01" purity="2.4233983457088470e-01" nType="0">
          <Node pos="l" depth="2" NCoef="0" IVar="-1" Cut="0.0000000000000000e+00" cType="1" res="-5.5556774139404297e-02" rms="2.1499146521091461e-01" purity="2.6415094733238220e-01" nType="-99"/>
          <Node pos="r" depth="2" NCoef="0" IVar="-1" Cut="0.0000000000000000e+00" cType="1" res="-4.1218039393424988e-01" rms="3.4540593624114990e-01" purity="2.1088434755802155e-01" nType="-99"/>
        </Node>
        <Node pos="r" depth="1" NCoef="0" IVar="0" Cut="1.9919004440307617e+00" cType="1" res="3.6842618137598038e-02" rms="3.2195600867271423e-01" purity="6.3366335630416870e-01" nType="0">
          <Node pos="l" depth="2" NCoef="0" IVar="-1" Cut="0.0000000000000000e+00" cType="1" res="9.4391115009784698e-02" rms="2.9936474561691284e-01" purity="6.7543858289718628e-01" nType="-99"/>
          <Node pos="r" depth="2" NCoef="0" IVar="-1" Cut="0.0000000000000000e+00" cType="1" res="3.4574094414710999e-01" rms="3.7564277648925781e-01" purity="5.0666666030883789e-01" nType="-99"/>
        </Node>
      </Node>
    </BinaryTree>
    <BinaryTree type="DecisionTree" boostWeight="1.0000000000000000e+00" itree="8">
      <Node pos="s" depth="0" NCoef="0" IVar="3" Cut="3.3691028594970703e+01" cType="1" res="-9.0012112632393837e-03" rms="2.7333411574363708e-01" purity="5.1324826478958130e-01" nType="0">
        <Node pos="l" depth="1" NCoef="0" IVar="3" Cut="6.3706321716308594e+00" cType="1" res="-2.9186425730586052e-02" rms="3.0155390501022339e-01" purity="3.0280649662017822e-01" nType="0">
          <Node pos="l" depth="2" NCoef="0" IVar="-1" Cut="0.0000000000000000e+00" cType="1" res="-7.0633387565612793e-01" rms="1.4284275472164154e-01" purity="0.0000000000000000e+00" nType="-99"/>
          <Node pos="r" depth="2" NCoef="0" IVar="-1" Cut="0.0000000000000000e+00" cType="1" res="-6.2027499079704285e-02" rms="3.2115957140922546e-01" purity="3.6283186078071594e-01" nType="-99"/>
        </Node>
        <Node pos="r" depth="1" NCoef="0" IVar="1" Cut="3.9022753238677979e+00" cType="1" res="3.0956072732806206e-02" rms="2.0048440992832184e-01" purity="9.2982459068298340e-01" nType="0">
          <Node pos="l" depth="2" NCoef="0" IVar="-1" Cut="0.0000000000000000e+00" cType="1" res="1.1788376420736313e-01" rms="1.9492650032043457e-01" purity="9.2041522264480591e-01" nType="-99"/>
          <Node pos="r" depth="2" NCoef="0" IVar="-1" Cut="0.0000000000000000e+00" cType="1" res="6.9801026582717896e-01" rms="2.0498920977115631e-01" purity="9.8113209009170532e-01" nType="-99"/>
        </Node>
      </Node>
    </BinaryTree>
    <BinaryTree type="DecisionTree" boostWeight="1.0000000000000000e+00" itree="9">
      <Node pos="s" depth="0" NCoef="0" IVar="1" Cut="1.9338318109512329e+00" cType="1" res="8.6537804454565048e-03" rms="2.9235303401947021e-01" purity="5.1143449544906616e-01" nType="0">
        <Node pos="l" depth="1" NCoef="0" IVar="1" Cut="1.3872306346893311e+00" cType="1" res="1.8135450081899762e-03" rms="2.8919968008995056e-01" purity="4.6423563361167908e-01" nType="0">
          <Node pos="l" depth="2" NCoef="0" IVar="-1" Cut="0.0000000000000000e+00" cType="1" res="8.9113071560859680e-02" rms="2.9103252291679382e-01" purity="4.5499181747436523e-01" nType="-99"/>
          <Node pos="r" depth="2" NCoef="0" IVar="-1" Cut="0.0000000000000000e+00" cType="1" res="-4.4493854045867920e-01" rms="2.6685637235641479e-01" purity="5.1960784196853638e-01" nType="-99"/>
        </Node>
        <Node pos="r" depth="1" NCoef="0" IVar="2" Cut="3.2534846663475037e-01" cType="1" res="2.8240477666258812e-02" rms="3.0033940076828003e-01" purity="6.4658635854721069e-01" nType="0">
          <Node pos="l" depth="2" NCoef="0" IVar="-1" Cut="0.0000000000000000e+00" cType="1" res="4.1044753789901733e-01" rms="4.1192725300788879e-01" purity="4.1379311680793762e-01" nType="-99"/>
          <Node pos="r" depth="2" NCoef="0" IVar="-1" Cut="0.0000000000000000e+00" cType="1" res="1.2474809587001801e-01" rms="2.8065380454063416e-01" purity="6.7727273702621460e-01" nType="-99"/>
        </Node>
      </Node>
    </BinaryTree>
    <BinaryTree type="DecisionTree" boostWeight="1.0000000000000000e+00" itree="10">
      <Node pos="s" depth="0" NCoef="0" IVar="0" Cut="1.9055310487747192e+00" cType="1" res="6.7909969948232174e-04" rms="2.8535228967666626e-01" purity="5.2371543645858765e-01" nType="0">
        <Node pos="l" depth="1" NCoef="0" IVar="0" Cut="8.1051433086395264e-01" cType="1" res="1.2597322463989258e-02" rms="2.5657626986503601e-01" purity="5.6526947021484375e-01" nType="0">
          <Node pos="l" depth="2" NCoef="0" IVar="-1" Cut="0.0000000000000000e+00" cType="1" res="-4.8474952578544617e-01" rms="2.2105947136878967e-01" purity="1.2804877758026123e-01" nType="-99"/>
          <Node pos="r" depth="2" NCoef="0" IVar="-1" Cut="0.0000000000000000e+00" cType="1" res="1.9673345983028412e-01" rms="2.6204812526702881e-01" purity="6.7213112115859985e-01" nType="-99"/>
        </Node>
        <Node pos="r" depth="1" NCoef="0" IVar="2" Cut="1.3647206127643585e-01" cType="1" res="-5.5545285344123840e-02" rms="3.8879579305648804e-01" purity="3.2768362760543823e-01" nType="0">
          <Node pos="l" depth="2" NCoef="0" IVar="-1" Cut="0.0000000000000000e+00" cType="1" res="1.4964468777179718e-01" rms="3.4903106093406677e-01" purity="1.8181818723678589e-01" nType="-99"/>
          <Node pos="r" depth="2" NCoef="0" IVar="-1" Cut="0.0000000000000000e+00" cType="1" res="-4.2019492387771606e-01" rms="4.0342998504638672e-01" purity="4.1441440582275391e-01" nType="-99"/>
        </Node>
      </Node>
    </BinaryTree>
    <BinaryTree type="DecisionTree" boostWeight="1.0000000000000000e+00" itree="11">
      <Node pos="s" depth="0" NCoef="0" IVar="1" Cut="1.0490907669067383e+01" cType="1" res="5.5940342135727406e-03" rms="2.9841792583465576e-01" purity="5.2626049518585205e-01" nType="0">
        <Node pos="l" depth="1" NCoef="0" IVar="0" Cut="9.5277988910675049e-01" cType="1" res="-1.1520297266542912e-03" rms="2.9163762927055359e-01" purity="5.1908397674560547e-01" nType="0">
          <Node pos="l" depth="2" NCoef="0" IVar="-1" Cut="0.0000000000000000e+00" cType="1" res="5.0561219453811646e-01" rms="2.8415587544441223e-01" purity="3.3189654350280762e-01" nType="-99"/>
          <Node pos="r" depth="2" NCoef="0" IVar="-1" Cut="0.0000000000000000e+00" cType="1" res="-1.1744099855422974e-01" rms="2.9197758436203003e-01" purity="5.8248174190521240e-01" nType="-99"/>
        </Node>
        <Node pos="r" depth="1" NCoef="0" IVar="-1" Cut="0.0000000000000000e+00" cType="1" res="8.8654309511184692e-01" rms="4.0179711580276489e-01" purity="7.1428573131561279e-01" nType="-99"/>
      </Node>
    </BinaryTree>
    <BinaryTree type="DecisionTree" boostWeight="1.0000000000000000e+00" itree="12">
      <Node pos="s" depth="0" NCoef="0" IVar="1" Cut="1.4294894218444824e+01" cType="1" res="-1.2637757696211338e-02" rms="2.9791924357414246e-01" purity="4.9902912974357605e-01" nType="0">
        <Node pos="l" depth="1" NCoef="0" IVar="1" Cut="7.0672523975372314e-01" cType="1" res="-5.5020460858941078e-03" rms="2.9133972525596619e-01" purity="4.9950149655342102e-01" nType="0">
          <Node pos="l" depth="2" NCoef="0" IVar="-1" Cut="0.0000000000000000e+00" cType="1" res="-4.9933019280433655e-01" rms="2.6656416058540344e-01" purity="1.2288135290145874e-01" nType="-99"/>
          <Node pos="r" depth="2" NCoef="0" IVar="-1" Cut="0.0000000000000000e+00" cType="1" res="9.1475479304790497e-02" rms="2.9563140869140625e-01" purity="6.1538463830947876e-01" nType="-99"/>
        </Node>
        <Node pos="r" depth="1" NCoef="0" IVar="-1" Cut="0.0000000000000000e+00" cType="1" res="-1.6936970949172974e+00" rms="4.0077748894691467e-01" purity="4.8148149251937866e-01" nType="-99"/>
      </Node>
    </BinaryTree>
    <BinaryTree type="DecisionTree" boostWeight="1.0000000000000000e+00" itree="13">
      <Node pos="s" depth="0" NCoef="0" IVar="1" Cut="1.3340892791748047e+01" cType="1" res="1.3501769863069057e-02" rms="2.7072352170944214e-01" purity="5.1756882667541504e-01" nType="0">
        <Node pos="l" depth="1" NCoef="0" IVar="0" Cut="9.5277988910675049e-01" cType="1" res="7.6510570943355560e-03" rms="2.6704216003417969e-01" purity="5.1367187500000000e-01" nType="0">
          <Node pos="l" depth="2" NCoef="0" IVar="-1" Cut="0.0000000000000000e+00" cType="1" res="-3.5941612720489502e-01" rms="2.3026570677757263e-01" purity="2.8076922893524170e-01" nType="-99"/>
          <Node pos="r" depth="2" NCoef="0" IVar="-1" Cut="0.0000000000000000e+00" cType="1" res="1.5265117585659027e-01" rms="2.7666580677032471e-01" purity="5.9293192625045776e-01" nType="-99"/>
        </Node>
        <Node pos="r" depth="1" NCoef="0" IVar="-1" Cut="0.0000000000000000e+00" cType="1" res="1.1142971515655518e+00" rms="3.1513002514839172e-01" purity="6.5517240762710571e-01" nType="-99"/>
      </Node>
    </BinaryTree>
    <BinaryTree type="DecisionTree" boostWeight="1.0000000000000000e+00" itree="14">
      <Node pos="s" depth="0" NCoef="0" IVar="0" Cut="5.8813052177429199e+00" cType="1" res="-2.7541847899556160e-02" rms="2.8560072183609009e-01" purity="4.8621040582656860e-01" nType="0">
        <Node pos="l" depth="1" NCoef="0" IVar="0" Cut="1.0617165565490723e+00" cType="1" res="-2.0404938608407974e-02" rms="2.8433609008789062e-01" purity="5.0266808271408081e-01" nType="0">
          <Node pos="l" depth="2" NCoef="0" IVar="-1" Cut="0.0000000000000000e+00" cType="1" res="5.4929640144109726e-02" rms="2.4083381891250610e-01" purity="5.1956522464752197e-01" nType="-99"/>
          <Node pos="r" depth="2" NCoef="0" IVar="-1" Cut="0.0000000000000000e+00" cType="1" res="-3.0011618137359619e-01" rms="3.1873992085456848e-01" purity="4.8637315630912781e-01" nType="-99"/>
        </Node>
        <Node pos="r" depth="1" NCoef="0" IVar="-1" Cut="0.0000000000000000e+00" cType="1" res="-8.3033275604248047e-01" rms="2.6675829291343689e-01" purity="1.1904761940240860e-01" nType="-99"/>
      </Node>
    </BinaryTree>
    <BinaryTree type="DecisionTree" boostWeight="1.0000000000000000e+00" itree="15">
      <Node pos="s" depth="0" NCoef="0" IVar="0" Cut="6.7274389266967773e+00" cType="1" res="1.8160574138164520e-02" rms="2.7644664049148560e-01" purity="4.8373982310295105e-01" nType="0">
        <Node pos="l" depth="1" NCoef="0" IVar="1" Cut="1.9338318109512329e+00" cType="1" res="1.3639293611049652e-02" rms="2.7107149362564087e-01" purity="4.8739495873451233e-01" nType="0">
          <Node pos="l" depth="2" NCoef="0" IVar="-1" Cut="0.0000000000000000e+00" cType="1" res="1.9144541025161743e-01" rms="2.6601248979568481e-01" purity="4.5628416538238525e-01" nType="-99"/>
          <Node pos="r" depth="2" NCoef="0" IVar="-1" Cut="0.0000000000000000e+00" cType="1" res="-1.7210559546947479e-01" rms="2.8359040617942810e-01" purity="5.9090906381607056e-01" nType="-99"/>
        </Node>
        <Node pos="r" depth="1" NCoef="0" IVar="-1" Cut="0.0000000000000000e+00" cType="1" res="8.3406800031661987e-01" rms="3.8115063309669495e-01" purity="3.7500000000000000e-01" nType="-99"/>
      </Node>
    </BinaryTree>
    <BinaryTree type="DecisionTree" boostWeight="1.0000000000000000e+00" itree="16">
      <Node pos="s" depth="0" NCoef="0" IVar="3" Cut="3.2536037445068359e+01" cType="1" res="-4.8276330344378948e-03" rms="2.5596937537193298e-01" purity="5.0000000000000000e-01" nType="0">
        <Node pos="l" depth="1" NCoef="0" IVar="1" Cut="1.9478127956390381e+00" cType="1" res="-2.1439149975776672e-02" rms="2.7079144120216370e-01" purity="2.8264209628105164e-01" nType="0">
          <Node pos="l" depth="2" NCoef="0" IVar="-1" Cut="0.0000000000000000e+00" cType="1" res="-8.2830622792243958e-02" rms="2.6975136995315552e-01" purity="2.8842505812644958e-01" nType="-99"/>
          <Node pos="r" depth="2" NCoef="0" IVar="-1" Cut="0.0000000000000000e+00" cType="1" res="-3.7189975380897522e-01" rms="2.7199214696884155e-01" purity="2.5806450843811035e-01" nType="-99"/>
        </Node>
        <Node pos="r" depth="1" NCoef="0" IVar="2" Cut="3.5603459924459457e-02" cType="1" res="2.7072357013821602e-02" rms="2.2131259739398956e-01" purity="9.1740411520004272e-01" nType="0">
          <Node pos="l" depth="2" NCoef="0" IVar="-1" Cut="0.0000000000000000e+00" cType="1" res="-6.1605721712112427e-01" rms="3.4111958742141724e-01" purity="6.5384614467620850e-01" nType="-99"/>
          <Node pos="r" depth="2" NCoef="0" IVar="-1" Cut="0.0000000000000000e+00" cType="1" res="3.4312880039215088e-01" rms="2.0338940620422363e-01" purity="9.3929713964462280e-01" nType="-99"/>
        </Node>
      </Node>
    </BinaryTree>
    <BinaryTree type="DecisionTree" boostWeight="1.0000000000000000e+00" itree="17">
      <Node pos="s" depth="0" NCoef="0" IVar="0" Cut="9.5277988910675049e-01" cType="1" res="6.5662283450365067e-03" rms="2.7544891834259033e-01" purity="4.9188157916069031e-01" nType="0">
        <Node pos="l" depth="1" NCoef="0" IVar="3" Cut="3.1438236236572266e+01" cType="1" res="-3.4781977534294128e-02" rms="2.4202448129653931e-01" purity="2.2695034742355347e-01" nType="0">
          <Node pos="l" depth="2" NCoef="0" IVar="-1" Cut="0.0000000000000000e+00" cType="1" res="-8.2587629556655884e-02" rms="1.9073857367038727e-01" purity="1.0729613900184631e-01" nType="-99"/>
          <Node pos="r" depth="2" NCoef="0" IVar="-1" Cut="0.0000000000000000e+00" cType="1" res="-2.8819882869720459e+00" rms="3.8076990842819214e-01" purity="7.9591834545135498e-01" nType="-99"/>
        </Node>
        <Node pos="r" depth="1" NCoef="0" IVar="0" Cut="6.3961038589477539e+00" cType="1" res="2.1808313205838203e-02" rms="2.8528133034706116e-01" purity="5.8954250812530518e-01" nType="0">
          <Node pos="l" depth="2" NCoef="0" IVar="-1" Cut="0.0000000000000000e+00" cType="1" res="1.9601239264011383e-01" rms="2.7934557199478149e-01" purity="6.0410958528518677e-01" nType="-99"/>
          <Node pos="r" depth="2" NCoef="0" IVar="-1" Cut="0.0000000000000000e+00" cType="1" res="-4.6497014164924622e-01" rms="3.6199173331260681e-01" purity="2.8571429848670959e-01" nType="-99"/>
        </Node>
      </Node>
    </BinaryTree>
    <BinaryTree type="DecisionTree" boostWeight="1.0000000000000000e+00" itree="18">
      <Node pos="s" depth="0" NCoef="0" IVar="3" Cut="3.3691028594970703e+01" cType="1" res="3.5420574247837067e-02" rms="2.9938760399818420e-01" purity="4.8358207941055298e-01" nType="0">
        <Node pos="l" depth="1" NCoef="0" IVar="1" Cut="8.5897884368896484e+00" cType="1" res="6.7613393184728920e-05" rms="2.9969376325607300e-01" purity="2.8386166691780090e-01" nType="0">
          <Node pos="l" depth="2" NCoef="0" IVar="-1" Cut="0.0000000000000000e+00" cType="1" res="-5.6175377219915390e-02" rms="2.9034170508384705e-01" purity="2.7382752299308777e-01" nType="-99"/>
          <Node pos="r" depth="2" NCoef="0" IVar="-1" Cut="0.0000000000000000e+00" cType="1" res="8.4832060337066650e-01" rms="4.1104751825332642e-01" purity="4.8484849929809570e-01" nType="-99"/>
        </Node>
        <Node pos="r" depth="1" NCoef="0" IVar="0" Cut="1.1358940601348877e+00" cType="1" res="1.1431110650300980e-01" rms="2.8321531414985657e-01" purity="9.2926043272018433e-01" nType="0">
          <Node pos="l" depth="2" NCoef="0" IVar="-1" Cut="0.0000000000000000e+00" cType="1" res="1.4181736707687378e+00" rms="2.8877589106559753e-01" purity="9.9358975887298584e-01" nType="-99"/>
          <Node pos="r" depth="2" NCoef="0" IVar="-1" Cut="0.0000000000000000e+00" cType="1" res="3.5706603527069092e-01" rms="2.6554152369499207e-01" purity="8.6451613903045654e-01" nType="-99"/>
        </Node>
      </Node>
    </BinaryTree>
    <BinaryTree type="DecisionTree" boostWeight="1.0000000000000000e+00" itree="19">
      <Node pos="s" depth="0" NCoef="0" IVar="2" Cut="3.2588407397270203e-01" cType="1" res="-1.4334102161228657e-04" rms="2.8526285290718079e-01" purity="5.0974661111831665e-01" nType="0">
        <Node pos="l" depth="1" NCoef="0" IVar="0" Cut="1.0584084987640381e+00" cType="1" res="-4.0940966457128525e-02" rms="2.5990203022956848e-01" purity="3.3921569585800171e-01" nType="0">
          <Node pos="l" depth="2" NCoef="0" IVar="-1" Cut="0.0000000000000000e+00" cType="1" res="-8.1792622804641724e-03" rms="2.0856651663780212e-01" purity="3.8783270120620728e-01" nType="-99"/>
          <Node pos="r" depth="2" NCoef="0" IVar="-1" Cut="0.0000000000000000e+00" cType="1" res="-5.4060059785842896e-01" rms="2.9932448267936707e-01" purity="2.8744938969612122e-01" nType="-99"/>
        </Node>
        <Node pos="r" depth="1" NCoef="0" IVar="0" Cut="1.0391986370086670e+00" cType="1" res="4.0179893374443054e-02" rms="3.0293381214141846e-01" purity="6.7829459905624390e-01" nType="0">
          <Node pos="l" depth="2" NCoef="0" IVar="-1" Cut="0.0000000000000000e+00" cType="1" res="5.1780372858047485e-01" rms="2.6075980067253113e-01" purity="7.0588237047195435e-01" nType="-99"/>
          <Node pos="r" depth="2" NCoef="0" IVar="-1" Cut="0.0000000000000000e+00" cType="1" res="1.3360096514225006e-01" rms="3.2986873388290405e-01" purity="6.5762710571289062e-01" nType="-99"/>
        </Node>
      </Node>
    </BinaryTree>
    <BinaryTree type="DecisionTree" boostWeight="1.0000000000000000e+00" itree="20">
      <Node pos="s" depth="0" NCoef="0" IVar="1" Cut="9.5487337112426758e+00" cType="1" res="-1.7196882516145706e-02" rms="2.8123900294303894e-01" purity="4.9337410926818848e-01" nType="0">
        <Node pos="l" depth="1" NCoef="0" IVar="1" Cut="2.6130094528198242e+00" cType="1" res="-1.1820683255791664e-02" rms="2.7517035603523254e-01" purity="4.9050632119178772e-01" nType="0">
          <Node pos="l" depth="2" NCoef="0" IVar="-1" Cut="0.0000000000000000e+00" cType="1" res="-1.9210466742515564e-01" rms="2.7656474709510803e-01" purity="4.5363408327102661e-01" nType="-99"/>
          <Node pos="r" depth="2" NCoef="0" IVar="-1" Cut="0.0000000000000000e+00" cType="1" res="3.5299292206764221e-01" rms="2.5994309782981873e-01" purity="6.8666666746139526e-01" nType="-99"/>
        </Node>
        <Node pos="r" depth="1" NCoef="0" IVar="-1" Cut="0.0000000000000000e+00" cType="1" res="-9.0324115753173828e-01" rms="3.8912037014961243e-01" purity="5.7575756311416626e-01" nType="-99"/>
      </Node>
    </BinaryTree>
    <BinaryTree type="DecisionTree" boostWeight="1.0000000000000000e+00" itree="21">
      <Node pos="s" depth="0" NCoef="0" IVar="0" Cut="4.7622237205505371e+00" cType="1" res="1.0036139748990536e-02" rms="2.7473747730255127e-01" purity="4.8233047127723694e-01" nType="0">
        <Node pos="l" depth="1" NCoef="0" IVar="0" Cut="3.3668236732482910e+00" cType="1" res="4.5554931275546551e-03" rms="2.6662266254425049e-01" purity="4.9539405107498169e-01" nType="0">
          <Node pos="l" depth="2" NCoef="0" IVar="-1" Cut="0.0000000000000000e+00" cType="1" res="8.6039207875728607e-02" rms="2.6595014333724976e-01" purity="5.1011717319488525e-01" nType="-99"/>
          <Node pos="r" depth="2" NCoef="0" IVar="-1" Cut="0.0000000000000000e+00" cType="1" res="-6.2732285261154175e-01" rms="2.5086560845375061e-01" purity="1.3157895207405090e-01" nType="-99"/>
        </Node>
        <Node pos="r" depth="1" NCoef="0" IVar="1" Cut="1.0322835445404053e+00" cType="1" res="8.6530305445194244e-02" rms="3.6128145456314087e-01" purity="3.0000001192092896e-01" nType="0">
          <Node pos="l" depth="2" NCoef="0" IVar="-1" Cut="0.0000000000000000e+00" cType="1" res="8.5204726457595825e-01" rms="4.1158175468444824e-01" purity="3.4285715222358704e-01" nType="-99"/>
          <Node pos="r" depth="2" NCoef="0" IVar="-1" Cut="0.0000000000000000e+00" cType="1" res="2.5818482041358948e-01" rms="2.9732879996299744e-01" purity="2.5714287161827087e-01" nType="-99"/>
        </Node>
      </Node>
    </BinaryTree>
    <BinaryTree type="DecisionTree" boostWeight="1.0000000000000000e+00" itree="22">
      <Node pos="s" depth="0" NCoef="0" IVar="0" Cut="1.9051408767700195e+00" cType="1" res="3.5057200584560633e-03" rms="2.6593142747879028e-01" purity="4.8645833134651184e-01" nType="0">
        <Node pos="l" depth="1" NCoef="0" IVar="1" Cut="2.8846826553344727e+00" cType="1" res="-8.3804959431290627e-03" rms="2.5697886943817139e-01" purity="5.3219449520111084e-01" nType="0">
          <Node pos="l" depth="2" NCoef="0" IVar="-1" Cut="0.0000000000000000e+00" cType="1" res="2.7227209880948067e-02" rms="2.4928535521030426e-01" purity="5.1488095521926880e-01" nType="-99"/>
          <Node pos="r" depth="2" NCoef="0" IVar="-1" Cut="0.0000000000000000e+00" cType="1" res="-7.7413010597229004e-01" rms="2.9495602846145630e-01" purity="6.6292136907577515e-01" nType="-99"/>
        </Node>
        <Node pos="r" depth="1" NCoef="0" IVar="1" Cut="5.7484421730041504e+00" cType="1" res="4.8960044980049133e-02" rms="2.9328373074531555e-01" purity="3.1155779957771301e-01" nType="0">
          <Node pos="l" depth="2" NCoef="0" IVar="-1" Cut="0.0000000000000000e+00" cType="1" res="1.4613008499145508e-01" rms="2.6829403638839722e-01" purity="2.5149700045585632e-01" nType="-99"/>
          <Node pos="r" depth="2" NCoef="0" IVar="-1" Cut="0.0000000000000000e+00" cType="1" res="1.0811271667480469e+00" rms="3.6621996760368347e-01" purity="6.2500000000000000e-01" nType="-99"/>
        </Node>
      </Node>
    </BinaryTree>
    <BinaryTree type="DecisionTree" boostWeight="1.0000000000000000e+00" itree="23">
      <Node pos="s" depth="0" NCoef="0" IVar="0" Cut="6.6669459342956543e+00" cType="1" res="1.7759751062840223e-03" rms="2.8328955173492432e-01" purity="5.0844091176986694e-01" nType="0">
        <Node pos="l" depth="1" NCoef="0" IVar="2" Cut="8.9412009716033936e-01" cType="1" res="9.0064834803342819e-03" rms="2.7431657910346985e-01" purity="5.1484137773513794e-01" nType="0">
          <Node pos="l" depth="2" NCoef="0" IVar="-1" Cut="0.0000000000000000e+00" cType="1" res="2.5546019896864891e-02" rms="2.7185288071632385e-01" purity="5.0607734918594360e-01" nType="-99"/>
          <Node pos="r" depth="2" NCoef="0" IVar="-1" Cut="0.0000000000000000e+00" cType="1" res="5.3239691257476807e-01" rms="2.9402628540992737e-01" purity="6.2500000000000000e-01" nType="-99"/>
        </Node>
        <Node pos="r" depth="1" NCoef="0" IVar="-1" Cut="0.0000000000000000e+00" cType="1" res="-1.3128024339675903e+00" rms="4.3133023381233215e-01" purity="3.0000001192092896e-01" nType="-99"/>
      </Node>
    </BinaryTree>
    <BinaryTree type="DecisionTree" boostWeight="1.0000000000000000e+00" itree="24">
      <Node pos="s" depth="0" NCoef="0" IVar="2" Cut="2.3314115405082703e-01" cType="1" res="2.5951676070690155e-04" rms="2.7120906114578247e-01" purity="4.8761904239654541e-01" nType="0">
        <Node pos="l" depth="1" NCoef="0" IVar="1" Cut="5.1105189323425293e-01" cType="1" res="3.2023631036281586e-02" rms="2.3822854459285736e-01" purity="3.0275228619575500e-01" nType="0">
          <Node pos="l" depth="2" NCoef="0" IVar="-1" Cut="0.0000000000000000e+00" cType="1" res="-5.9458279609680176e-01" rms="3.8553711026906967e-02" purity="0.0000000000000000e+00" nType="-99"/>
          <Node pos="r" depth="2" NCoef="0" IVar="-1" Cut="0.0000000000000000e+00" cType="1" res="3.5799539089202881e-01" rms="2.6347714662551880e-01" purity="3.7500000000000000e-01" nType="-99"/>
        </Node>
        <Node pos="r" depth="1" NCoef="0" IVar="3" Cut="3.2536037445068359e+01" cType="1" res="-2.2296108305454254e-02" rms="2.9027548432350159e-01" purity="6.1889249086380005e-01" nType="0">
          <Node pos="l" depth="2" NCoef="0" IVar="-1" Cut="0.0000000000000000e+00" cType="1" res="-2.1813748776912689e-01" rms="3.3315533399581909e-01" purity="3.9946380257606506e-01" nType="-99"/>
          <Node pos="r" depth="2" NCoef="0" IVar="-1" Cut="0.0000000000000000e+00" cType="1" res="2.1941110491752625e-01" rms="2.0210437476634979e-01" purity="9.5850622653961182e-01" nType="-99"/>
        </Node>
      </Node>
    </BinaryTree>
    <BinaryTree type="DecisionTree" boostWeight="1.0000000000000000e+00" itree="25">
      <Node pos="s" depth="0" NCoef="0" IVar="2" Cut="7.9941409826278687e-01" cType="1" res="4.2885276488959789e-03" rms="2.6987528800964355e-01" purity="5.1807230710983276e-01" nType="0">
        <Node pos="l" depth="1" NCoef="0" IVar="1" Cut="3.8345425128936768e+00" cType="1" res="-9.6490550786256790e-03" rms="2.5617510080337524e-01" purity="4.8356807231903076e-01" nType="0">
          <Node pos="l" depth="2" NCoef="0" IVar="-1" Cut="0.0000000000000000e+00" cType="1" res="-3.1571973115205765e-02" rms="2.5062757730484009e-01" purity="4.7853535413742065e-01" nType="-99"/>
          <Node pos="r" depth="2" NCoef="0" IVar="-1" Cut="0.0000000000000000e+00" cType="1" res="-6.1177301406860352e-01" rms="3.0977326631546021e-01" purity="5.5000001192092896e-01" nType="-99"/>
        </Node>
        <Node pos="r" depth="1" NCoef="0" IVar="2" Cut="9.0030813217163086e-01" cType="1" res="8.6752563714981079e-02" rms="3.2790908217430115e-01" purity="7.2222220897674561e-01" nType="0">
          <Node pos="l" depth="2" NCoef="0" IVar="-1" Cut="0.0000000000000000e+00" cType="1" res="1.0343188047409058e+00" rms="3.3166849613189697e-01" purity="7.6344084739685059e-01" nType="-99"/>
          <Node pos="r" depth="2" NCoef="0" IVar="-1" Cut="0.0000000000000000e+00" cType="1" res="5.8924004435539246e-02" rms="3.0596461892127991e-01" purity="6.4705884456634521e-01" nType="-99"/>
        </Node>
      </Node>
    </BinaryTree>
    <BinaryTree type="DecisionTree" boostWeight="1.0000000000000000e+00" itree="26">
      <Node pos="s" depth="0" NCoef="0" IVar="0" Cut="7.6193070411682129e+00" cType="1" res="-6.8030059337615967e-03" rms="2.9383584856987000e-01" purity="4.9747219681739807e-01" nType="0">
        <Node pos="l" depth="1" NCoef="0" IVar="0" Cut="2.1627681255340576e+00" cType="1" res="-1.1291230097413063e-02" rms="2.9139935970306396e-01" purity="5.0155764818191528e-01" nType="0">
          <Node pos="l" depth="2" NCoef="0" IVar="-1" Cut="0.0000000000000000e+00" cType="1" res="-8.8901892304420471e-03" rms="2.8133010864257812e-01" purity="5.5099505186080933e-01" nType="-99"/>
          <Node pos="r" depth="2" NCoef="0" IVar="-1" Cut="0.0000000000000000e+00" cType="1" res="-3.8772898912429810e-01" rms="3.3301046490669250e-01" purity="2.5157234072685242e-01" nType="-99"/>
        </Node>
        <Node pos="r" depth="1" NCoef="0" IVar="-1" Cut="0.0000000000000000e+00" cType="1" res="9.8404729366302490e-01" rms="3.3282557129859924e-01" purity="3.4615385532379150e-01" nType="-99"/>
      </Node>
    </BinaryTree>
    <BinaryTree type="DecisionTree" boostWeight="1.0000000000000000e+00" itree="27">
      <Node pos="s" depth="0" NCoef="0" IVar="2" Cut="-1.4764596521854401e-01" cType="1" res="-2.7215383015573025e-03" rms="2.8729745745658875e-01" purity="5.1212120056152344e-01" nType="0">
        <Node pos="l" depth="1" NCoef="0" IVar="-1" Cut="0.0000000000000000e+00" cType="1" res="3.9347524642944336e+00" rms="4.1478195786476135e-01" purity="2.3076923191547394e-01" nType="-99"/>
        <Node pos="r" depth="1" NCoef="0" IVar="2" Cut="8.2988768815994263e-01" cType="1" res="-8.2315662875771523e-03" rms="2.8101563453674316e-01" purity="5.1970952749252319e-01" nType="0">
          <Node pos="l" depth="2" NCoef="0" IVar="-1" Cut="0.0000000000000000e+00" cType="1" res="2.3250505328178406e-03" rms="2.6883232593536377e-01" purity="5.0724637508392334e-01" nType="-99"/>
          <Node pos="r" depth="2" NCoef="0" IVar="-1" Cut="0.0000000000000000e+00" cType="1" res="-3.5757759213447571e-01" rms="3.4154295921325684e-01" purity="5.9558820724487305e-01" nType="-99"/>
        </Node>
      </Node>
    </BinaryTree>
    <BinaryTree type="DecisionTree" boostWeight="1.0000000000000000e+00" itree="28">
      <Node pos="s" depth="0" NCoef="0" IVar="2" Cut="-5.2939955145120621e-02" cType="1" res="-1.9171860069036484e-02" rms="2.8490594029426575e-01" purity="4.6051281690597534e-01" nType="0">
        <Node pos="l" depth="1" NCoef="0" IVar="-1" Cut="0.0000000000000000e+00" cType="1" res="-1.4907828569412231e+00" rms="3.3251631259918213e-01" purity="1.1538461595773697e-01" nType="-99"/>
        <Node pos="r" depth="1" NCoef="0" IVar="2" Cut="8.8979548215866089e-01" cType="1" res="-9.5888581126928329e-03" rms="2.7734863758087158e-01" purity="4.6996837854385376e-01" nType="0">
          <Node pos="l" depth="2" NCoef="0" IVar="-1" Cut="0.0000000000000000e+00" cType="1" res="-1.6981628537178040e-01" rms="2.6777547597885132e-01" purity="4.5307067036628723e-01" nType="-99"/>
          <Node pos="r" depth="2" NCoef="0" IVar="-1" Cut="0.0000000000000000e+00" cType="1" res="6.6154980659484863e-01" rms="3.4378531575202942e-01" purity="6.3953489065170288e-01" nType="-99"/>
        </Node>
      </Node>
    </BinaryTree>
    <BinaryTree type="DecisionTree" boostWeight="1.0000000000000000e+00" itree="29">
      <Node pos="s" depth="0" NCoef="0" IVar="2" Cut="-5.3322531282901764e-02" cType="1" res="3.7668945733457804e-03" rms="2.7568855881690979e-01" purity="5.0584793090820312e-01" nType="0">
        <Node pos="l" depth="1" NCoef="0" IVar="-1" Cut="0.0000000000000000e+00" cType="1" res="-1.3510378599166870e+00" rms="3.6282303929328918e-01" purity="5.1282051950693130e-02" nType="-99"/>
        <Node pos="r" depth="1" NCoef="0" IVar="2" Cut="8.9060938358306885e-01" cType="1" res="1.1240023188292980e-02" rms="2.6895457506179810e-01" purity="5.2380955219268799e-01" nType="0">
          <Node pos="l" depth="2" NCoef="0" IVar="-1" Cut="0.0000000000000000e+00" cType="1" res="1.7583577334880829e-01" rms="2.7104330062866211e-01" purity="5.1336300373077393e-01" nType="-99"/>
          <Node pos="r" depth="2" NCoef="0" IVar="-1" Cut="0.0000000000000000e+00" cType="1" res="-5.9247112274169922e-01" rms="2.2657912969589233e-01" purity="6.2921351194381714e-01" nType="-99"/>
        </Node>
      </Node>
    </BinaryTree>
    <BinaryTree type="DecisionTree" boostWeight="1.0000000000000000e+00" itree="30">
      <Node pos="s" depth="0" NCoef="0" IVar="2" Cut="7.9809701442718506e-01" cType="1" res="4.3745650909841061e-03" rms="2.7272629737854004e-01" purity="5.2791380882263184e-01" nType="0">
        <Node pos="l" depth="1" NCoef="0" IVar="2" Cut="-5.8258924633264542e-02" cType="1" res="1.6096880659461021e-02" rms="2.6344007253646851e-01" purity="5.0804597139358521e-01" nType="0">
          <Node pos="l" depth="2" NCoef="0" IVar="-1" Cut="0.0000000000000000e+00" cType="1" res="2.3422122001647949e+00" rms="3.2772976160049438e-01" purity="1.7499999701976776e-01" nType="-99"/>
          <Node pos="r" depth="2" NCoef="0" IVar="-1" Cut="0.0000000000000000e+00" cType="1" res="1.0017195343971252e-01" rms="2.5882962346076965e-01" purity="5.2409636974334717e-01" nType="-99"/>
        </Node>
        <Node pos="r" depth="1" NCoef="0" IVar="2" Cut="9.1536653041839600e-01" cType="1" res="-6.3164606690406799e-02" rms="3.1259086728096008e-01" purity="6.4238411188125610e-01" nType="0">
          <Node pos="l" depth="2" NCoef="0" IVar="-1" Cut="0.0000000000000000e+00" cType="1" res="-7.0455837249755859e-01" rms="3.3675321936607361e-01" purity="6.4077669382095337e-01" nType="-99"/>
          <Node pos="r" depth="2" NCoef="0" IVar="-1" Cut="0.0000000000000000e+00" cType="1" res="4.1778844594955444e-01" rms="2.1836480498313904e-01" purity="6.4583331346511841e-01" nType="-99"/>
        </Node>
      </Node>
    </BinaryTree>
    <BinaryTree type="DecisionTree" boostWeight="1.0000000000000000e+00" itree="31">
      <Node pos="s" depth="0" NCoef="0" IVar="2" Cut="-5.2939955145120621e-02" cType="1" res="-1.3221544213593006e-02" rms="2.9276901483535767e-01" purity="5.1773047447204590e-01" nType="0">
        <Node pos="l" depth="1" NCoef="0" IVar="-1" Cut="0.0000000000000000e+00" cType="1" res="-2.3115296363830566e+00" rms="4.3243685364723206e-01" purity="1.1111111193895340e-01" nType="-99"/>
        <Node pos="r" depth="1" NCoef="0" IVar="2" Cut="1.0596676170825958e-01" cType="1" res="-2.5932420976459980e-03" rms="2.8059867024421692e-01" purity="5.2916663885116577e-01" nType="0">
          <Node pos="l" depth="2" NCoef="0" IVar="-1" Cut="0.0000000000000000e+00" cType="1" res="-3.9196825027465820e-01" rms="2.3385851085186005e-01" purity="2.4489796161651611e-01" nType="-99"/>
          <Node pos="r" depth="2" NCoef="0" IVar="-1" Cut="0.0000000000000000e+00" cType="1" res="9.4664990901947021e-02" rms="2.9770559072494507e-01" purity="6.5465468168258667e-01" nType="-99"/>
        </Node>
      </Node>
    </BinaryTree>
    <BinaryTree type="DecisionTree" boostWeight="1.0000000000000000e+00" itree="32">
      <Node pos="s" depth="0" NCoef="0" IVar="0" Cut="3.8098628520965576e+00" cType="1" res="1.0247413069009781e-02" rms="2.8126722574234009e-01" purity="5.0668036937713623e-01" nType="0">
        <Node pos="l" depth="1" NCoef="0" IVar="2" Cut="-5.1429886370897293e-02" cType="1" res="2.9885829426348209e-03" rms="2.6731652021408081e-01" purity="5.1755380630493164e-01" nType="0">
          <Node pos="l" depth="2" NCoef="0" IVar="-1" Cut="0.0000000000000000e+00" cType="1" res="1.2244586944580078e+00" rms="3.3368843793869019e-01" purity="2.1428571641445160e-01" nType="-99"/>
          <Node pos="r" depth="2" NCoef="0" IVar="-1" Cut="0.0000000000000000e+00" cType="1" res="-3.8667692570015788e-04" rms="2.6431414484977722e-01" purity="5.2748537063598633e-01" nType="-99"/>
        </Node>
        <Node pos="r" depth="1" NCoef="0" IVar="0" Cut="5.3787198066711426e+00" cType="1" res="8.1464603543281555e-02" rms="3.8549724221229553e-01" purity="4.0000000596046448e-01" nType="0">
          <Node pos="l" depth="2" NCoef="0" IVar="-1" Cut="0.0000000000000000e+00" cType="1" res="2.2311415672302246e+00" rms="4.1562542319297791e-01" purity="5.0000000000000000e-01" nType="-99"/>
          <Node pos="r" depth="2" NCoef="0" IVar="-1" Cut="0.0000000000000000e+00" cType="1" res="8.1204764544963837e-02" rms="3.4989714622497559e-01" purity="3.5483869910240173e-01" nType="-99"/>
        </Node>
      </Node>
    </BinaryTree>
    <BinaryTree type="DecisionTree" boostWeight="1.0000000000000000e+00" itree="33">
      <Node pos="s" depth="0" NCoef="0" IVar="2" Cut="-1.4764596521854401e-01" cType="1" res="-7.8175198286771774e-03" rms="2.9774764180183411e-01" purity="5.0718683004379272e-01" nType="0">
        <Node pos="l" depth="1" NCoef="0" IVar="-1" Cut="0.0000000000000000e+00" cType="1" res="-6.8371748924255371e-01" rms="4.0728625655174255e-01" purity="1.4814814925193787e-01" nType="-99"/>
        <Node pos="r" depth="1" NCoef="0" IVar="0" Cut="3.8593368530273438e+00" cType="1" res="-3.4657225478440523e-03" rms="2.9286280274391174e-01" purity="5.1742345094680786e-01" nType="0">
          <Node pos="l" depth="2" NCoef="0" IVar="-1" Cut="0.0000000000000000e+00" cType="1" res="3.4933838993310928e-02" rms="2.8258302807807922e-01" purity="5.3153151273727417e-01" nType="-99"/>
          <Node pos="r" depth="2" NCoef="0" IVar="-1" Cut="0.0000000000000000e+00" cType="1" res="-7.4053847789764404e-01" rms="3.9956650137901306e-01" purity="3.0508473515510559e-01" nType="-99"/>
        </Node>
      </Node>
    </BinaryTree>
    <BinaryTree type="DecisionTree" boostWeight="1.0000000000000000e+00" itree="34">
      <Node pos="s" depth="0" NCoef="0" IVar="0" Cut="1.0109846591949463e+00" cType="1" res="5.3816766012459993e-04" rms="2.8403779864311218e-01" purity="5.1616162061691284e-01" nType="0">
        <Node pos="l" depth="1" NCoef="0" IVar="3" Cut="4.5358180999755859e+01" cType="1" res="-3.2287005335092545e-02" rms="2.3426696658134460e-01" purity="4.8979592323303223e-01" nType="0">
          <Node pos="l" depth="2" NCoef="0" IVar="-1" Cut="0.0000000000000000e+00" cType="1" res="-4.8352295160293579e-01" rms="2.4012874066829681e-01" purity="4.1520467400550842e-01" nType="-99"/>
          <Node pos="r" depth="2" NCoef="0" IVar="-1" Cut="0.0000000000000000e+00" cType="1" res="8.4082973003387451e-01" rms="1.5389199554920197e-01" purity="1.0000000000000000e+00" nType="-99"/>
        </Node>
        <Node pos="r" depth="1" NCoef="0" IVar="2" Cut="1.3601295650005341e-01" cType="1" res="2.2055672481656075e-02" rms="3.1051278114318848e-01" purity="5.3344482183456421e-01" nType="0">
          <Node pos="l" depth="2" NCoef="0" IVar="-1" Cut="0.0000000000000000e+00" cType="1" res="5.3242033720016479e-01" rms="3.1519877910614014e-01" purity="3.5532996058464050e-01" nType="-99"/>
          <Node pos="r" depth="2" NCoef="0" IVar="-1" Cut="0.0000000000000000e+00" cType="1" res="1.2642027810215950e-02" rms="3.0614489316940308e-01" purity="6.2094765901565552e-01" nType="-99"/>
        </Node>
      </Node>
    </BinaryTree>
    <BinaryTree type="DecisionTree" boostWeight="1.0000000000000000e+00" itree="35">
      <Node pos="s" depth="0" NCoef="0" IVar="2" Cut="-1.4764596521854401e-01" cType="1" res="-1.3225929578766227e-03" rms="2.7235677838325500e-01" purity="5.0045913457870483e-01" nType="0">
        <Node pos="l" depth="1" NCoef="0" IVar="-1" Cut="0.0000000000000000e+00" cType="1" res="-1.0112119913101196e+00" rms="3.3456882834434509e-01" purity="8.5714288055896759e-02" nType="-99"/>
        <Node pos="r" depth="1" NCoef="0" IVar="3" Cut="4.6301059722900391e+01" cType="1" res="4.2609558440744877e-03" rms="2.6824310421943665e-01" purity="5.1423150300979614e-01" nType="0">
          <Node pos="l" depth="2" NCoef="0" IVar="-1" Cut="0.0000000000000000e+00" cType="1" res="7.9513885080814362e-02" rms="2.7227848768234253e-01" purity="4.5683059096336365e-01" nType="-99"/>
          <Node pos="r" depth="2" NCoef="0" IVar="-1" Cut="0.0000000000000000e+00" cType="1" res="-4.5830827951431274e-01" rms="2.3657080531120300e-01" purity="8.9208632707595825e-01" nType="-99"/>
        </Node>
      </Node>
    </BinaryTree>
    <BinaryTree type="DecisionTree" boostWeight="1.0000000000000000e+00" itree="36">
      <Node pos="s" depth="0" NCoef="0" IVar="0" Cut="6.6672334671020508e+00" cType="1" res="-1.2587269768118858e-02" rms="2.6032257080078125e-01" purity="4.8737862706184387e-01" nType="0">
        <Node pos="l" depth="1" NCoef="0" IVar="0" Cut="3.8006839752197266e+00" cType="1" res="-1.7071397975087166e-02" rms="2.5301143527030945e-01" purity="4.9094566702842712e-01" nType="0">
          <Node pos="l" depth="2" NCoef="0" IVar="-1" Cut="0.0000000000000000e+00" cType="1" res="-9.7400121390819550e-02" rms="2.4541024863719940e-01" purity="5.0636941194534302e-01" nType="-99"/>
          <Node pos="r" depth="2" NCoef="0" IVar="-1" Cut="0.0000000000000000e+00" cType="1" res="-5.6768161058425903e-01" rms="3.4852343797683716e-01" purity="2.1153846383094788e-01" nType="-99"/>
        </Node>
        <Node pos="r" depth="1" NCoef="0" IVar="-1" Cut="0.0000000000000000e+00" cType="1" res="8.8318437337875366e-01" rms="3.9434677362442017e-01" purity="3.8888889551162720e-01" nType="-99"/>
      </Node>
    </BinaryTree>
    <BinaryTree type="DecisionTree" boostWeight="1.0000000000000000e+00" itree="37">
      <Node pos="s" depth="0" NCoef="0" IVar="2" Cut="2.3314115405082703e-01" cType="1" res="1.2630006298422813e-02" rms="2.7356821298599243e-01" purity="5.2533608675003052e-01" nType="0">
        <Node pos="l" depth="1" NCoef="0" IVar="1" Cut="1.8721957206726074e+00" cType="1" res="-1.7885817214846611e-02" rms="2.6056447625160217e-01" purity="3.0645161867141724e-01" nType="0">
          <Node pos="l" depth="2" NCoef="0" IVar="-1" Cut="0.0000000000000000e+00" cType="1" res="-8.0114096403121948e-02" rms="2.4854706227779388e-01" purity="3.1784841418266296e-01" nType="-99"/>
          <Node pos="r" depth="2" NCoef="0" IVar="-1" Cut="0.0000000000000000e+00" cType="1" res="-1.1079940795898438e+00" rms="3.7753653526306152e-01" purity="1.1999999731779099e-01" nType="-99"/>
        </Node>
        <Node pos="r" depth="1" NCoef="0" IVar="3" Cut="3.3691349029541016e+01" cType="1" res="3.7477787584066391e-02" rms="2.8128191828727722e-01" purity="7.0356470346450806e-01" nType="0">
          <Node pos="l" depth="2" NCoef="0" IVar="-1" Cut="0.0000000000000000e+00" cType="1" res="3.1887084245681763e-01" rms="3.4716305136680603e-01" purity="5.1282054185867310e-01" nType="-99"/>
          <Node pos="r" depth="2" NCoef="0" IVar="-1" Cut="0.0000000000000000e+00" cType="1" res="1.7432819306850433e-01" rms="1.3870248198509216e-01" purity="9.7285068035125732e-01" nType="-99"/>
        </Node>
      </Node>
    </BinaryTree>
    <BinaryTree type="DecisionTree" boostWeight="1.0000000000000000e+00" itree="38">
      <Node pos="s" depth="0" NCoef="0" IVar="0" Cut="8.5716676712036133e+00" cType="1" res="-1.5556054131593555e-04" rms="2.8944748640060425e-01" purity="5.2705413103103638e-01" nType="0">
        <Node pos="l" depth="1" NCoef="0" IVar="0" Cut="5.2143592834472656e+00" cType="1" res="4.4194511137902737e-03" rms="2.8968292474746704e-01" purity="5.3545737266540527e-01" nType="0">
          <Node pos="l" depth="2" NCoef="0" IVar="-1" Cut="0.0000000000000000e+00" cType="1" res="-1.7326710745692253e-02" rms="2.8277447819709778e-01" purity="5.4215580224990845e-01" nType="-99"/>
          <Node pos="r" depth="2" NCoef="0" IVar="-1" Cut="0.0000000000000000e+00" cType="1" res="1.3777145147323608e+00" rms="3.9799198508262634e-01" purity="3.6111110448837280e-01" nType="-99"/>
        </Node>
        <Node pos="r" depth="1" NCoef="0" IVar="-1" Cut="0.0000000000000000e+00" cType="1" res="-8.2206010818481445e-01" rms="2.1436789631843567e-01" purity="2.0000000298023224e-01" nType="-99"/>
      </Node>
    </BinaryTree>
    <BinaryTree type="DecisionTree" boostWeight="1.0000000000000000e+00" itree="39">
      <Node pos="s" depth="0" NCoef="0" IVar="0" Cut="4.7622237205505371e+00" cType="1" res="-2.0052481442689896e-02" rms="2.6854157447814941e-01" purity="5.2253115177154541e-01" nType="0">
        <Node pos="l" depth="1" NCoef="0" IVar="0" Cut="4.4927284121513367e-01" cType="1" res="-1.2799507938325405e-02" rms="2.6082870364189148e-01" purity="5.3822940587997437e-01" nType="0">
          <Node pos="l" depth="2" NCoef="0" IVar="-1" Cut="0.0000000000000000e+00" cType="1" res="-9.1317427158355713e-01" rms="3.6533874273300171e-01" purity="2.1052631735801697e-01" nType="-99"/>
          <Node pos="r" depth="2" NCoef="0" IVar="-1" Cut="0.0000000000000000e+00" cType="1" res="-6.5043345093727112e-02" rms="2.5425311923027039e-01" purity="5.5125522613525391e-01" nType="-99"/>
        </Node>
        <Node pos="r" depth="1" NCoef="0" IVar="-1" Cut="0.0000000000000000e+00" cType="1" res="-7.0683264732360840e-01" rms="3.6362841725349426e-01" purity="2.0408163964748383e-01" nType="-99"/>
      </Node>
    </BinaryTree>
    <BinaryTree type="DecisionTree" boostWeight="1.0000000000000000e+00" itree="40">
      <Node pos="s" depth="0" NCoef="0" IVar="0" Cut="9.5277988910675049e-01" cType="1" res="-2.9444610700011253e-03" rms="2.8128001093864441e-01" purity="4.8554337024688721e-01" nType="0">
        <Node pos="l" depth="1" NCoef="0" IVar="1" Cut="7.3306953907012939e-01" cType="1" res="4.9119707196950912e-02" rms="2.0957319438457489e-01" purity="3.0685919523239136e-01" nType="0">
          <Node pos="l" depth="2" NCoef="0" IVar="-1" Cut="0.0000000000000000e+00" cType="1" res="-4.0304401516914368e-01" rms="6.3475497066974640e-02" purity="2.7272727340459824e-02" nType="-99"/>
          <Node pos="r" depth="2" NCoef="0" IVar="-1" Cut="0.0000000000000000e+00" cType="1" res="8.1721329689025879e-01" rms="2.5665053725242615e-01" purity="4.9101796746253967e-01" nType="-99"/>
        </Node>
        <Node pos="r" depth="1" NCoef="0" IVar="0" Cut="7.3030939102172852e+00" cType="1" res="-2.2809164598584175e-02" rms="3.0185917019844055e-01" purity="5.5371898412704468e-01" nType="0">
          <Node pos="l" depth="2" NCoef="0" IVar="-1" Cut="0.0000000000000000e+00" cType="1" res="-2.1033252775669098e-01" rms="2.9978328943252563e-01" purity="5.6565654277801514e-01" nType="-99"/>
          <Node pos="r" depth="2" NCoef="0" IVar="-1" Cut="0.0000000000000000e+00" cType="1" res="6.7494410276412964e-01" rms="3.1523159146308899e-01" purity="3.0303031206130981e-01" nType="-99"/>
        </Node>
      </Node>
    </BinaryTree>
    <BinaryTree type="DecisionTree" boostWeight="1.0000000000000000e+00" itree="41">
      <Node pos="s" depth="0" NCoef="0" IVar="2" Cut="1.3564021885395050e-01" cType="1" res="4.5164558105170727e-03" rms="2.7329707145690918e-01" purity="4.9508839845657349e-01" nType="0">
        <Node pos="l" depth="1" NCoef="0" IVar="3" Cut="3.8444583892822266e+01" cType="1" res="2.5787347927689552e-02" rms="2.4127605557441711e-01" purity="2.4806201457977295e-01" nType="0">
          <Node pos="l" depth="2" NCoef="0" IVar="-1" Cut="0.0000000000000000e+00" cType="1" res="1.0386672616004944e-01" rms="2.1812200546264648e-01" purity="1.5076923370361328e-01" nType="-99"/>
          <Node pos="r" depth="2" NCoef="0" IVar="-1" Cut="0.0000000000000000e+00" cType="1" res="9.8595964908599854e-01" rms="3.2304465770721436e-01" purity="7.5806450843811035e-01" nType="-99"/>
        </Node>
        <Node pos="r" depth="1" NCoef="0" IVar="2" Cut="7.4472028017044067e-01" cType="1" res="-8.5292411968111992e-03" rms="2.9042941331863403e-01" purity="6.4659273624420166e-01" nType="0">
          <Node pos="l" depth="2" NCoef="0" IVar="-1" Cut="0.0000000000000000e+00" cType="1" res="-1.9201837480068207e-01" rms="3.1276893615722656e-01" purity="6.4047616720199585e-01" nType="-99"/>
          <Node pos="r" depth="2" NCoef="0" IVar="-1" Cut="0.0000000000000000e+00" cType="1" res="1.8155124783515930e-01" rms="2.3656009137630463e-01" purity="6.5876775979995728e-01" nType="-99"/>
        </Node>
      </Node>
    </BinaryTree>
    <BinaryTree type="DecisionTree" boostWeight="1.0000000000000000e+00" itree="42">
      <Node pos="s" depth="0" NCoef="0" IVar="0" Cut="5.7148928642272949e+00" cType="1" res="-1.7488975077867508e-02" rms="2.7410206198692322e-01" purity="4.8523622751235962e-01" nType="0">
        <Node pos="l" depth="1" NCoef="0" IVar="2" Cut="8.9714020490646362e-01" cType="1" res="-2.2244021296501160e-02" rms="2.6704442501068115e-01" purity="4.9425286054611206e-01" nType="0">
          <Node pos="l" depth="2" NCoef="0" IVar="-1" Cut="0.0000000000000000e+00" cType="1" res="-1.3492590188980103e-01" rms="2.6007798314094543e-01" purity="4.8988765478134155e-01" nType="-99"/>
          <Node pos="r" depth="2" NCoef="0" IVar="-1" Cut="0.0000000000000000e+00" cType="1" res="-8.2337868213653564e-01" rms="3.3128330111503601e-01" purity="5.5223882198333740e-01" nType="-99"/>
        </Node>
        <Node pos="r" depth="1" NCoef="0" IVar="3" Cut="3.6370815277099609e+01" cType="1" res="5.9639498591423035e-02" rms="3.6161482334136963e-01" purity="3.3898305892944336e-01" nType="0">
          <Node pos="l" depth="2" NCoef="0" IVar="-1" Cut="0.0000000000000000e+00" cType="1" res="2.1230535507202148e+00" rms="3.9469662308692932e-01" purity="2.4137930572032928e-01" nType="-99"/>
          <Node pos="r" depth="2" NCoef="0" IVar="-1" Cut="0.0000000000000000e+00" cType="1" res="-2.1312534809112549e-01" rms="2.8317686915397644e-01" purity="4.3333333730697632e-01" nType="-99"/>
        </Node>
      </Node>
    </BinaryTree>
    <BinaryTree type="DecisionTree" boostWeight="1.0000000000000000e+00" itree="43">
      <Node pos="s" depth="0" NCoef="0" IVar="0" Cut="3.8102118968963623e+00" cType="1" res="5.1922490820288658e-03" rms="2.7540883421897888e-01" purity="4.7304171323776245e-01" nType="0">
        <Node pos="l" depth="1" NCoef="0" IVar="0" Cut="9.0626180171966553e-01" cType="1" res="2.0039716735482216e-02" rms="2.5715690851211548e-01" purity="4.9169436097145081e-01" nType="0">
          <Node pos="l" depth="2" NCoef="0" IVar="-1" Cut="0.0000000000000000e+00" cType="1" res="-1.3781623542308807e-01" rms="2.1689000725746155e-01" purity="2.1145375072956085e-01" nType="-99"/>
          <Node pos="r" depth="2" NCoef="0" IVar="-1" Cut="0.0000000000000000e+00" cType="1" res="2.6037815213203430e-01" rms="2.6851299405097961e-01" purity="5.8579879999160767e-01" nType="-99"/>
        </Node>
        <Node pos="r" depth="1" NCoef="0" IVar="0" Cut="6.9086670875549316e+00" cType="1" res="-1.6239853203296661e-01" rms="3.9369201660156250e-01" purity="2.6249998807907104e-01" nType="0">
          <Node pos="l" depth="2" NCoef="0" IVar="-1" Cut="0.0000000000000000e+00" cType="1" res="-7.0294058322906494e-01" rms="3.7754952907562256e-01" purity="2.4528302252292633e-01" nType="-99"/>
          <Node pos="r" depth="2" NCoef="0" IVar="-1" Cut="0.0000000000000000e+00" cType="1" res="-1.2647136449813843e+00" rms="3.9753091335296631e-01" purity="2.9629629850387573e-01" nType="-99"/>
        </Node>
      </Node>
    </BinaryTree>
    <BinaryTree type="DecisionTree" boostWeight="1.0000000000000000e+00" itree="44">
      <Node pos="s" depth="0" NCoef="0" IVar="0" Cut="2.8578715324401855e+00" cType="1" res="-2.6890789740718901e-05" rms="2.7907761931419373e-01" purity="5.0196462869644165e-01" nType="0">
        <Node pos="l" depth="1" NCoef="0" IVar="1" Cut="2.8765819072723389e+00" cType="1" res="-8.6746634915471077e-03" rms="2.5016510486602783e-01" purity="5.2270209789276123e-01" nType="0">
          <Node pos="l" depth="2" NCoef="0" IVar="-1" Cut="0.0000000000000000e+00" cType="1" res="-1.2424714863300323e-01" rms="2.5245112180709839e-01" purity="5.0315260887145996e-01" nType="-99"/>
          <Node pos="r" depth="2" NCoef="0" IVar="-1" Cut="0.0000000000000000e+00" cType="1" res="2.0548853278160095e-01" rms="2.3043467104434967e-01" purity="6.6363638639450073e-01" nType="-99"/>
        </Node>
        <Node pos="r" depth="1" NCoef="0" IVar="3" Cut="1.9533246994018555e+01" cType="1" res="6.7876920104026794e-02" rms="4.3913331627845764e-01" purity="3.3913043141365051e-01" nType="0">
          <Node pos="l" depth="2" NCoef="0" IVar="-1" Cut="0.0000000000000000e+00" cType="1" res="-2.0492571592330933e-01" rms="2.9849666357040405e-01" purity="6.2500000000000000e-02" nType="-99"/>
          <Node pos="r" depth="2" NCoef="0" IVar="-1" Cut="0.0000000000000000e+00" cType="1" res="6.7741990089416504e-01" rms="5.0705462694168091e-01" purity="5.3731346130371094e-01" nType="-99"/>
        </Node>
      </Node>
    </BinaryTree>
    <BinaryTree type="DecisionTree" boostWeight="1.0000000000000000e+00" itree="45">
      <Node pos="s" depth="0" NCoef="0" IVar="0" Cut="3.8098628520965576e+00" cType="1" res="1.8663266673684120e-02" rms="2.6004776358604431e-01" purity="5.2199411392211914e-01" nType="0">
        <Node pos="l" depth="1" NCoef="0" IVar="0" Cut="1.6078119277954102e+00" cType="1" res="2.3584686219692230e-02" rms="2.4872556328773499e-01" purity="5.3686398267745972e-01" nType="0">
          <Node pos="l" depth="2" NCoef="0" IVar="-1" Cut="0.0000000000000000e+00" cType="1" res="1.3829143345355988e-01" rms="2.3905618488788605e-01" purity="5.7275134325027466e-01" nType="-99"/>
          <Node pos="r" depth="2" NCoef="0" IVar="-1" Cut="0.0000000000000000e+00" cType="1" res="4.3874225020408630e-01" rms="2.7937284111976624e-01" purity="4.0579709410667419e-01" nType="-99"/>
        </Node>
        <Node pos="r" depth="1" NCoef="0" IVar="0" Cut="6.9086670875549316e+00" cType="1" res="-6.0325521975755692e-02" rms="3.9172935485839844e-01" purity="2.8333333134651184e-01" nType="0">
          <Node pos="l" depth="2" NCoef="0" IVar="-1" Cut="0.0000000000000000e+00" cType="1" res="-9.9717122316360474e-01" rms="3.7200495600700378e-01" purity="2.2580644488334656e-01" nType="-99"/>
          <Node pos="r" depth="2" NCoef="0" IVar="-1" Cut="0.0000000000000000e+00" cType="1" res="-5.3809029050171375e-03" rms="4.0349322557449341e-01" purity="3.4482759237289429e-01" nType="-99"/>
        </Node>
      </Node>
    </BinaryTree>
    <BinaryTree type="DecisionTree" boostWeight="1.0000000000000000e+00" itree="46">
      <Node pos="s" depth="0" NCoef="0" IVar="2" Cut="8.9273369312286377e-01" cType="1" res="-2.8669850900769234e-02" rms="3.0302703380584717e-01" purity="4.7081339359283447e-01" nType="0">
        <Node pos="l" depth="1" NCoef="0" IVar="0" Cut="9.5277988910675049e-01" cType="1" res="-3.7866454571485519e-02" rms="2.9626572132110596e-01" purity="4.5937499403953552e-01" nType="0">
          <Node pos="l" depth="2" NCoef="0" IVar="-1" Cut="0.0000000000000000e+00" cType="1" res="-4.6088226139545441e-02" rms="2.3046661913394928e-01" purity="2.8979590535163879e-01" nType="-99"/>
          <Node pos="r" depth="2" NCoef="0" IVar="-1" Cut="0.0000000000000000e+00" cType="1" res="-3.8426604866981506e-01" rms="3.1479898095130920e-01" purity="5.1748251914978027e-01" nType="-99"/>
        </Node>
        <Node pos="r" depth="1" NCoef="0" IVar="2" Cut="9.3785619735717773e-01" cType="1" res="7.5197666883468628e-02" rms="3.5474699735641479e-01" purity="6.0000002384185791e-01" nType="0">
          <Node pos="l" depth="2" NCoef="0" IVar="-1" Cut="0.0000000000000000e+00" cType="1" res="1.2353912591934204e+00" rms="3.8961967825889587e-01" purity="7.2340422868728638e-01" nType="-99"/>
          <Node pos="r" depth="2" NCoef="0" IVar="-1" Cut="0.0000000000000000e+00" cType="1" res="-9.6981966495513916e-01" rms="2.1656195819377899e-01" purity="4.4736841320991516e-01" nType="-99"/>
        </Node>
      </Node>
    </BinaryTree>
    <BinaryTree type="DecisionTree" boostWeight="1.0000000000000000e+00" itree="47">
      <Node pos="s" depth="0" NCoef="0" IVar="0" Cut="3.8618257045745850e+00" cType="1" res="1.9222537055611610e-02" rms="2.8622165322303772e-01" purity="4.9513620138168335e-01" nType="0">
        <Node pos="l" depth="1" NCoef="0" IVar="0" Cut="9.6769064664840698e-01" cType="1" res="4.4031026773154736e-03" rms="2.6258042454719543e-01" purity="5.0529658794403076e-01" nType="0">
          <Node pos="l" depth="2" NCoef="0" IVar="-1" Cut="0.0000000000000000e+00" cType="1" res="-3.1896379590034485e-01" rms="2.4065890908241272e-01" purity="3.0132451653480530e-01" nType="-99"/>
          <Node pos="r" depth="2" NCoef="0" IVar="-1" Cut="0.0000000000000000e+00" cType="1" res="1.5785075724124908e-01" rms="2.7081969380378723e-01" purity="6.0124611854553223e-01" nType="-99"/>
        </Node>
        <Node pos="r" depth="1" NCoef="0" IVar="3" Cut="2.2993843078613281e+01" cType="1" res="1.8576474487781525e-01" rms="4.4443851709365845e-01" purity="3.8095238804817200e-01" nType="0">
          <Node pos="l" depth="2" NCoef="0" IVar="-1" Cut="0.0000000000000000e+00" cType="1" res="6.4330869913101196e-01" rms="2.7080461382865906e-01" purity="1.2903225421905518e-01" nType="-99"/>
          <Node pos="r" depth="2" NCoef="0" IVar="-1" Cut="0.0000000000000000e+00" cType="1" res="1.1455128192901611e+00" rms="5.0598239898681641e-01" purity="5.2830189466476440e-01" nType="-99"/>
        </Node>
      </Node>
    </BinaryTree>
    <BinaryTree type="DecisionTree" boostWeight="1.0000000000000000e+00" itree="48">
      <Node pos="s" depth="0" NCoef="0" IVar="0" Cut="1.9051408767700195e+00" cType="1" res="-4.7212806530296803e-03" rms="2.6880317926406860e-01" purity="5.1094889640808105e-01" nType="0">
        <Node pos="l" depth="1" NCoef="0" IVar="0" Cut="9.9022167921066284e-01" cType="1" res="1.3858054764568806e-02" rms="2.4799695611000061e-01" purity="5.6282722949981689e-01" nType="0">
          <Node pos="l" depth="2" NCoef="0" IVar="-1" Cut="0.0000000000000000e+00" cType="1" res="5.6789517402648926e-01" rms="2.1681593358516693e-01" purity="4.5821326971054077e-01" nType="-99"/>
          <Node pos="r" depth="2" NCoef="0" IVar="-1" Cut="0.0000000000000000e+00" cType="1" res="-1.1475732177495956e-01" rms="2.6823508739471436e-01" purity="6.4988011121749878e-01" nType="-99"/>
        </Node>
        <Node pos="r" depth="1" NCoef="0" IVar="2" Cut="6.9173520803451538e-01" cType="1" res="-7.7514164149761200e-02" rms="3.2822597026824951e-01" purity="3.0769231915473938e-01" nType="0">
          <Node pos="l" depth="2" NCoef="0" IVar="-1" Cut="0.0000000000000000e+00" cType="1" res="-3.3488097786903381e-01" rms="2.9861474037170410e-01" purity="2.9333332180976868e-01" nType="-99"/>
          <Node pos="r" depth="2" NCoef="0" IVar="-1" Cut="0.0000000000000000e+00" cType="1" res="-6.8496131896972656e-01" rms="3.9882683753967285e-01" purity="3.5555556416511536e-01" nType="-99"/>
        </Node>
      </Node>
    </BinaryTree>
    <BinaryTree type="DecisionTree" boostWeight="1.0000000000000000e+00" itree="49">
      <Node pos="s" depth="0" NCoef="0" IVar="2" Cut="7.0470809936523438e-01" cType="1" res="7.8888796269893646e-03" rms="2.9448959231376648e-01" purity="4.9601593613624573e-01" nType="0">
        <Node pos="l" depth="1" NCoef="0" IVar="2" Cut="6.2323427200317383e-01" cType="1" res="2.8585722669959068e-02" rms="2.9322281479835510e-01" purity="4.5986393094062805e-01" nType="0">
          <Node pos="l" depth="2" NCoef="0" IVar="-1" Cut="0.0000000000000000e+00" cType="1" res="1.4042557775974274e-01" rms="2.8301438689231873e-01" purity="4.3353474140167236e-01" nType="-99"/>
          <Node pos="r" depth="2" NCoef="0" IVar="-1" Cut="0.0000000000000000e+00" cType="1" res="1.0761945247650146e+00" rms="3.5484814643859863e-01" purity="6.9863015413284302e-01" nType="-99"/>
        </Node>
        <Node pos="r" depth="1" NCoef="0" IVar="3" Cut="2.6359277725219727e+01" cType="1" res="-4.8661969602108002e-02" rms="2.9049938917160034e-01" purity="5.9479552507400513e-01" nType="0">
          <Node pos="l" depth="2" NCoef="0" IVar="-1" Cut="0.0000000000000000e+00" cType="1" res="-5.0066196918487549e-01" rms="3.6279508471488953e-01" purity="2.8467154502868652e-01" nType="-99"/>
          <Node pos="r" depth="2" NCoef="0" IVar="-1" Cut="0.0000000000000000e+00" cType="1" res="-1.9757790490984917e-02" rms="1.7605687677860260e-01" purity="9.1666668653488159e-01" nType="-99"/>
        </Node>
      </Node>
    </BinaryTree>
    <BinaryTree type="DecisionTree" boostWeight="1.0000000000000000e+00" itree="50">
      <Node pos="s" depth="0" NCoef="0" IVar="0" Cut="7.6195740699768066e+00" cType="1" res="-1.0317747481167316e-02" rms="2.7536830306053162e-01" purity="4.9615383148193359e-01" nType="0">
        <Node pos="l" depth="1" NCoef="0" IVar="0" Cut="3.9414737224578857e+00" cType="1" res="-3.0848591122776270e-03" rms="2.7013942599296570e-01" purity="5.0346189737319946e-01" nType="0">
          <Node pos="l" depth="2" NCoef="0" IVar="-1" Cut="0.0000000000000000e+00" cType="1" res="-9.9921591579914093e-02" rms="2.5835639238357544e-01" purity="5.0726139545440674e-01" nType="-99"/>
          <Node pos="r" depth="2" NCoef="0" IVar="-1" Cut="0.0000000000000000e+00" cType="1" res="1.1003119945526123e+00" rms="4.1490709781646729e-01" purity="4.2553192377090454e-01" nType="-99"/>
        </Node>
        <Node pos="r" depth="1" NCoef="0" IVar="-1" Cut="0.0000000000000000e+00" cType="1" res="-1.0715092420578003e+00" rms="3.3145546913146973e-01" purity="2.4137930572032928e-01" nType="-99"/>
      </Node>
    </BinaryTree>
    <BinaryTree type="DecisionTree" boostWeight="1.0000000000000000e+00" itree="51">
      <Node pos="s" depth="0" NCoef="0" IVar="0" Cut="7.6195740699768066e+00" cType="1" res="4.6663177199661732e-03" rms="2.6594495773315430e-01" purity="4.9212598800659180e-01" nType="0">
        <Node pos="l" depth="1" NCoef="0" IVar="0" Cut="4.2997121810913086e+00" cType="1" res="4.7474322491325438e-04" rms="2.5636881589889526e-01" purity="4.9090909957885742e-01" nType="0">
          <Node pos="l" depth="2" NCoef="0" IVar="-1" Cut="0.0000000000000000e+00" cType="1" res="7.7005416154861450e-02" rms="2.4714499711990356e-01" purity="5.0157070159912109e-01" nType="-99"/>
          <Node pos="r" depth="2" NCoef="0" IVar="-1" Cut="0.0000000000000000e+00" cType="1" res="-1.0283104181289673e+00" rms="3.9377132058143616e-01" purity="2.0000000298023224e-01" nType="-99"/>
        </Node>
        <Node pos="r" depth="1" NCoef="0" IVar="-1" Cut="0.0000000000000000e+00" cType="1" res="6.4417713880538940e-01" rms="4.8480480909347534e-01" purity="5.3846156597137451e-01" nType="-99"/>
      </Node>
    </BinaryTree>
    <BinaryTree type="DecisionTree" boostWeight="1.0000000000000000e+00" itree="52">
      <Node pos="s" depth="0" NCoef="0" IVar="0" Cut="5.7145848274230957e+00" cType="1" res="4.1775438003242016e-03" rms="2.7215257287025452e-01" purity="5.0596421957015991e-01" nType="0">
        <Node pos="l" depth="1" NCoef="0" IVar="2" Cut="1.3601295650005341e-01" cType="1" res="1.0128631256520748e-02" rms="2.6162508130073547e-01" purity="5.1749736070632935e-01" nType="0">
          <Node pos="l" depth="2" NCoef="0" IVar="-1" Cut="0.0000000000000000e+00" cType="1" res="-2.0366242527961731e-01" rms="2.1516126394271851e-01" purity="2.5290697813034058e-01" nType="-99"/>
          <Node pos="r" depth="2" NCoef="0" IVar="-1" Cut="0.0000000000000000e+00" cType="1" res="2.3113653063774109e-01" rms="2.8355544805526733e-01" purity="6.6944909095764160e-01" nType="-99"/>
        </Node>
        <Node pos="r" depth="1" NCoef="0" IVar="3" Cut="3.6763374328613281e+01" cType="1" res="-8.4899842739105225e-02" rms="3.8692855834960938e-01" purity="3.3333334326744080e-01" nType="0">
          <Node pos="l" depth="2" NCoef="0" IVar="-1" Cut="0.0000000000000000e+00" cType="1" res="-7.3508816957473755e-01" rms="4.1495966911315918e-01" purity="1.6666667163372040e-01" nType="-99"/>
          <Node pos="r" depth="2" NCoef="0" IVar="-1" Cut="0.0000000000000000e+00" cType="1" res="8.4998376667499542e-02" rms="3.1690829992294312e-01" purity="5.5555558204650879e-01" nType="-99"/>
        </Node>
      </Node>
    </BinaryTree>
    <BinaryTree type="DecisionTree" boostWeight="1.0000000000000000e+00" itree="53">
      <Node pos="s" depth="0" NCoef="0" IVar="2" Cut="1.3828413188457489e-01" cType="1" res="-1.1644264683127403e-02" rms="2.6794725656509399e-01" purity="4.7352340817451477e-01" nType="0">
        <Node pos="l" depth="1" NCoef="0" IVar="2" Cut="8.1467017531394958e-02" cType="1" res="2.1048160269856453e-02" rms="2.3676700890064240e-01" purity="2.5067386031150818e-01" nType="0">
          <Node pos="l" depth="2" NCoef="0" IVar="-1" Cut="0.0000000000000000e+00" cType="1" res="3.7820416688919067e-01" rms="2.2719289362430573e-01" purity="2.1140938997268677e-01" nType="-99"/>
          <Node pos="r" depth="2" NCoef="0" IVar="-1" Cut="0.0000000000000000e+00" cType="1" res="-2.6870748400688171e-01" rms="2.6683667302131653e-01" purity="4.1095891594886780e-01" nType="-99"/>
        </Node>
        <Node pos="r" depth="1" NCoef="0" IVar="3" Cut="3.5160190582275391e+01" cType="1" res="-3.1495146453380585e-02" rms="2.8338718414306641e-01" purity="6.0883796215057373e-01" nType="0">
          <Node pos="l" depth="2" NCoef="0" IVar="-1" Cut="0.0000000000000000e+00" cType="1" res="-3.1756111979484558e-01" rms="3.2499864697456360e-01" purity="4.1025641560554504e-01" nType="-99"/>
          <Node pos="r" depth="2" NCoef="0" IVar="-1" Cut="0.0000000000000000e+00" cType="1" res="6.1369109898805618e-02" rms="1.8380101025104523e-01" purity="9.5927602052688599e-01" nType="-99"/>
        </Node>
      </Node>
    </BinaryTree>
    <BinaryTree type="DecisionTree" boostWeight="1.0000000000000000e+00" itree="54">
      <Node pos="s" depth="0" NCoef="0" IVar="2" Cut="5.0993382930755615e-01" cType="1" res="-8.4304045885801315e-03" rms="2.7082681655883789e-01" purity="4.9595141410827637e-01" nType="0">
        <Node pos="l" depth="1" NCoef="0" IVar="1" Cut="9.7397994995117188e-01" cType="1" res="6.7162523046135902e-03" rms="2.6921376585960388e-01" purity="4.2184874415397644e-01" nType="0">
          <Node pos="l" depth="2" NCoef="0" IVar="-1" Cut="0.0000000000000000e+00" cType="1" res="-2.0516948401927948e-01" rms="2.5030848383903503e-01" purity="1.1418685317039490e-01" nType="-99"/>
          <Node pos="r" depth="2" NCoef="0" IVar="-1" Cut="0.0000000000000000e+00" cType="1" res="2.4418170750141144e-01" rms="2.8384527564048767e-01" purity="7.1241831779479980e-01" nType="-99"/>
        </Node>
        <Node pos="r" depth="1" NCoef="0" IVar="2" Cut="8.0336588621139526e-01" cType="1" res="-3.1362365931272507e-02" rms="2.7164828777313232e-01" purity="6.0814249515533447e-01" nType="0">
          <Node pos="l" depth="2" NCoef="0" IVar="-1" Cut="0.0000000000000000e+00" cType="1" res="-5.2778446674346924e-01" rms="2.8325381875038147e-01" purity="5.7142859697341919e-01" nType="-99"/>
          <Node pos="r" depth="2" NCoef="0" IVar="-1" Cut="0.0000000000000000e+00" cType="1" res="7.7885940670967102e-02" rms="2.4903553724288940e-01" purity="6.6049385070800781e-01" nType="-99"/>
        </Node>
      </Node>
    </BinaryTree>
    <BinaryTree type="DecisionTree" boostWeight="1.0000000000000000e+00" itree="55">
      <Node pos="s" depth="0" NCoef="0" IVar="2" Cut="1.3828413188457489e-01" cType="1" res="1.4151945710182190e-02" rms="2.6889166235923767e-01" purity="5.2399998903274536e-01" nType="0">
        <Node pos="l" depth="1" NCoef="0" IVar="1" Cut="1.0167905092239380e+00" cType="1" res="-2.6709862053394318e-02" rms="2.5213819742202759e-01" purity="2.7733331918716431e-01" nType="0">
          <Node pos="l" depth="2" NCoef="0" IVar="-1" Cut="0.0000000000000000e+00" cType="1" res="-3.5730376839637756e-02" rms="2.3405826091766357e-01" purity="1.4396886527538300e-01" nType="-99"/>
          <Node pos="r" depth="2" NCoef="0" IVar="-1" Cut="0.0000000000000000e+00" cType="1" res="-6.1353892087936401e-01" rms="2.8059574961662292e-01" purity="5.6779658794403076e-01" nType="-99"/>
        </Node>
        <Node pos="r" depth="1" NCoef="0" IVar="0" Cut="1.9394538402557373e+00" cType="1" res="3.8669031113386154e-02" rms="2.7556717395782471e-01" purity="6.7199999094009399e-01" nType="0">
          <Node pos="l" depth="2" NCoef="0" IVar="-1" Cut="0.0000000000000000e+00" cType="1" res="2.4044673144817352e-01" rms="2.7175170183181763e-01" purity="7.3319756984710693e-01" nType="-99"/>
          <Node pos="r" depth="2" NCoef="0" IVar="-1" Cut="0.0000000000000000e+00" cType="1" res="7.1629863977432251e-01" rms="2.8601455688476562e-01" purity="4.4776120781898499e-01" nType="-99"/>
        </Node>
      </Node>
    </BinaryTree>
    <BinaryTree type="DecisionTree" boostWeight="1.0000000000000000e+00" itree="56">
      <Node pos="s" depth="0" NCoef="0" IVar="0" Cut="1.9394538402557373e+00" cType="1" res="-7.3680845089256763e-03" rms="2.4970261752605438e-01" purity="5.0417536497116089e-01" nType="0">
        <Node pos="l" depth="1" NCoef="0" IVar="0" Cut="1.1241922378540039e+00" cType="1" res="3.1556852627545595e-03" rms="2.3426648974418640e-01" purity="5.6216931343078613e-01" nType="0">
          <Node pos="l" depth="2" NCoef="0" IVar="-1" Cut="0.0000000000000000e+00" cType="1" res="-1.7041054368019104e-01" rms="2.0704825222492218e-01" purity="5.6143665313720703e-01" nType="-99"/>
          <Node pos="r" depth="2" NCoef="0" IVar="-1" Cut="0.0000000000000000e+00" cType="1" res="3.3601996302604675e-01" rms="2.8376713395118713e-01" purity="5.6387662887573242e-01" nType="-99"/>
        </Node>
        <Node pos="r" depth="1" NCoef="0" IVar="1" Cut="3.8482341766357422e+00" cType="1" res="-4.6754073351621628e-02" rms="2.9722878336906433e-01" purity="2.8712871670722961e-01" nType="0">
          <Node pos="l" depth="2" NCoef="0" IVar="-1" Cut="0.0000000000000000e+00" cType="1" res="-7.9350858926773071e-01" rms="2.6367610692977905e-01" purity="1.8300653994083405e-01" nType="-99"/>
          <Node pos="r" depth="2" NCoef="0" IVar="-1" Cut="0.0000000000000000e+00" cType="1" res="5.8575850725173950e-01" rms="3.5745283961296082e-01" purity="6.1224490404129028e-01" nType="-99"/>
        </Node>
      </Node>
    </BinaryTree>
    <BinaryTree type="DecisionTree" boostWeight="1.0000000000000000e+00" itree="57">
      <Node pos="s" depth="0" NCoef="0" IVar="1" Cut="6.6817860603332520e+00" cType="1" res="1.0590469464659691e-02" rms="2.7745449542999268e-01" purity="5.0275230407714844e-01" nType="0">
        <Node pos="l" depth="1" NCoef="0" IVar="2" Cut="8.0228322744369507e-01" cType="1" res="1.9515952095389366e-02" rms="2.7249327301979065e-01" purity="5.0488281250000000e-01" nType="0">
          <Node pos="l" depth="2" NCoef="0" IVar="-1" Cut="0.0000000000000000e+00" cType="1" res="2.6474133133888245e-01" rms="2.6488903164863586e-01" purity="4.8446491360664368e-01" nType="-99"/>
          <Node pos="r" depth="2" NCoef="0" IVar="-1" Cut="0.0000000000000000e+00" cType="1" res="-2.1511571109294891e-01" rms="3.0826163291931152e-01" purity="6.1935484409332275e-01" nType="-99"/>
        </Node>
        <Node pos="r" depth="1" NCoef="0" IVar="0" Cut="2.2308907508850098e+00" cType="1" res="-1.2788972258567810e-01" rms="3.1448373198509216e-01" purity="4.6969696879386902e-01" nType="0">
          <Node pos="l" depth="2" NCoef="0" IVar="-1" Cut="0.0000000000000000e+00" cType="1" res="-1.4840625226497650e-01" rms="5.0710566341876984e-02" purity="6.2500000000000000e-01" nType="-99"/>
          <Node pos="r" depth="2" NCoef="0" IVar="-1" Cut="0.0000000000000000e+00" cType="1" res="-9.9397104978561401e-01" rms="4.0362948179244995e-01" purity="3.2352942228317261e-01" nType="-99"/>
        </Node>
      </Node>
    </BinaryTree>
    <BinaryTree type="DecisionTree" boostWeight="1.0000000000000000e+00" itree="58">
      <Node pos="s" depth="0" NCoef="0" IVar="2" Cut="7.0742619037628174e-01" cType="1" res="-2.0763065665960312e-02" rms="2.5893026590347290e-01" purity="4.8500001430511475e-01" nType="0">
        <Node pos="l" depth="1" NCoef="0" IVar="3" Cut="3.2538902282714844e+01" cType="1" res="-3.4807220101356506e-02" rms="2.4603566527366638e-01" purity="4.3253967165946960e-01" nType="0">
          <Node pos="l" depth="2" NCoef="0" IVar="-1" Cut="0.0000000000000000e+00" cType="1" res="-3.9579364657402039e-01" rms="2.4557667970657349e-01" purity="2.4157303571701050e-01" nType="-99"/>
          <Node pos="r" depth="2" NCoef="0" IVar="-1" Cut="0.0000000000000000e+00" cType="1" res="-6.7363776266574860e-02" rms="2.4432052671909332e-01" purity="8.9189189672470093e-01" nType="-99"/>
        </Node>
        <Node pos="r" depth="1" NCoef="0" IVar="2" Cut="8.9729404449462891e-01" cType="1" res="2.2750793024897575e-02" rms="2.9105806350708008e-01" purity="6.4754098653793335e-01" nType="0">
          <Node pos="l" depth="2" NCoef="0" IVar="-1" Cut="0.0000000000000000e+00" cType="1" res="4.3897190690040588e-01" rms="2.8636923432350159e-01" purity="6.7058825492858887e-01" nType="-99"/>
          <Node pos="r" depth="2" NCoef="0" IVar="-1" Cut="0.0000000000000000e+00" cType="1" res="-3.8857504725456238e-01" rms="2.9052823781967163e-01" purity="5.9459459781646729e-01" nType="-99"/>
        </Node>
      </Node>
    </BinaryTree>
    <BinaryTree type="DecisionTree" boostWeight="1.0000000000000000e+00" itree="59">
      <Node pos="s" depth="0" NCoef="0" IVar="1" Cut="1.0490907669067383e+01" cType="1" res="7.3722414672374725e-03" rms="2.9592916369438171e-01" purity="5.0495940446853638e-01" nType="0">
        <Node pos="l" depth="1" NCoef="0" IVar="2" Cut="6.0047805309295654e-01" cType="1" res="1.5392681816592813e-03" rms="2.8420704603195190e-01" purity="4.9719625711441040e-01" nType="0">
          <Node pos="l" depth="2" NCoef="0" IVar="-1" Cut="0.0000000000000000e+00" cType="1" res="2.0200939476490021e-01" rms="2.7307361364364624e-01" purity="4.3036210536956787e-01" nType="-99"/>
          <Node pos="r" depth="2" NCoef="0" IVar="-1" Cut="0.0000000000000000e+00" cType="1" res="-3.3545586466789246e-01" rms="3.0232378840446472e-01" purity="6.3352274894714355e-01" nType="-99"/>
        </Node>
        <Node pos="r" depth="1" NCoef="0" IVar="-1" Cut="0.0000000000000000e+00" cType="1" res="1.1032110452651978e+00" rms="4.9759984016418457e-01" purity="7.1794873476028442e-01" nType="-99"/>
      </Node>
    </BinaryTree>
    <BinaryTree type="DecisionTree" boostWeight="1.0000000000000000e+00" itree="60">
      <Node pos="s" depth="0" NCoef="0" IVar="2" Cut="7.9941409826278687e-01" cType="1" res="-2.5519500486552715e-03" rms="2.7185934782028198e-01" purity="5.0000000000000000e-01" nType="0">
        <Node pos="l" depth="1" NCoef="0" IVar="2" Cut="2.8478658199310303e-01" cType="1" res="-1.4059252105653286e-02" rms="2.7572089433670044e-01" purity="4.5521470904350281e-01" nType="0">
          <Node pos="l" depth="2" NCoef="0" IVar="-1" Cut="0.0000000000000000e+00" cType="1" res="7.4667997658252716e-02" rms="2.5457713007926941e-01" purity="3.5805085301399231e-01" nType="-99"/>
          <Node pos="r" depth="2" NCoef="0" IVar="-1" Cut="0.0000000000000000e+00" cType="1" res="-3.4095767140388489e-01" rms="3.0002248287200928e-01" purity="5.8892130851745605e-01" nType="-99"/>
        </Node>
        <Node pos="r" depth="1" NCoef="0" IVar="0" Cut="1.8382779359817505e+00" cType="1" res="4.9841631203889847e-02" rms="2.4684417247772217e-01" purity="7.0391058921813965e-01" nType="0">
          <Node pos="l" depth="2" NCoef="0" IVar="-1" Cut="0.0000000000000000e+00" cType="1" res="3.3784073591232300e-01" rms="2.1576805412769318e-01" purity="7.1428573131561279e-01" nType="-99"/>
          <Node pos="r" depth="2" NCoef="0" IVar="-1" Cut="0.0000000000000000e+00" cType="1" res="1.0765289068222046e+00" rms="3.6874261498451233e-01" purity="6.3999998569488525e-01" nType="-99"/>
        </Node>
      </Node>
    </BinaryTree>
    <BinaryTree type="DecisionTree" boostWeight="1.0000000000000000e+00" itree="61">
      <Node pos="s" depth="0" NCoef="0" IVar="1" Cut="1.1438290596008301e+01" cType="1" res="-2.1586256101727486e-02" rms="2.9893344640731812e-01" purity="4.9799197912216187e-01" nType="0">
        <Node pos="l" depth="1" NCoef="0" IVar="2" Cut="5.0209391117095947e-01" cType="1" res="-1.4294655062258244e-02" rms="2.9221466183662415e-01" purity="4.9793389439582825e-01" nType="0">
          <Node pos="l" depth="2" NCoef="0" IVar="-1" Cut="0.0000000000000000e+00" cType="1" res="-3.5540458559989929e-01" rms="2.8988990187644958e-01" purity="4.0067338943481445e-01" nType="-99"/>
          <Node pos="r" depth="2" NCoef="0" IVar="-1" Cut="0.0000000000000000e+00" cType="1" res="2.3367828130722046e-01" rms="2.9164460301399231e-01" purity="6.5240639448165894e-01" nType="-99"/>
        </Node>
        <Node pos="r" depth="1" NCoef="0" IVar="-1" Cut="0.0000000000000000e+00" cType="1" res="-1.2062737941741943e+00" rms="4.0160796046257019e-01" purity="5.0000000000000000e-01" nType="-99"/>
      </Node>
    </BinaryTree>
    <BinaryTree type="DecisionTree" boostWeight="1.0000000000000000e+00" itree="62">
      <Node pos="s" depth="0" NCoef="0" IVar="3" Cut="3.3691028594970703e+01" cType="1" res="1.1347264051437378e-02" rms="2.8074038028717041e-01" purity="4.8502993583679199e-01" nType="0">
        <Node pos="l" depth="1" NCoef="0" IVar="2" Cut="3.2588407397270203e-01" cType="1" res="2.9566658660769463e-02" rms="2.9667288064956665e-01" purity="2.9941859841346741e-01" nType="0">
          <Node pos="l" depth="2" NCoef="0" IVar="-1" Cut="0.0000000000000000e+00" cType="1" res="2.7653502766042948e-03" rms="2.2238638997077942e-01" purity="1.6897507011890411e-01" nType="-99"/>
          <Node pos="r" depth="2" NCoef="0" IVar="-1" Cut="0.0000000000000000e+00" cType="1" res="3.7694257497787476e-01" rms="3.5859096050262451e-01" purity="4.4342508912086487e-01" nType="-99"/>
        </Node>
        <Node pos="r" depth="1" NCoef="0" IVar="0" Cut="1.2072787284851074e+00" cType="1" res="-2.8572937473654747e-02" rms="2.3735424876213074e-01" purity="8.9171975851058960e-01" nType="0">
          <Node pos="l" depth="2" NCoef="0" IVar="-1" Cut="0.0000000000000000e+00" cType="1" res="-3.9361685514450073e-01" rms="1.1675415933132172e-01" purity="9.7222220897674561e-01" nType="-99"/>
          <Node pos="r" depth="2" NCoef="0" IVar="-1" Cut="0.0000000000000000e+00" cType="1" res="-5.8845883607864380e-01" rms="3.3516025543212891e-01" purity="7.8358209133148193e-01" nType="-99"/>
        </Node>
      </Node>
    </BinaryTree>
    <BinaryTree type="DecisionTree" boostWeight="1.0000000000000000e+00" itree="63">
      <Node pos="s" depth="0" NCoef="0" IVar="0" Cut="7.6193070411682129e+00" cType="1" res="1.1916839517652988e-02" rms="2.4217364192008972e-01" purity="4.9745157361030579e-01" nType="0">
        <Node pos="l" depth="1" NCoef="0" IVar="2" Cut="4.2059007287025452e-01" cType="1" res="5.6584919802844524e-03" rms="2.2866714000701904e-01" purity="4.9737671017646790e-01" nType="0">
          <Node pos="l" depth="2" NCoef="0" IVar="-1" Cut="0.0000000000000000e+00" cType="1" res="3.1036928296089172e-01" rms="2.3835910856723785e-01" purity="3.8636362552642822e-01" nType="-99"/>
          <Node pos="r" depth="2" NCoef="0" IVar="-1" Cut="0.0000000000000000e+00" cType="1" res="-1.7716136574745178e-01" rms="2.1285498142242432e-01" purity="6.3529413938522339e-01" nType="-99"/>
        </Node>
        <Node pos="r" depth="1" NCoef="0" IVar="-1" Cut="0.0000000000000000e+00" cType="1" res="1.0822265148162842e+00" rms="4.7790157794952393e-01" purity="5.0000000000000000e-01" nType="-99"/>
      </Node>
    </BinaryTree>
    <BinaryTree type="DecisionTree" boostWeight="1.0000000000000000e+00" itree="64">
      <Node pos="s" depth="0" NCoef="0" IVar="2" Cut="7.9941409826278687e-01" cType="1" res="-8.6423214524984360e-03" rms="2.7033552527427673e-01" purity="4.8472505807876587e-01" nType="0">
        <Node pos="l" depth="1" NCoef="0" IVar="0" Cut="1.9051408767700195e+00" cType="1" res="1.1610561050474644e-03" rms="2.6068916916847229e-01" purity="4.5568040013313293e-01" nType="0">
          <Node pos="l" depth="2" NCoef="0" IVar="-1" Cut="0.0000000000000000e+00" cType="1" res="-9.2393487691879272e-02" rms="2.4555288255214691e-01" purity="5.0724637508392334e-01" nType="-99"/>
          <Node pos="r" depth="2" NCoef="0" IVar="-1" Cut="0.0000000000000000e+00" cType="1" res="4.3386408686637878e-01" rms="3.0414161086082458e-01" purity="2.7777779102325439e-01" nType="-99"/>
        </Node>
        <Node pos="r" depth="1" NCoef="0" IVar="2" Cut="8.4472656250000000e-01" cType="1" res="-5.2026331424713135e-02" rms="3.0568405985832214e-01" purity="6.1325967311859131e-01" nType="0">
          <Node pos="l" depth="2" NCoef="0" IVar="-1" Cut="0.0000000000000000e+00" cType="1" res="-1.0757687091827393e+00" rms="2.6799023151397705e-01" purity="5.8823531866073608e-01" nType="-99"/>
          <Node pos="r" depth="2" NCoef="0" IVar="-1" Cut="0.0000000000000000e+00" cType="1" res="-1.8856136500835419e-01" rms="3.1474506855010986e-01" purity="6.2307691574096680e-01" nType="-99"/>
        </Node>
      </Node>
    </BinaryTree>
    <BinaryTree type="DecisionTree" boostWeight="1.0000000000000000e+00" itree="65">
      <Node pos="s" depth="0" NCoef="0" IVar="2" Cut="4.2285516858100891e-01" cType="1" res="1.2544861994683743e-02" rms="2.7575194835662842e-01" purity="4.9851924180984497e-01" nType="0">
        <Node pos="l" depth="1" NCoef="0" IVar="0" Cut="2.9525675773620605e+00" cType="1" res="-1.0184987448155880e-02" rms="2.8049051761627197e-01" purity="3.6759582161903381e-01" nType="0">
          <Node pos="l" depth="2" NCoef="0" IVar="-1" Cut="0.0000000000000000e+00" cType="1" res="-1.9807351753115654e-02" rms="2.6440599560737610e-01" purity="3.7972167134284973e-01" nType="-99"/>
          <Node pos="r" depth="2" NCoef="0" IVar="-1" Cut="0.0000000000000000e+00" cType="1" res="-4.0275734663009644e-01" rms="3.6995512247085571e-01" purity="2.8169015049934387e-01" nType="-99"/>
        </Node>
        <Node pos="r" depth="1" NCoef="0" IVar="1" Cut="1.0348254442214966e+00" cType="1" res="4.2264528572559357e-02" rms="2.6652204990386963e-01" purity="6.6970390081405640e-01" nType="0">
          <Node pos="l" depth="2" NCoef="0" IVar="-1" Cut="0.0000000000000000e+00" cType="1" res="5.6799387931823730e-01" rms="3.3025091886520386e-01" purity="5.7352942228317261e-01" nType="-99"/>
          <Node pos="r" depth="2" NCoef="0" IVar="-1" Cut="0.0000000000000000e+00" cType="1" res="2.2699423134326935e-01" rms="2.2942531108856201e-01" purity="7.1287131309509277e-01" nType="-99"/>
        </Node>
      </Node>
    </BinaryTree>
    <BinaryTree type="DecisionTree" boostWeight="1.0000000000000000e+00" itree="66">
      <Node pos="s" depth="0" NCoef="0" IVar="1" Cut="4.7791838645935059e+00" cType="1" res="-1.1828428134322166e-02" rms="2.5464463233947754e-01" purity="4.9099999666213989e-01" nType="0">
        <Node pos="l" depth="1" NCoef="0" IVar="0" Cut="3.1352870464324951e+00" cType="1" res="-4.7980542294681072e-03" rms="2.4583509564399719e-01" purity="4.8026314377784729e-01" nType="0">
          <Node pos="l" depth="2" NCoef="0" IVar="-1" Cut="0.0000000000000000e+00" cType="1" res="-9.8209582269191742e-02" rms="2.4343977868556976e-01" purity="4.9406176805496216e-01" nType="-99"/>
          <Node pos="r" depth="2" NCoef="0" IVar="-1" Cut="0.0000000000000000e+00" cType="1" res="4.3767461180686951e-01" rms="2.6596271991729736e-01" purity="3.1428572535514832e-01" nType="-99"/>
        </Node>
        <Node pos="r" depth="1" NCoef="0" IVar="2" Cut="8.9681994915008545e-01" cType="1" res="-8.4688670933246613e-02" rms="3.2359883189201355e-01" purity="6.0227274894714355e-01" nType="0">
          <Node pos="l" depth="2" NCoef="0" IVar="-1" Cut="0.0000000000000000e+00" cType="1" res="-1.1777771711349487e+00" rms="3.1621965765953064e-01" purity="5.2727270126342773e-01" nType="-99"/>
          <Node pos="r" depth="2" NCoef="0" IVar="-1" Cut="0.0000000000000000e+00" cType="1" res="3.5077917575836182e-01" rms="2.9230079054832458e-01" purity="7.2727274894714355e-01" nType="-99"/>
        </Node>
      </Node>
    </BinaryTree>
    <BinaryTree type="DecisionTree" boostWeight="1.0000000000000000e+00" itree="67">
      <Node pos="s" depth="0" NCoef="0" IVar="2" Cut="3.2799816131591797e-01" cType="1" res="1.1102654971182346e-02" rms="2.8252387046813965e-01" purity="5.3585654497146606e-01" nType="0">
        <Node pos="l" depth="1" NCoef="0" IVar="0" Cut="1.0584084987640381e+00" cType="1" res="3.6746259778738022e-02" rms="2.6449111104011536e-01" purity="3.9075630903244019e-01" nType="0">
          <Node pos="l" depth="2" NCoef="0" IVar="-1" Cut="0.0000000000000000e+00" cType="1" res="5.7215046882629395e-01" rms="2.4851225316524506e-01" purity="4.3534481525421143e-01" nType="-99"/>
          <Node pos="r" depth="2" NCoef="0" IVar="-1" Cut="0.0000000000000000e+00" cType="1" res="1.3275232911109924e-01" rms="2.7729344367980957e-01" purity="3.4836065769195557e-01" nType="-99"/>
        </Node>
        <Node pos="r" depth="1" NCoef="0" IVar="1" Cut="2.9096634387969971e+00" cType="1" res="-1.2015445157885551e-02" rms="2.9594793915748596e-01" purity="6.6666668653488159e-01" nType="0">
          <Node pos="l" depth="2" NCoef="0" IVar="-1" Cut="0.0000000000000000e+00" cType="1" res="-2.2459493577480316e-01" rms="3.1837341189384460e-01" purity="6.2659847736358643e-01" nType="-99"/>
          <Node pos="r" depth="2" NCoef="0" IVar="-1" Cut="0.0000000000000000e+00" cType="1" res="3.8266861438751221e-01" rms="2.1102984249591827e-01" purity="7.8102189302444458e-01" nType="-99"/>
        </Node>
      </Node>
    </BinaryTree>
    <BinaryTree type="DecisionTree" boostWeight="1.0000000000000000e+00" itree="68">
      <Node pos="s" depth="0" NCoef="0" IVar="0" Cut="5.7416739463806152e+00" cType="1" res="-8.3546405658125877e-03" rms="2.6251035928726196e-01" purity="5.1022493839263916e-01" nType="0">
        <Node pos="l" depth="1" NCoef="0" IVar="0" Cut="1.1020536422729492e+00" cType="1" res="-1.1938342358916998e-03" rms="2.5751620531082153e-01" purity="5.2396166324615479e-01" nType="0">
          <Node pos="l" depth="2" NCoef="0" IVar="-1" Cut="0.0000000000000000e+00" cType="1" res="1.7063143849372864e-01" rms="2.4913737177848816e-01" purity="5.9600001573562622e-01" nType="-99"/>
          <Node pos="r" depth="2" NCoef="0" IVar="-1" Cut="0.0000000000000000e+00" cType="1" res="-1.8527513742446899e-01" rms="2.6534116268157959e-01" purity="4.4191342592239380e-01" nType="-99"/>
        </Node>
        <Node pos="r" depth="1" NCoef="0" IVar="-1" Cut="0.0000000000000000e+00" cType="1" res="-1.1336699724197388e+00" rms="3.1698876619338989e-01" purity="1.7948718369007111e-01" nType="-99"/>
      </Node>
    </BinaryTree>
    <BinaryTree type="DecisionTree" boostWeight="1.0000000000000000e+00" itree="69">
      <Node pos="s" depth="0" NCoef="0" IVar="0" Cut="5.7145848274230957e+00" cType="1" res="2.7437759563326836e-03" rms="2.9238215088844299e-01" purity="5.0824743509292603e-01" nType="0">
        <Node pos="l" depth="1" NCoef="0" IVar="1" Cut="1.0486989974975586e+01" cType="1" res="-4.4813542626798153e-03" rms="2.7889904379844666e-01" purity="5.2131146192550659e-01" nType="0">
