<?xml version="1.0"?>
<MethodSetup Method="MLP::MLPBNN">
  <GeneralInfo>
    <Info name="TMVA Release" value="4.2.1 [262657]"/>
    <Info name="ROOT Release" value="6.22/06 [398854]"/>
    <Info name="Creator" value="ikoljanin"/>
    <Info name="Date" value="Sun Jan 10 13:42:14 2021"/>
    <Info name="Host" value="Linux buildvm-x86-05.iad2.fedoraproject.org 5.7.11-200.fc32.x86_64 #1 SMP Wed Jul 29 17:15:52 UTC 2020 x86_64 x86_64 x86_64 GNU/Linux"/>
    <Info name="Dir" value="/home/ikoljanin/v12"/>
    <Info name="Training events" value="2000"/>
    <Info name="TrainingTime" value="5.37729881e+01"/>
    <Info name="AnalysisType" value="Classification"/>
  </GeneralInfo>
  <Options>
    <Option name="NCycles" modified="Yes">60</Option>
    <Option name="HiddenLayers" modified="Yes">N+5</Option>
    <Option name="NeuronType" modified="Yes">tanh</Option>
    <Option name="RandomSeed" modified="No">1</Option>
    <Option name="EstimatorType" modified="No">CE</Option>
    <Option name="NeuronInputType" modified="No">sum</Option>
    <Option name="V" modified="Yes">False</Option>
    <Option name="VerbosityLevel" modified="No">Default</Option>
    <Option name="VarTransform" modified="Yes">N</Option>
    <Option name="H" modified="Yes">True</Option>
    <Option name="CreateMVAPdfs" modified="No">False</Option>
    <Option name="IgnoreNegWeightsInTraining" modified="No">False</Option>
    <Option name="TrainingMethod" modified="Yes">BFGS</Option>
    <Option name="LearningRate" modified="No">2.000000e-02</Option>
    <Option name="DecayRate" modified="No">1.000000e-02</Option>
    <Option name="TestRate" modified="Yes">5</Option>
    <Option name="EpochMonitoring" modified="No">False</Option>
    <Option name="Sampling" modified="No">1.000000e+00</Option>
    <Option name="SamplingEpoch" modified="No">1.000000e+00</Option>
    <Option name="SamplingImportance" modified="No">1.000000e+00</Option>
    <Option name="SamplingTraining" modified="No">True</Option>
    <Option name="SamplingTesting" modified="No">False</Option>
    <Option name="ResetStep" modified="No">50</Option>
    <Option name="Tau" modified="No">3.000000e+00</Option>
    <Option name="BPMode" modified="No">sequential</Option>
    <Option name="BatchSize" modified="No">-1</Option>
    <Option name="ConvergenceImprove" modified="No">1.000000e-30</Option>
    <Option name="ConvergenceTests" modified="No">-1</Option>
    <Option name="UseRegulator" modified="Yes">True</Option>
    <Option name="UpdateLimit" modified="No">10000</Option>
    <Option name="CalculateErrors" modified="No">False</Option>
    <Option name="WeightRange" modified="No">1.000000e+00</Option>
  </Options>
  <Variables NVar="4">
    <Variable VarIndex="0" Expression="ele_pt" Label="ele_pt" Title="ele_pt" Unit="" Internal="ele_pt" Type="F" Min="5.00599241e+00" Max="3.06198883e+02"/>
    <Variable VarIndex="1" Expression="ele_ep" Label="ele_ep" Title="ele_ep" Unit="" Internal="ele_ep" Type="F" Min="4.18868935e-04" Max="2.00000000e+01"/>
    <Variable VarIndex="2" Expression="ele_fbrem" Label="ele_fbrem" Title="ele_fbrem" Unit="" Internal="ele_fbrem" Type="F" Min="-1.00000000e+00" Max="9.91997242e-01"/>
    <Variable VarIndex="3" Expression="ele_eelepout" Label="ele_eelepout" Title="ele_eelepout" Unit="" Internal="ele_eelepout" Type="F" Min="2.26789676e-02" Max="2.00000000e+01"/>
  </Variables>
  <Spectators NSpec="0"/>
  <Classes NClass="2">
    <Class Name="Signal" Index="0"/>
    <Class Name="Background" Index="1"/>
  </Classes>
  <Transformations NTransformations="1">
    <Transform Name="Normalize">
      <Selection>
        <Input NInputs="4">
          <Input Type="Variable" Label="ele_pt" Expression="ele_pt"/>
          <Input Type="Variable" Label="ele_ep" Expression="ele_ep"/>
          <Input Type="Variable" Label="ele_fbrem" Expression="ele_fbrem"/>
          <Input Type="Variable" Label="ele_eelepout" Expression="ele_eelepout"/>
        </Input>
        <Output NOutputs="4">
          <Output Type="Variable" Label="ele_pt" Expression="ele_pt"/>
          <Output Type="Variable" Label="ele_ep" Expression="ele_ep"/>
          <Output Type="Variable" Label="ele_fbrem" Expression="ele_fbrem"/>
          <Output Type="Variable" Label="ele_eelepout" Expression="ele_eelepout"/>
        </Output>
      </Selection>
      <Class ClassIndex="0">
        <Ranges>
          <Range Index="0" Min="5.9320044517517090e+00" Max="2.9407147216796875e+02"/>
          <Range Index="1" Min="4.1886893450282514e-04" Max="2.0000000000000000e+01"/>
          <Range Index="2" Min="-1.0000000000000000e+00" Max="9.8882609605789185e-01"/>
          <Range Index="3" Min="6.1274066567420959e-02" Max="2.0000000000000000e+01"/>
        </Ranges>
      </Class>
      <Class ClassIndex="1">
        <Ranges>
          <Range Index="0" Min="5.0059924125671387e+00" Max="3.0619888305664062e+02"/>
          <Range Index="1" Min="3.8343772292137146e-02" Max="2.0000000000000000e+01"/>
          <Range Index="2" Min="-1.0000000000000000e+00" Max="9.9199724197387695e-01"/>
          <Range Index="3" Min="2.2678967565298080e-02" Max="2.0000000000000000e+01"/>
        </Ranges>
      </Class>
      <Class ClassIndex="2">
        <Ranges>
          <Range Index="0" Min="5.0059924125671387e+00" Max="3.0619888305664062e+02"/>
          <Range Index="1" Min="4.1886893450282514e-04" Max="2.0000000000000000e+01"/>
          <Range Index="2" Min="-1.0000000000000000e+00" Max="9.9199724197387695e-01"/>
          <Range Index="3" Min="2.2678967565298080e-02" Max="2.0000000000000000e+01"/>
        </Ranges>
      </Class>
    </Transform>
  </Transformations>
  <MVAPdfs/>
  <Weights>
    <Layout NLayers="3">
      <Layer Index="0" NNeurons="5">
        <Neuron NSynapses="9">
          -1.1848595825798276e+00 2.3109597136448130e+00 6.7270848432756947e-01 6.0534640671446525e+00 -2.2874760118537822e+00 -1.8512483759907274e+00 -1.1604716744566805e+00 2.8064227612457993e-01 2.8942846539926231e-01 
        </Neuron>
        <Neuron NSynapses="9">
          -9.2459355260548393e-01 -1.3784624057481165e+00 -1.5073374808260243e-01 -2.3878190380427933e+00 6.7588973067131508e-01 -3.7255096173497604e-01 1.4646876721519841e-01 2.9890479395332575e-01 1.3906053536043914e+00 
        </Neuron>
        <Neuron NSynapses="9">
          -1.1675894564142673e+00 1.0971288504699879e+00 -2.5898373857747209e-01 -4.3615788393254779e-02 1.7379969352470184e+00 1.4897102659764733e-01 -9.0474649804452911e-01 -3.0980657854929987e+00 1.7921902271057240e+00 
        </Neuron>
        <Neuron NSynapses="9">
          -6.9897188540558719e-01 -1.9981255184456905e+00 1.7481662533273540e-01 -5.2791514217127411e-02 2.4191252447175402e+00 -4.2962384266644116e-01 -9.7028315777103669e-01 -3.0409668738890470e-02 -7.8813297185064823e-01 
        </Neuron>
        <Neuron NSynapses="9">
          -2.7877666972402730e+00 1.3808356084509377e+00 -1.5549257741723399e+00 3.4924295898645306e+00 7.6798418327288787e-01 8.0010255481259518e-01 2.3992234525459071e+00 2.6916133495599048e+00 -1.4602706221815829e+00 
        </Neuron>
      </Layer>
      <Layer Index="1" NNeurons="10">
        <Neuron NSynapses="1">
          -2.7297312127431042e+00 
        </Neuron>
        <Neuron NSynapses="1">
          -1.0858372621717269e+00 
        </Neuron>
        <Neuron NSynapses="1">
          9.1017039337687711e-01 
        </Neuron>
        <Neuron NSynapses="1">
          4.7031475501813711e+00 
        </Neuron>
        <Neuron NSynapses="1">
          2.4331260189111288e+00 
        </Neuron>
        <Neuron NSynapses="1">
          9.7442953096774609e-01 
        </Neuron>
        <Neuron NSynapses="1">
          3.0065119343479640e-01 
        </Neuron>
        <Neuron NSynapses="1">
          1.9219689148751249e+00 
        </Neuron>
        <Neuron NSynapses="1">
          1.0783231398634363e+00 
        </Neuron>
        <Neuron NSynapses="1">
          -2.9808650970527046e+00 
        </Neuron>
      </Layer>
      <Layer Index="2" NNeurons="1">
        <Neuron NSynapses="0"/>
      </Layer>
    </Layout>
    <InverseHessian NElements="3025" NRows="55" NCols="55">
      <Row Index="0">
        4.0237157479532058e+01 -1.2946001319130328e+01 -1.0821065105547557e+03 1.2079297189631282e+00 1.2793330305616815e+00 -2.0173018104717681e+02 -3.2410832204518675e+02 4.8296327489125357e-01 -1.3571524585426980e+01 7.0134620919976092e+00 -1.2962915314348078e+00 -4.6691334829201031e+02 4.0029566935016214e-01 -4.4803903392226241e-01 -1.0185291261175695e+02 1.7826975260868389e+02 3.9615971425758895e-01 -2.1650490892644099e+00 1.1379096125224784e+01 -2.7392425173269177e+00 -2.5160154454664661e+02 8.1385882077810695e-02 6.2625884764100204e-01 -1.9927771192054426e+01 -4.6653205970374523e+02 1.3111865167215848e+00 -5.4484739555676507e+00 1.0880463913976577e+01 4.4791750298386646e-01 -2.5571712121756795e+02 -4.4531745311850257e-01 2.8142286580823273e+00 -5.4535741265680500e+01 -1.6628414596798183e+02 -1.2357012096007949e+00 3.4591492219489783e-01 4.4659274610376755e+01 -1.0106088686361790e+01 -7.3519682678971435e+02 9.8656078102555023e-01 2.4040139362622539e+00 -8.8425811493379371e+01 2.0935215224282075e+02 -1.0718435770121841e+00 -7.2431367106633164e+00 -7.1350801830790616e+01 -1.4183309545575100e+00 -3.5621900716639345e+02 1.4427366558755284e+00 -7.1108318114777713e+00 -5.4877165028401294e+02 -2.3188976653611672e+02 2.0119119379039709e+00 3.5254921401210879e+00 3.5712032154262386e+02 
      </Row>
      <Row Index="1">
        -1.2946001326519363e+01 1.2051260718021209e+02 1.3729633079342866e+03 -2.7907621078976943e+00 7.0246403916326905e-01 4.2446014500666081e+02 6.0047024923076367e+02 -2.9408918288927515e+00 -2.3710285868166622e+01 -2.0097274105704524e-01 -1.3175635692924425e+01 7.0492042398206195e+02 1.1055680089207494e+00 6.9171286578522673e-02 2.6833302694654077e+02 -6.4243114705903082e+01 -1.8307639694192297e+00 1.7431225971388944e+00 -2.6847182939590382e+00 8.8298102206322877e+00 1.1599442239316252e+02 -4.1002003797085645e-01 1.2243187087299434e+00 1.1174440451229877e+02 -1.6398734383674920e+02 -1.8663478796437136e+00 4.0292410514220469e+00 -6.5019617337330313e+00 -1.4947744918972326e+01 4.3039640944142644e+02 3.6367237273957276e-01 -2.2480516080283137e+00 6.8136404567884021e+00 2.0849460189864260e+02 7.4560582708600198e-01 2.6527212882510098e-01 -1.8394057733454261e+01 9.6755816547544853e+01 1.1576153479494114e+03 -1.0831336436172665e+00 -1.4382992721286678e+00 1.0242611998159087e+02 8.4283478505837422e+02 -2.0812680830898200e+00 -2.2616557612778124e+01 3.5740137674554518e+01 1.0049915601066273e+01 8.1992445857291398e+02 5.0829850270617722e+00 5.0659205409828605e+00 8.6812027851642347e+02 2.6535789967438131e+02 -1.6290728443339617e+00 -5.0325196675180450e-01 -2.8056387131550065e+02 
      </Row>
      <Row Index="2">
        -1.0821065104823306e+03 1.3729633069864467e+03 1.4782260342684880e+05 -1.3732451540455489e+02 -7.7005373151132545e+01 2.7643339331015435e+04 4.4480523091479779e+04 2.3198379595253641e+01 5.3174898697406957e+02 1.6445169382549696e+02 1.5082996319248934e+02 2.5361299690973148e+04 4.7113518420193422e+01 6.1465048917332865e+01 1.8755677527656655e+04 -7.9345281558218894e+03 -5.4826699458525361e+01 3.3933825862863063e+02 -7.6300090861547446e+01 2.4777789920264331e+02 -9.0315557147378095e+03 -2.5760921456284283e+01 8.6531615550344199e+01 7.6546960357083926e+03 4.5488578386231886e+04 7.3007189428025271e+01 6.7389944032148583e+02 -4.1202142258044745e+02 7.2086782655863033e+01 4.3547744476708307e+04 4.3661233233241809e+01 2.3821680379494327e+02 5.7063255718676728e+03 1.7073791353112032e+04 6.6628241727483669e+01 -4.7510420505114115e+02 -1.1317948004498489e+03 1.2666311751011997e+03 6.1433486093696942e+04 -3.8576597619865858e+01 1.9031783160937232e+02 9.5982118194637678e+03 4.0738855191873035e+03 -1.6332644180339400e+01 -4.7134955403382816e+02 1.9624838625424270e+03 1.8927653232821417e+01 3.5494962425890793e+04 2.4777717181171479e+02 -1.8516476634271200e+02 6.6403091885461647e+04 2.6198780048368211e+04 9.1811796850830433e+01 -6.4424040823189989e+02 -5.1552864071060743e+04 
      </Row>
      <Row Index="3">
        1.2079297173701364e+00 -2.7907621056887830e+00 -1.3732451522520412e+02 3.7008099206387794e+00 -2.6399206811703935e-01 3.9286497157258395e+01 -1.9712450869463957e+01 7.6945150122365968e-01 1.8446593545944734e+00 -4.1297320542022053e-01 -1.4034178307989800e+00 5.3121186077300608e-01 -1.0639011669187965e+00 -1.2953826677948255e-01 1.6893651208773349e+01 -4.0155844431182324e+00 -1.3798108634750544e-01 -4.3581613909452277e-01 -1.8284246624689875e+00 -1.5030146589306099e+00 1.8325337694657954e+01 6.8954052451909817e-02 2.4084070172380262e-02 -2.5258456150812050e+00 -1.8643295125352958e+02 -1.2991075598578277e+00 -8.6836551767118686e-02 -2.1723337765526771e-01 -3.2024735599896692e-01 -4.0478629732174277e+01 -3.2861660454108758e-02 -1.8249822856802694e-01 7.8765056034258574e-01 1.5541980960141922e+01 -4.0616286558201614e-01 2.0152715683220275e+00 1.1280916223606070e+00 -1.9828643971603563e+00 7.8542686639328565e+01 2.2721270794305748e+00 -3.4310539656043387e-01 -1.1426643491103960e+01 1.0566745172008555e+02 1.1316602510075846e+00 3.4457954986162243e+00 1.6339421330581707e+00 7.2191876292810464e-01 3.5694252923121745e+01 -3.3001558158151156e+00 -2.8075073234653131e-01 3.4641319658055716e+00 -3.2882526620121588e+01 -1.7372865404997384e+00 4.4859303270122464e-01 5.7939366889530866e+01 
      </Row>
      <Row Index="4">
        1.2793330306017769e+00 7.0246403953273595e-01 -7.7005373164994481e+01 -2.6399206802048125e-01 7.0464832489451803e+00 -2.3230082360812389e+01 -5.9116669183198894e+01 -2.0002029895094533e+00 -3.1768846534356054e+00 3.8475558638220983e-02 -2.5869318897578153e-02 1.0048006580700832e+01 -3.3044971016885305e-01 1.3874714298027502e-01 -1.4376346563909799e+01 -6.4298073300206955e+00 8.7295398967718996e-01 2.7021680882617855e-01 2.2126460379421196e+00 -2.2609243520762199e+00 1.0835666499483223e+01 -2.7271101942217355e-02 -1.1366688891050993e+00 -9.4867047659752917e+00 -1.9828819956383117e+02 8.0282152287808439e-01 4.7663868582053404e-01 2.6102536969099228e+00 7.4567971904278219e-01 -1.2348087341443494e+02 4.5359374988772155e-02 -5.7860766653163971e+00 1.1879086919160144e+01 -4.5307583926284224e+01 -2.0829279840409876e-01 -1.0719777752912174e-01 1.9974174813067780e+00 1.4077374640977109e+00 6.3901532572969799e+01 -3.6948602153633181e-01 9.7202984651856594e-01 -1.4759786458892066e+01 1.7183069287610886e+02 -1.9036349235938439e+00 -2.7017318358470495e+00 -5.2383907489891657e-01 -5.2684589078945843e-01 -5.9258632430523946e+01 4.1368535274816215e-01 8.2833921095388039e+00 -2.8475056289512512e+01 -4.8536744275871065e+01 4.4474294243336132e-01 -4.6655707027197657e-01 3.7022755001720227e+00 
      </Row>
      <Row Index="5">
        -2.0173018117391260e+02 4.2446014493912372e+02 2.7643339347852874e+04 3.9286497105502555e+01 -2.3230082366006858e+01 1.2750213005774931e+04 1.3669623681541409e+04 -3.5301037191761218e+00 3.1415822425018693e+01 -4.5286064239336035e+01 -3.4565147416403150e+01 1.0326012141177536e+04 -1.7430290972376604e+01 -9.4284084457815709e+00 7.2555076234602120e+03 5.6666448799725958e+02 -3.4371726112235361e+00 -3.6886070010364676e+01 -1.2234749398400675e+02 -7.6224872757880803e+01 2.5608096509868305e+03 -2.0387895898077972e+00 1.1346858625761245e+00 1.3304907447638029e+03 -3.4793504444810601e+03 -9.9388500470325951e+01 -8.7037967343905621e+01 -2.0554371332368689e+02 1.2509635495213217e+01 8.4065712235214578e+03 6.2016944336687683e+00 -8.9116049513814005e+01 1.3922583289211184e+03 6.0665786420455979e+03 -2.2023866546244193e+01 5.8157746636867273e+01 -3.8574801382255339e+02 4.2363123027789436e+02 2.7578321366587792e+04 2.7263368637695631e+01 -9.0497322033438394e+01 2.0113939024493025e+03 1.4517703118514753e+04 4.0418038782474710e+01 1.2762370224832458e+02 6.7684763023669677e+02 1.9187452189108640e+01 1.4924109578017633e+04 -2.8436808775409190e+01 2.4437068818624478e+01 2.0287852528825722e+04 4.5302830453389579e+03 -1.0469259592302478e+02 8.3802912952128281e+00 -9.1799178875124780e+03 
      </Row>
      <Row Index="6">
        -3.2410832214043086e+02 6.0047024898626023e+02 4.4480523107263951e+04 -1.9712450948113148e+01 -5.9116669177436762e+01 1.3669623678878212e+04 6.1196748881338957e+04 -1.0347731914913436e+02 5.2030755292965080e+02 -2.3971889487817177e+02 1.2850404005698840e+02 2.3442627726032106e+03 2.7213536191436635e+01 -6.5331451553125930e+01 1.1490084904867450e+04 9.5533810163030721e+03 5.8013954818128106e+01 -2.3349574181121721e+01 -8.8271421087672152e+01 4.3639959557007387e+01 5.2081569626882574e+03 -1.1370031343776153e+01 9.3747938578833860e+00 -1.4201014743532353e+03 1.5667816410297974e+04 -1.6057025513178471e+02 -4.8624715063467011e+02 5.6413276967495252e+00 1.1119080898879172e+02 2.2490323822634826e+04 1.9791607414702526e+01 2.1709966520354033e+02 -2.3595140313571901e+03 3.1591394014270274e+04 -5.0163062157693609e+01 1.2419466866647918e+01 -4.7366605377565782e+02 5.8593954252827848e+02 1.7308592133621598e+04 3.0597615526575410e+01 8.8072715301704704e+01 4.2602600567973168e+03 3.2901105835602088e+04 -1.6139892967584984e+01 7.2551556135456190e+02 8.7328177222918475e+02 -1.0546046411963933e+02 3.2042173139722396e+04 6.4527405041450947e+01 -1.4833769628875319e+02 2.6930888805139191e+04 2.1663282635012078e+04 -2.0674243518212461e+02 3.0634557370762309e+01 -1.4534039552181650e+04 
      </Row>
      <Row Index="7">
        4.8296327542854778e-01 -2.9408918291686099e+00 2.3198379524924249e+01 7.6945150130884010e-01 -2.0002029895163584e+00 -3.5301037317465500e+00 -1.0347731916757770e+02 8.0401581316733068e+00 -4.5368633017130779e+00 2.0076732450682853e+00 -4.1763171143100952e-01 -4.6439127777984027e+01 2.1609966614791659e-01 1.1749354419985869e-02 6.6179487577738110e+00 -5.8418508597481207e+01 -6.2993330482919063e-01 1.7263817143289393e+00 -2.1207680551895107e+00 -1.6716729156882693e+00 -1.1828924676613667e+02 -1.5342949580640927e-01 -2.1999758887112369e-01 2.6334315564656237e+01 -9.3052821400923435e+01 -4.9789533527486363e-01 2.2607311903847247e+00 -1.5784273692704800e+00 9.4847571789991925e-01 2.2912510526827639e+01 -1.6953243934617578e-02 1.4007898054499555e+00 -7.5024086846146645e+00 -6.0872180203161463e+01 1.3842625356834881e-01 -1.0312162786962731e+00 1.3323109462974494e+00 -1.7566556059307512e+00 -8.5233238213916962e+01 8.6490899361578077e-01 -5.6961604480783412e-01 7.2838358668417458e-01 9.7571355596845706e+00 7.0876152825859329e+00 -5.4084534040649386e+00 -4.2446109436017263e+00 -9.4521348107565961e-02 -7.3469358447670317e+01 -1.1225918362615257e+00 -4.1451284823351342e+00 -2.1467542574042827e+01 -3.0091488167297523e+01 -7.1901539801028846e-01 -2.4285476474408991e+00 -1.7111844691041966e+01 
      </Row>
      <Row Index="8">
        -1.3571524578904587e+01 -2.3710285880605326e+01 5.3174898627315895e+02 1.8446593539816138e+00 -3.1768846528623476e+00 3.1415822163165103e+01 5.2030755253380437e+02 -4.5368633010112021e+00 8.3711773311160627e+01 -7.4054386546844126e+00 3.4758208863061388e+00 -4.0474749196777475e+02 -1.4595749726234335e+00 -2.8209036282646327e+00 5.4868834793678182e+01 -5.7539108420488361e+01 1.4268670028685244e+00 -7.4637642226370762e+00 -6.7415222914551647e+00 4.6675071331297886e+00 -2.8618291458995515e+02 3.8020855566814915e-01 -2.8139675992844291e+00 -2.4900077477389459e+01 1.8292438748306782e+02 3.6781553911811113e+00 -1.0320729719911014e+01 1.0795204589124431e+01 3.5609208652882760e+00 4.6891784673902043e+02 -1.6971601807073805e-01 1.4834052930468250e+01 -3.6469907430983767e+01 3.6759992221771876e+02 3.3087771559560775e-02 6.2493701109344295e+00 -2.2364094673851600e+00 -2.0671632493940926e+01 -2.7709837844351148e+02 2.4103955824584600e-01 8.7414948594238027e+00 5.6608650164684597e+01 5.0815839297576986e+01 -6.2690821935981447e+00 7.7892360566081067e+01 1.3231796986874430e+01 -3.7368480265506454e-01 -3.9953106225298058e+01 -3.5476890530430865e+00 -6.6978567212371543e+00 1.4943630375486455e+02 2.3414987332461868e+02 2.2921965335252708e+00 6.3954916317697652e-01 -3.6642926651666659e+02 
      </Row>
      <Row Index="9">
        7.0134620908613172e+00 -2.0097273853525721e-01 1.6445169393852012e+02 -4.1297320522626713e-01 3.8475558499965645e-02 -4.5286064190256297e+01 -2.3971889480201537e+02 2.0076732449230144e+00 -7.4054386550436435e+00 9.5892683802558150e+00 5.8254833052415411e-01 -1.4115376692306075e+01 1.7780205337855770e-01 1.5250152759750004e+00 -2.2244267087425293e+01 -2.3534919621123684e+01 -8.7354358328572701e-01 3.5903377404591281e+00 7.7123362620312772e+00 2.1311368802572304e+00 -1.5034622761800102e+02 -1.4660539711913051e-01 1.0892579434555945e+00 2.7183322391392267e+01 -5.4182579546693695e+01 2.3583222888592523e+00 1.0780988973598284e+01 4.0699596678980239e+00 -5.8831210078643892e-01 -5.4831759757140937e+01 -5.4632654932669500e-04 2.3407510814246790e+00 2.1975390932090363e+01 -2.1896588551981938e+02 5.1343928575840914e-02 -4.4756907389459331e+00 1.4288248487620047e+01 -8.3730925622390373e-01 -2.0853550142561508e+02 -2.1643575663281114e-01 2.9191513316009985e+00 1.4284927646596373e+00 6.6904742559422687e+01 -4.0450380519338580e-02 -1.7183302739125910e+01 -2.7450021027078776e+01 8.4178840051979797e-01 -3.4298187352626798e+01 5.9090138971005146e-01 -1.6018832332865460e+00 -2.4490232882004698e+01 -8.5758182099163903e+01 3.1812911758631657e+00 -6.6577907019808613e+00 6.3055959074440011e+01 
      </Row>
      <Row Index="10">
        -1.2962915304894920e+00 -1.3175635694646351e+01 1.5082996309925682e+02 -1.4034178308552039e+00 -2.5869318780018302e-02 -3.4565147449303737e+01 1.2850404000113298e+02 -4.1763171134653043e-01 3.4758208863852871e+00 5.8254833056272981e-01 1.7189228331869849e+01 -6.9373046404927265e+01 6.2134302301288891e-01 -1.0164264193737902e+00 -2.4549429796999036e+01 9.8671592129765301e+01 -1.8672883914778851e+00 -6.9056016930273669e+00 1.3195838377161682e+00 8.0925768573046497e+00 4.0015429973823103e+01 7.2559718815839599e-02 -1.7696251596889996e+00 -5.1201121868024245e+01 4.3761665769774123e+02 -1.0909275390895287e-01 -1.2150530520568530e+01 2.0804360362003602e+00 6.9709010644076237e+00 5.5050508882451368e+00 1.0999407205765033e-01 2.2412130604437341e+00 2.4339993189881937e+01 3.3781651214002636e+01 1.4133627115690770e+00 9.0673824460530827e-01 1.2529107788654237e-02 -9.1169118635693618e+00 -1.6625495125617985e+02 -5.9187391080371388e-01 1.3879382830879845e+00 9.1474251913599431e+00 -1.9170062887735526e+02 -9.0234840247621362e-01 5.6266626350168112e+00 -3.9153181178416694e+00 -4.6506012573909592e+00 3.8210584079523599e+01 1.3042265309678340e+00 -5.6055397908584526e-01 -4.2991102844439455e+00 7.4294979180140018e+01 1.8398493040861048e+00 1.0380388995794684e+01 -1.5132854896369102e+01 
      </Row>
      <Row Index="11">
        -4.6691334855125439e+02 7.0492042413846025e+02 2.5361299722517088e+04 5.3121181646774573e-01 1.0048006564644695e+01 1.0326012146116431e+04 2.3442627831358236e+03 -4.6439127778472368e+01 -4.0474749167480417e+02 -1.4115376755208692e+01 -6.9373046365346909e+01 2.0342521201778029e+04 -1.5434079118452100e+01 4.9576301300798615e+00 4.5250136102340948e+03 -2.8114868168711309e+03 -1.6098581588714836e+01 1.1171505562603595e+02 -1.1433492198081292e+02 -6.6282118243574359e+01 8.6736518140448024e+03 1.1848119162113826e+00 1.2853940609291978e+01 1.6271735955462373e+03 -1.3147288082323259e+03 -1.1374347745518702e+02 1.9389600984765320e+02 -3.4117651565701897e+02 -7.1057512072941108e+01 1.4600406581660254e+03 7.4054039141872607e+00 -2.2605414020817193e+02 2.6727435958486876e+03 2.4651219126115584e+03 7.1770390340176071e+00 -3.8344083522453190e+01 -7.2532087011084718e+02 6.0522494130731798e+02 2.9306066441939663e+04 -7.9569647357085449e+00 -1.7031267083130749e+02 1.4275768762902592e+03 2.2329348422114599e+03 3.4905553741741940e+01 -4.8178670457076936e+02 1.1128461869703478e+03 9.1413311148682794e+01 1.8796282055848500e+04 -7.1092539203119145e+00 2.1039373007081716e+02 1.8226492041610516e+04 1.7210592068466874e+03 -1.2575480814328841e+02 -1.0937870403650550e+02 -6.7297016564877447e+02 
      </Row>
      <Row Index="12">
        4.0029566995517879e-01 1.1055680081104153e+00 4.7113518351935298e+01 -1.0639011669111436e+00 -3.3044971012960112e-01 -1.7430290991440188e+01 2.7213536162212044e+01 2.1609966617649518e-01 -1.4595749728772522e+00 1.7780205345217967e-01 6.2134302298721167e-01 -1.5434079134373043e+01 6.2832193784127122e-01 -1.9959852463400979e-01 -3.6171969982008427e+00 -7.4807671092051820e-01 -7.5506298206895472e-02 3.7946753806286848e-01 3.4465266384709076e-01 3.7561510259428132e-01 -1.8340708098897434e+01 -1.9355389716575966e-02 -2.7809866784271400e-03 1.5254681590321866e+00 6.9766972907077800e+01 1.8627565958760604e-02 -4.8972538294709977e-01 -5.7698600603494299e-02 4.8395662535085915e-01 1.9520930543754751e+01 -5.3261403553373290e-03 7.2272076146290498e-01 -4.5006660040236284e+00 -5.8807407355376178e+00 1.7848813795549284e-01 -7.7019758331526300e-01 2.9998767027652318e-01 1.0035881768495658e+00 -5.0541491003071421e+01 -4.2124812889050001e-01 1.3423295981021643e-01 4.6102555402950109e+00 -2.3299571762860673e+01 2.1569229524219313e-01 -1.7631081230568963e+00 -1.0833947720121486e+00 -6.0841919550735735e-01 -1.4786381398958866e+01 1.1835141740974642e+00 -7.3517934655954820e-01 -5.8418957045992332e+00 1.4935085140691164e+01 1.1277579485666323e-01 -7.4770641306010077e-04 -1.9637567202183032e+01 
      </Row>
      <Row Index="13">
        -4.4803903387658589e-01 6.9171286584633673e-02 6.1465048910556703e+01 -1.2953826677608291e-01 1.3874714296781787e-01 -9.4284084469588905e+00 -6.5331451548821562e+01 1.1749354396706435e-02 -2.8209036282859845e+00 1.5250152759591613e+00 -1.0164264193431247e+00 4.9576301301633343e+00 -1.9959852463406669e-01 1.8581047581510930e+00 -9.8380098398159319e+00 -1.5994981080541869e+01 2.5401322418491246e-01 1.3052073046420254e+00 1.0247972830228300e+00 -6.6384285178777702e-02 -5.2730963970850944e+00 -4.0793971920694248e-02 1.0105066037807675e+00 7.8782925703111317e+00 8.6098977850621878e+01 1.2774451937841496e+00 5.3064365135655240e+00 -3.3282462077484026e-01 -5.1367145084385246e-01 1.5911657161324586e+01 7.0842231545627896e-02 -5.6370083885602895e-01 1.2503701301436422e+01 -6.7751871393240792e+00 -1.8879820462674168e-01 -7.8275970435076148e-01 3.4182667963719149e-01 -3.9831276540715876e-01 -4.3715414855393195e+00 -2.2830292482382158e-01 8.1417175443472978e-01 -1.9550881697220013e-01 -1.3651415668676407e+02 -5.5061527687608669e-01 -5.9361443703688792e+00 -2.5735616782370230e-01 5.2529809082470547e-01 4.9107833522797621e+00 2.0104912660789109e-01 1.5926316884561004e-02 5.1584940930932643e-01 8.5246699793914882e+00 1.3289974909109139e+00 -2.1332224168403693e+00 -4.2228110535997399e+00 
      </Row>
      <Row Index="14">
        -1.0185291267519273e+02 2.6833302688256799e+02 1.8755677536432504e+04 1.6893651176579379e+01 -1.4376346565738693e+01 7.2555076229770712e+03 1.1490084905793305e+04 6.6179487661303398e+00 5.4868834952166360e+01 -2.2244267116830468e+01 -2.4549429776739998e+01 4.5250136067100339e+03 -3.6171969862893434e+00 -9.8380098393245490e+00 4.8830530964103627e+03 -3.9596547930394183e+02 9.4745856538913813e+00 7.6040019920845063e+00 -5.9909540838125530e+01 -6.4582834457125500e+01 -6.0939830652205430e+01 -3.2521307437837934e+00 3.3349747192494306e+00 1.1434873315407312e+03 -1.8962340438202991e+03 -5.1866761302296226e+01 -2.0441927108724485e+01 -8.7878801779024371e+01 4.4300736740795855e+01 6.5244086384999810e+03 4.7305309432946556e+00 -2.4945532204855862e+01 2.3956319622708543e+02 5.0573570421346631e+03 -1.4615879862205535e+01 -1.0766530697204360e+00 -1.7945294866528380e+02 2.8368170596333948e+02 1.4444205743910468e+04 1.7742996350309131e+01 -3.4667508010009115e+01 1.4045717453481648e+03 1.0883546946323539e+04 3.3495830972698428e+01 7.7260758505074918e+01 3.3589445012838775e+02 -2.8149195800351237e+00 9.4664945121828678e+03 -3.1237473594651419e+00 -5.2647543273064690e+00 1.2437697705510356e+04 3.8287163886177423e+03 -6.0855501806272514e+01 -5.5867290027393210e+01 -6.2785349172718852e+03 
      </Row>
      <Row Index="15">
        1.7826975272372928e+02 -6.4243114858267290e+01 -7.9345281689564954e+03 -4.0155844413282651e+00 -6.4298073211360247e+00 5.6666448443352419e+02 9.5533810102313619e+03 -5.8418508590217549e+01 -5.7539108480736935e+01 -2.3534919604281441e+01 9.8671592120626883e+01 -2.8114868197238584e+03 -7.4807671136881027e-01 -1.5994981080051485e+01 -3.9596548157023062e+02 1.4760116356005517e+04 -4.0375110821049475e+01 -1.4338203909092417e+02 9.9882303275732198e+01 1.4419343785310957e+02 4.6570473317200831e+03 2.2542227787463478e+00 -1.1263144731888815e+01 -3.2388697421558318e+03 9.9730796261483374e+03 -1.5122685020551838e+01 -3.6319466376759920e+02 7.8766006504206260e+01 -1.1711235126114320e+02 -1.0492060179600003e+02 -1.1384154513245148e-01 6.9422017320004926e+01 -3.7065111440783949e+02 8.0223160177648253e+02 -2.8954957235924240e+01 5.1647350674415463e+01 1.5680229035473906e+02 -1.1044634678294716e+02 -6.0928429100292328e+02 -2.3306652181840501e+00 3.5548238227758304e+01 9.1409696387970101e+01 8.8656006371959757e+03 -1.0703773156881796e+02 1.3555235517129640e+02 -3.2619584766745703e+02 -1.9888172794235317e+01 -4.6416706575020908e+03 5.4387316740758251e-03 -7.3030853346876583e+01 -1.7936479218280701e+03 1.9455956136433117e+03 1.9964409096858617e+01 2.7235202771843160e+02 -5.0459058615095273e+03 
      </Row>
      <Row Index="16">
        3.9615971437266334e-01 -1.8307639694513049e+00 -5.4826699473223840e+01 -1.3798108632049078e-01 8.7295398969116955e-01 -3.4371726123560880e+00 5.8013954813290923e+01 -6.2993330483433385e-01 1.4268670027076109e+00 -8.7354358325269554e-01 -1.8672883914944653e+00 -1.6098581586938987e+01 -7.5506298217699552e-02 2.5401322417936090e-01 9.4745856527985417e+00 -4.0375110823117751e+01 2.5230129750966488e+00 5.1770749002488881e-01 -3.7328869296549372e-01 -2.7772527300152672e+00 2.6428563008501529e+00 -2.0384582966112869e-02 1.5931405863502723e-01 5.8260031277754267e+00 -1.1083134326001469e+02 -1.3833846543850259e-01 -1.5963270644889656e+00 5.0353443472098705e-02 1.0402555927043977e+00 -3.1517375474659168e+00 6.3843391734301237e-03 -1.2391143651470460e+00 -1.3743871821658358e+01 7.6970942186948236e+01 -8.5783028440511822e-01 -6.2916631217563024e-02 -2.7888964521834492e-01 -1.1935447653532067e+00 1.3773375547626181e+01 -1.5420396712421183e-01 -2.6503664987401032e-01 -4.0107309738758108e+00 4.3499947101550163e+01 6.5539097183322892e-01 2.6436647278259096e+00 1.7203289193397175e+00 -2.6075139429304856e-01 2.1778573759140052e-01 3.3967135360342204e-01 1.2509322446567503e+00 -1.1443209615400225e+01 8.7935960160726729e+00 -1.6822297270967224e+00 -2.3881581700881922e+00 -4.1152733929217666e-01 
      </Row>
      <Row Index="17">
        -2.1650490879763331e+00 1.7431225949351870e+00 3.3933825846837101e+02 -4.3581613919953544e-01 2.7021680884142563e-01 -3.6886070066326056e+01 -2.3349574239332753e+01 1.7263817143887326e+00 -7.4637642228856897e+00 3.5903377405001988e+00 -6.9056016929912403e+00 1.1171505557390927e+02 3.7946753810961198e-01 1.3052073046910464e+00 7.6040019591584382e+00 -1.4338203908394235e+02 5.1770749007750538e-01 2.3880930909950997e+01 3.2329580591115974e+00 -5.3102687366086911e+00 -4.0737489896486828e+01 -1.5665405831133566e-01 2.4759243488706844e+00 4.4894172716616595e+01 -2.0109041126319738e+02 1.9973736775958146e+00 3.5054537528567096e+01 2.1106010380807021e+00 4.4221519147809296e-01 4.8872252537618355e+00 -7.0265309732050807e-02 2.5978923927948312e+00 -9.0478552212935028e+00 2.5715264283923716e+01 -5.4072712600717598e-01 -1.4151639613301985e+01 4.0556620702346962e+00 1.4780324354663250e+00 -4.4673500039002434e+01 -1.7245020723810572e-01 2.8085729997628794e+00 1.9977654877658615e+01 1.3851098206639051e+02 6.0872625808023828e-01 -3.3101504265613436e+01 -2.4201450450677325e-01 2.0215179396920178e+00 -6.2138273922879016e+01 8.9978628761789281e-01 -8.1595340128402649e-01 5.2632496417312325e+01 7.5826434621585026e+00 -1.8511549111187264e-01 -2.2245076306961092e+01 -1.1789449945421455e+02 
      </Row>
      <Row Index="18">
        1.1379096126573247e+01 -2.6847182936345071e+00 -7.6300091039107173e+01 -1.8284246619967965e+00 2.2126460380096633e+00 -1.2234749399093857e+02 -8.8271421125000913e+01 -2.1207680552868302e+00 -6.7415222939419568e+00 7.7123362625209548e+00 1.3195838373897431e+00 -1.1433492194117395e+02 3.4465266367249914e-01 1.0247972830163685e+00 -5.9909540846981429e+01 9.9882303242946591e+01 -3.7328869297084388e-01 3.2329580586268096e+00 1.2598992764511324e+01 2.9479383878959879e+00 -8.1286359830220178e+01 8.5432188947373616e-02 1.3849967697538501e+00 -1.3082283891264069e+01 3.7913643987099235e+01 2.0275388712344613e+00 6.1409983599328370e+00 8.1851073730218573e+00 -1.3258616479386027e+00 -9.2207353472295878e+01 -1.7880168661128204e-01 1.9727397785478107e+00 -1.4065160611960437e-01 -6.3560475561258727e+01 -1.9659184560186854e-01 -4.6899446648641367e+00 1.8078766827211968e+01 -3.5364736736233935e+00 -3.3203083980569505e+02 -1.4661962095488854e+00 3.9065182217920986e+00 -1.5637582328215331e+01 4.7724653517743477e+01 -3.4581089225251693e+00 -1.4317828844218651e+01 -3.6948785064637484e+01 2.7756743430329900e-01 -1.3607561358293611e+02 2.0272052224675416e+00 7.3068823225886825e-01 -1.5928175499654614e+02 -3.5840449652364065e+01 3.0911345750210870e+00 -4.2060665928865930e+00 3.2748010782833468e+01 
      </Row>
      <Row Index="19">
        -2.7392425161377405e+00 8.8298102187840914e+00 2.4777789907858715e+02 -1.5030146589466638e+00 -2.2609243519786690e+00 -7.6224872796838554e+01 4.3639959504229004e+01 -1.6716729156420103e+00 4.6675071330394911e+00 2.1311368802871855e+00 8.0925768573303607e+00 -6.6282118285221998e+01 3.7561510260988451e-01 -6.6384285202515936e-02 -6.4582834480751558e+01 1.4419343786105867e+02 -2.7772527299857068e+00 -5.3102687367333541e+00 2.9479383882669090e+00 2.5682097529901526e+01 1.1725361345495136e+01 -7.6837546325066688e-02 4.0712107726992330e-01 -6.7065504126127365e+01 5.6519730070205776e+02 2.9895375876133117e+00 -6.3122821334947679e+00 4.6221278655594507e+00 -1.0006876646725297e+01 1.1809221626051757e+02 2.7253803073408578e-01 9.5312323653235165e+00 2.0693071280835280e+01 -1.8436490119902714e+02 1.8159194212081677e+00 1.3777026212100498e+00 3.0575014135660674e+00 -7.8584462480660533e-01 -3.6199381088868120e+02 -7.5607462247970014e-01 6.0195366455414741e+00 4.2666625739145680e+01 -1.3546025468840335e+02 -4.3152162816663120e+00 1.9228488326817130e+00 -6.0871639358575980e+00 1.5346503871914194e+00 2.3624321895150679e+01 1.4276666808209355e+00 -6.1671979299539998e+00 -1.8954024414075548e+01 7.2235671081927734e+01 5.3742297203499945e+00 9.6322176963235577e+00 -2.1781966806337603e+00 
      </Row>
      <Row Index="20">
        -2.5160154469417165e+02 1.1599442257933015e+02 -9.0315556974250721e+03 1.8325337690046361e+01 1.0835666491184183e+01 2.5608096556206874e+03 5.2081569702370143e+03 -1.1828924677541437e+02 -2.8618291449997855e+02 -1.5034622764260135e+02 4.0015429987433890e+01 8.6736518174231187e+03 -1.8340708097736865e+01 -5.2730963995132960e+00 -6.0939827715541469e+01 4.6570473319468438e+03 2.6428562985577173e+00 -4.0737489891489950e+01 -8.1286359871583045e+01 1.1725361353142944e+01 1.3730324696690093e+04 7.5511030974524171e+00 -6.1096898883940867e+00 -2.6037207737712306e+03 1.7105512748906440e+03 -1.1427443814722251e+02 -1.7827593844948569e+02 -1.6552075350436473e+02 -4.7025833117717085e+01 -4.7930345403429255e+03 -1.9803589386894194e-01 -1.5272548754618310e+02 5.3886424166269717e+02 5.5453435974015738e+03 -1.6874095997539435e+01 1.0550410026677841e+02 -4.9638010700264681e+02 5.9639170927966077e+01 9.2454953194613699e+03 -3.8441600607929693e-01 -1.2224441521172508e+02 -2.3387026002988932e+02 8.6403491946207396e+01 -4.2835986827263696e+01 -5.6893086378785824e+01 7.0891417807602170e+02 8.9963625553426887e+00 9.1424386792835521e+03 -4.8355891899791914e+01 1.5704722336012651e+02 1.4310822537544575e+03 1.1383467800504657e+03 -1.1862539499057493e+02 1.8856811669278551e+02 6.2202763374338983e+03 
      </Row>
      <Row Index="21">
        8.1385882093908360e-02 -4.1002003789489416e-01 -2.5760921459070492e+01 6.8954052473191946e-02 -2.7271101941145404e-02 -2.0387895885916052e+00 -1.1370031343554199e+01 -1.5342949581196608e-01 3.8020855557170408e-01 -1.4660539710103174e-01 7.2559718801510797e-02 1.1848119192953670e+00 -1.9355389724742933e-02 -4.0793971921379221e-02 -3.2521307432547886e+00 2.2542227771940873e+00 -2.0384582967610143e-02 -1.5665405833091217e-01 8.5432188933415754e-02 -7.6837546342694907e-02 7.5511030993451858e+00 1.1709716874965724e-01 -7.2695029571867575e-03 -1.3845262384074033e+00 -3.8010020131049878e+00 -1.1411571969553988e-02 -3.7295468116660402e-01 -1.8493389136799748e-02 3.1519858938271694e-02 -8.6594898617653229e+00 -5.0120797215579167e-02 -1.3636327934241005e-01 6.6664786571432444e-01 5.3043353329879892e+00 8.8266125715405763e-03 2.2079382257212418e-01 -7.0728180444908126e-02 -3.7362869065061743e-01 4.6789761180803531e+00 -4.2906564046271974e-02 -1.2772923559868127e-01 -2.6285925936774923e+00 -1.4876744194155101e+01 -1.3607933754887222e-01 5.8185100559989467e-01 1.9959966258750778e-01 5.4396147567694154e-02 -5.6509416413457139e+00 -1.0273818030006243e-01 2.3577635038968886e-01 -8.7530559175022322e+00 -3.4095343729741057e+00 1.9476305943699757e-03 2.8605281060495291e-01 5.3728299749030857e+00 
      </Row>
      <Row Index="22">
        6.2625884732112980e-01 1.2243187089958742e+00 8.6531615589179324e+01 2.4084070126225487e-02 -1.1366688891328804e+00 1.1346858696435973e+00 9.3747938794036596e+00 -2.1999758890692322e-01 -2.8139675988815687e+00 1.0892579433383756e+00 -1.7696251595984318e+00 1.2853940610343091e+01 -2.7809866605282840e-03 1.0105066037742891e+00 3.3349747244980890e+00 -1.1263144728214741e+01 1.5931405864012704e-01 2.4759243488710121e+00 1.3849967696954004e+00 4.0712107734024805e-01 -6.1096898900017251e+00 -7.2695029605407968e-03 2.1091918859973582e+00 9.7089021250067660e+00 6.8811299935432785e+01 1.0400052654184249e+00 4.7793350065042279e+00 -6.2552217952398759e-01 -1.0979269626767834e+00 4.6491328833560075e+01 2.8644703349827202e-02 1.7598761976985431e+00 -5.2648295405342793e-01 1.3542512401770026e+01 -1.1626200575584911e-01 -1.4504283842947217e+00 7.7661114301452383e-01 3.3504354212167398e-01 -3.3647378403269961e+01 1.9792172688964174e-02 9.0444473953017335e-01 7.6431353927926686e+00 -6.3796174658682901e+01 -6.8514284354423260e-01 -5.9972813604086106e+00 -1.1323885770610014e+00 7.6715972097687057e-01 4.0555719436956494e+01 2.8814168186118239e-01 -2.5369974785063203e+00 1.8403563934948895e+01 2.1977520510079195e+01 5.4138355732002985e-01 -2.9795192100300185e+00 3.4391724030752395e+00 
      </Row>
      <Row Index="23">
        -1.9927771225607437e+01 1.1174440452440450e+02 7.6546960398870169e+03 -2.5258456225140300e+00 -9.4867047679398908e+00 1.3304907452654761e+03 -1.4201014730567001e+03 2.6334315564984163e+01 -2.4900077431424975e+01 2.7183322381778737e+01 -5.1201121861596903e+01 1.6271735952535000e+03 1.5254681617579990e+00 7.8782925702836000e+00 1.1434873319303915e+03 -3.2388697416545692e+03 5.8260031277180246e+00 4.4894172724685745e+01 -1.3082283894875758e+01 -6.7065504119260368e+01 -2.6037207743690301e+03 -1.3845262387868047e+00 9.7089021244802609e+00 1.9497683746380626e+03 2.1408210521419123e+03 -6.0375812043455372e+00 1.0141999755926281e+02 -3.4083830000448536e+01 2.4637295774381116e+01 2.4785079344656415e+03 7.9213157623445285e-01 -2.4651181169238178e+01 2.7216977147020589e+02 1.3969560001175560e+03 8.6551104393356937e+00 -5.7855594237023979e+01 -2.3547973287899630e+01 1.2973719426112757e+02 4.0003491623090003e+03 -1.0499333881915636e+00 -1.9947425565967290e+01 8.2595932644655022e+01 -6.3912324002098394e+03 4.2556455221502212e+01 -1.0150086737250460e+02 5.2478785694548357e+01 1.7667753834472819e+01 3.0722110844537337e+03 1.3434886752509158e+01 5.8774492343036240e+00 3.1606893438821085e+03 7.0711072132656750e+02 -1.3509401345228753e+01 -1.0025984999854398e+02 -6.3966191328312902e+02 
      </Row>
      <Row Index="24">
        -4.6653205953044431e+02 -1.6398734422648613e+02 4.5488578369733412e+04 -1.8643295128464632e+02 -1.9828819954359886e+02 -3.4793504519463604e+03 1.5667816401250177e+04 -9.3052821389551326e+01 1.8292438759000476e+02 -5.4182579565683227e+01 4.3761665772305787e+02 -1.3147288185088023e+03 6.9766972919631030e+01 8.6098977844219846e+01 -1.8962340481432038e+03 9.9730796292882878e+03 -1.1083134325257151e+02 -2.0109041127503042e+02 3.7913644062590720e+01 5.6519730071794766e+02 1.7105512712972195e+03 -3.8010020101133932e+00 6.8811299914943902e+01 2.1408210505890893e+03 1.3216921795338730e+05 9.5734564357536826e+01 -3.1123575087549398e+02 -3.2218454813961415e+01 4.2153266480925140e+00 2.3997681631058291e+04 2.5316702921619530e+01 4.3655563437328601e+02 2.9271972016851651e+03 2.2907742178068205e+04 1.5463589767930495e+02 -3.0419143803910623e+02 -4.9676750894635722e+02 -1.9403272784647820e+02 -5.8828138367254651e+03 -8.7004923869810810e+01 2.5325493646397621e+02 1.4724200981351532e+03 -1.1602657582358050e+05 -1.0801595012844049e+02 -1.0522212604262802e+02 6.4309252743807315e+02 -1.0549561354424488e+02 1.6566533302473119e+04 2.4746283254713126e+02 -3.8489513220825376e+02 5.7370122435507046e+03 2.3666411417122326e+04 2.1349625493065105e+02 2.6732155529878719e+02 -9.7937642479387614e+03 
      </Row>
      <Row Index="25">
        1.3111865190035488e+00 -1.8663478816901424e+00 7.3007189151506978e+01 -1.2991075596131711e+00 8.0282152296885212e-01 -9.9388500528865336e+01 -1.6057025522696441e+02 -4.9789533522332075e-01 3.6781553891719518e+00 2.3583222893082123e+00 -1.0909275415569653e-01 -1.1374347748009374e+02 1.8627565879004493e-02 1.2774451938170546e+00 -5.1866761340590998e+01 -1.5122685035924178e+01 -1.3833846540954298e-01 1.9973736773125221e+00 2.0275388717210143e+00 2.9895375874297159e+00 -1.1427443812855039e+02 -1.1411571941948973e-02 1.0400052654412919e+00 -6.0375812099396740e+00 9.5734564298690174e+01 9.2070104280296956e+00 8.7028225636053520e+00 3.4893434347439354e+00 -1.3395098780964219e+00 1.8441218232192355e+01 1.3117296865689765e-01 3.4520933364071436e+00 -1.0885426329382426e+00 -2.3601443019822591e+02 2.7819288953019738e-01 -2.6661984923255044e+00 7.0236490161902863e+00 -2.6070272839157704e+00 -3.2363793647954748e+02 -9.9866674772502440e-01 3.8218214602169951e+00 1.6508442090524710e+01 1.4178167008785024e+01 -6.1008625619932362e+00 -4.6395677827791832e+00 -7.1621291789927852e+00 5.7521949324271315e-01 -1.7034423892869998e+02 1.6117312776365296e+00 -2.2653148779415346e+00 -9.1142569986124329e+01 -4.4857064483298650e+01 7.6855418275336689e+00 -4.2605613338821415e+00 -2.7305944377875456e+01 
      </Row>
      <Row Index="26">
        -5.4484739549679269e+00 4.0292410505627032e+00 6.7389944021800454e+02 -8.6836551820922203e-02 4.7663868565098566e-01 -8.7037967380969235e+01 -4.8624715063694941e+02 2.2607311903519154e+00 -1.0320729720297672e+01 1.0780988973587327e+01 -1.2150530520493760e+01 1.9389600982419057e+02 -4.8972538291426204e-01 5.3064365136815344e+00 -2.0441927128833072e+01 -3.6319466376887976e+02 -1.5963270644410379e+00 3.5054537528645533e+01 6.1409983601938585e+00 -6.3122821332239596e+00 -1.7827593843791618e+02 -3.7295468115852604e-01 4.7793350066457236e+00 1.0141999755615643e+02 -3.1123575081470477e+02 8.7028225636817442e+00 7.5718712270188831e+01 3.2348246560766474e+00 5.5692172229703374e-01 -1.0914042946226742e+01 2.3017534219091013e-01 3.5474130017208862e+00 1.9623490080875627e+01 -3.4616955694685294e+02 -2.2653897219877905e-01 -2.1015700036341560e+01 9.6281656816801995e+00 2.2984265575519416e+00 -1.8722697031465225e+02 -3.8413345591810710e-01 6.4700503592077441e+00 4.5772565856677602e+01 1.1353063495071007e+02 -3.3385434933229368e+00 -6.1776973228988638e+01 -4.2467366964448550e+00 5.4706342901259166e+00 -1.4788966277756504e+02 3.2325115782347069e-01 -2.2452401338506731e+00 8.1553212202482300e+01 -1.1921336477833815e+02 9.2226049943584485e+00 -3.9080600910842563e+01 -1.0481683520234346e+02 
      </Row>
      <Row Index="27">
        1.0880463917705701e+01 -6.5019617351050414e+00 -4.1202142304802146e+02 -2.1723337678371557e-01 2.6102536971711086e+00 -2.0554371337766338e+02 5.6413275556257521e+00 -1.5784273693519995e+00 1.0795204584128417e+01 4.0699596689003972e+00 2.0804360355158167e+00 -3.4117651562389983e+02 -5.7698600922825527e-02 -3.3282462079976277e-01 -8.7878801821480465e+01 7.8766006449279757e+01 5.0353443486592653e-02 2.1106010370902233e+00 8.1851073733850690e+00 4.6221278647676911e+00 -1.6552075343603229e+02 -1.8493389091747137e-02 -6.2552217949710531e-01 -3.4083830000847456e+01 -3.2218454990199831e+01 3.4893434340579068e+00 3.2348246555137621e+00 1.8585486498947127e+01 7.9788410574963109e-02 -7.6483985076798348e+01 -1.0953273390977439e-01 9.1296321933568709e+00 -4.7496239771653222e+01 4.7780372140086001e+01 2.4888449614238306e-02 -2.1314674253942818e+00 2.6966921517329787e+01 -6.8838622816689892e+00 -6.0992187858123293e+02 -2.7325086110375230e-01 9.4517034231921233e+00 -3.2888624563135750e+01 4.7046488681707132e+01 -3.9335534800792167e+00 4.1646963835754232e+00 -3.5488805693631605e+01 3.3411199391037527e-01 -2.7130876283895742e+02 1.8001814825080231e-01 -4.5448264422804918e-02 -3.3944909676963101e+02 -2.0634178333404869e+01 3.3786054879108605e+00 -2.4389259839080495e+00 6.5124382420177795e+01 
      </Row>
      <Row Index="28">
        4.4791750303073763e-01 -1.4947744919486819e+01 7.2086782657578482e+01 -3.2024735608271815e-01 7.4567971908249486e-01 1.2509635488197745e+01 1.1119080897676847e+02 9.4847571793565222e-01 3.5609208656827143e+00 -5.8831210084480501e-01 6.9709010644518870e+00 -7.1057512088763971e+01 4.8395662538128970e-01 -5.1367145085981236e-01 4.4300736736923810e+01 -1.1711235125410872e+02 1.0402555927089905e+00 4.4221519152585564e-01 -1.3258616478588481e+00 -1.0006876646696917e+01 -4.7025833127994304e+01 3.1519858940448842e-02 -1.0979269627232124e+00 2.4637295772123366e+01 4.2153266469774451e+00 -1.3395098779603980e+00 5.5692172230492787e-01 7.9788410802269616e-02 1.6502575635725080e+01 1.4999652484051666e+01 5.4259741879552723e-02 -2.1633229510575376e+00 -1.5753998157944181e+01 1.7086068779362392e+02 -2.6342123168533121e-01 -1.8721081818403751e+00 -7.6395923629849039e-02 -5.5651429837880553e+00 8.5888776318784750e+00 2.1277036942575342e-01 -1.3333455582624718e+00 -7.1799333450695144e+00 -6.8120676646561947e+01 2.3939944107024669e+00 3.2956121849011111e+00 1.0630508976521236e-01 -4.9121328506397806e+00 5.0220063419711323e+01 5.3089066442433364e-01 1.2921721948158025e+00 2.7923635530122372e+01 4.4571185405577957e+01 -1.2813832647492731e+00 -2.9412479609870275e+00 -2.1524383649719756e+01 
      </Row>
      <Row Index="29">
        -2.5571712110165063e+02 4.3039640901579332e+02 4.3547744466390366e+04 -4.0478629787831110e+01 -1.2348087340181755e+02 8.4065712153805071e+03 2.2490323813089282e+04 2.2912510553107822e+01 4.6891784692387955e+02 -5.4831759783300981e+01 5.5050509140346549e+00 1.4600406457291090e+03 1.9520930565195840e+01 1.5911657162471144e+01 6.5244086339495261e+03 -1.0492059748875909e+02 -3.1517375407738655e+00 4.8872252938526799e+00 -9.2207353389807395e+01 1.1809221629417152e+02 -4.7930345460538956e+03 -8.6594898595660652e+00 4.6491328816799069e+01 2.4785079327141866e+03 2.3997681633986402e+04 1.8441218330320226e+01 -1.0914042926036927e+01 -7.6483984881095679e+01 1.4999652479731594e+01 2.0932381859911915e+04 1.1440948419308295e+01 2.4264095866103412e+02 1.4310313072029385e+02 1.3557718678440666e+04 1.0083040105741809e+01 -8.4783806978437184e+01 -2.8451122364332008e+02 3.8068323809575668e+02 1.4981482903397449e+04 -7.0106827351852727e+00 1.1312387329004349e+02 3.1281316052151669e+03 -6.0075164621904823e+03 8.6689606430469013e+00 3.1359206228226986e+02 5.5272623104787408e+02 1.4856849000711364e+01 1.0510258596544934e+04 8.5135805979733050e+01 -2.7866190440958098e+02 1.9147664353311611e+04 1.2760751653110630e+04 2.3198345476761460e+01 -9.8531982514107312e+01 -1.9331170866702825e+04 
      </Row>
      <Row Index="30">
        -4.4531745324310035e-01 3.6367237267386265e-01 4.3661233250253318e+01 -3.2861660504979739e-02 4.5359374983851591e-02 6.2016944337972149e+00 1.9791607418354712e+01 -1.6953243926476347e-02 -1.6971601779413614e-01 -5.4632660520844561e-04 1.0999407209745016e-01 7.4054039091532333e+00 -5.3261403363121795e-03 7.0842231544691936e-02 4.7305309438953635e+00 -1.1384154138988833e-01 6.3843391752609335e-03 -7.0265309686518673e-02 -1.7880168660496798e-01 2.7253803077558914e-01 -1.9803589835591850e-01 -5.0120797216689383e-02 2.8644703341309308e-02 7.9213157571403769e-01 2.5316702929884670e+01 1.3117296870931466e-01 2.3017534220043601e-01 -1.0953273385081608e-01 5.4259741890245294e-02 1.1440948427740015e+01 9.6165473973300067e-02 3.6650649627909371e-02 1.4128251825935934e+00 -1.6456542015887976e-01 4.9346308794211285e-03 -8.6133196898427855e-02 -4.5126980020303403e-01 3.6594318703145445e-01 8.6775810939347338e+00 5.9847362648961143e-02 1.0135414012561340e-01 3.5696707376447847e+00 2.6347709880110983e+00 -8.1719362521725056e-02 -3.1356623481362006e-01 9.6722240048920527e-01 -8.3281569614510387e-02 1.9045182948509591e+01 9.6202858322182117e-02 -5.9968612861213799e-02 1.8750640676793068e+01 8.7318812168845490e+00 1.5489439335015298e-01 -1.1275637184949350e-01 -6.4190143215347240e+00 
      </Row>
      <Row Index="31">
        2.8142286608536793e+00 -2.2480516116963614e+00 2.3821680348112446e+02 -1.8249822847982333e-01 -5.7860766651032920e+00 -8.9116049597967958e+01 2.1709966508111444e+02 1.4007898055237900e+00 1.4834052929388648e+01 2.3407510816439738e+00 2.2412130603639184e+00 -2.2605414028034809e+02 7.2272076144470088e-01 -5.6370083888164746e-01 -2.4945532257371980e+01 6.9422017324741091e+01 -1.2391143650789989e+00 2.5978923924395367e+00 1.9727397793049892e+00 9.5312323651941853e+00 -1.5272548754758319e+02 -1.3636327930187297e-01 1.7598761975885022e+00 -2.4651181182086589e+01 4.3655563431997291e+02 3.4520933366438569e+00 3.5474130011938598e+00 9.1296321948265824e+00 -2.1633229511502066e+00 2.4264095856468407e+02 3.6650649540828084e-02 1.9527314610139946e+01 -3.7080066094739777e+01 3.6769165267064182e+01 7.7279246174652649e-01 -3.0714293283795682e+00 1.4070742062785424e+01 -5.1584211645508304e+00 -5.7391285760716880e+02 4.6616093277770548e-01 1.0825462036710755e+01 4.2108346340060137e+01 -1.0469695921317134e+02 -1.6087596115266947e+00 5.5616412217408531e+00 -1.4076937332458847e+01 8.1028373807399889e-01 -2.2592899342684674e+01 8.8978651490278438e-01 -1.4085491814164593e+01 -6.3476340596842974e+01 1.2248509801723608e+02 3.5833577204022191e+00 -2.9642219027636578e+00 -5.0133666421153805e+01 
      </Row>
      <Row Index="32">
        -5.4535741314111860e+01 6.8136404938805413e+00 5.7063255777197664e+03 7.8765055386873639e-01 1.1879086916080922e+01 1.3922583299854423e+03 -2.3595140292742790e+03 -7.5024086852329930e+00 -3.6469907382754627e+01 2.1975390921532632e+01 2.4339993196313344e+01 2.6727435961200581e+03 -4.5006660017014042e+00 1.2503701301338973e+01 2.3956319695794582e+02 -3.7065111399109082e+02 -1.3743871822158667e+01 -9.0478552128091394e+00 -1.4065161498112388e-01 2.0693071287463226e+01 5.3886424118136097e+02 6.6664786511407570e-01 -5.2648295389842303e-01 2.7216977156006214e+02 2.9271972034246387e+03 -1.0885426306867956e+00 1.9623490084752802e+01 -4.7496239781714820e+01 -1.5753998155053296e+01 1.4310313293540321e+02 1.4128251836735792e+00 -3.7080066083911376e+01 1.1261611299861333e+03 -9.3040803972157300e+02 9.4508691699900282e+00 -1.3128152318637234e+00 -7.7876935029310573e+01 4.4220906378900509e+00 3.7750207532429140e+03 -2.3769998001382899e+00 -9.5589388078072588e+00 1.2451890004356619e+02 -4.1123379068869290e+03 -6.8850615720940525e+00 -7.2191736587524090e+01 1.1806668804629260e+02 4.1709673650683570e+00 3.1220636464260283e+03 8.2898461172561611e-02 3.6253608902692136e+01 2.7719866601840358e+03 1.8616016657308787e+00 7.2062917524380055e+00 2.0279982785734774e+01 4.9036502364746531e+02 
      </Row>
      <Row Index="33">
        -1.6628414592015477e+02 2.0849460166060635e+02 1.7073791350188985e+04 1.5541980924543083e+01 -4.5307583913572508e+01 6.0665786381313665e+03 3.1591394009849049e+04 -6.0872180192571179e+01 3.6759992236929247e+02 -2.1896588554827184e+02 3.3781651238579798e+01 2.4651219053439549e+03 -5.8807407222891470e+00 -6.7751871438636204e+00 5.0573570400006865e+03 8.0223160476598423e+02 7.6970942191587255e+01 2.5715264293206928e+01 -6.3560475519226202e+01 -1.8436490118140864e+02 5.5453435937135437e+03 5.3043353342947057e+00 1.3542512385401551e+01 1.3969559990851849e+03 2.2907742179794324e+04 -2.3601443014632298e+02 -3.4616955697250523e+02 4.7780372251631036e+01 1.7086068779689231e+02 1.3557718679602984e+04 -1.6456542493330062e-01 3.6769165315933606e+01 -9.3040804103248229e+02 4.4517591023445595e+04 -1.3545286801317161e+01 3.0631193878842964e+01 -3.1502468232765642e+02 2.5974665133868621e+02 1.8616917869853882e+04 6.9799845917820011e+00 2.7584821915598603e+00 -5.2067533952077065e+02 -2.7631194336349814e+04 1.2880487727915488e+02 5.6028728558098373e+02 5.7688974776201894e+02 8.4251655456719483e+00 1.6906460621305436e+04 5.5884861240265309e+00 2.0313493403145003e+01 9.8442726702770906e+03 1.7677251849278233e+04 -3.1174267487940779e+02 2.6025914079838230e+01 -1.0023693213847484e+04 
      </Row>
      <Row Index="34">
        -1.2357012097389131e+00 7.4560582730960867e-01 6.6628241745306127e+01 -4.0616286557137404e-01 -2.0829279841066684e-01 -2.2023866540473307e+01 -5.0163062147298803e+01 1.3842625354527205e-01 3.3087771665471166e-02 5.1343928539977116e-02 1.4133627115945728e+00 7.1770390383981546e+00 1.7848813795232532e-01 -1.8879820463655578e-01 -1.4615879858562565e+01 -2.8954957235747997e+01 -8.5783028440773723e-01 -5.4072712603468176e-01 -1.9659184565348387e-01 1.8159194212169183e+00 -1.6874095996617015e+01 8.8266125698266418e-03 -1.1626200575720436e-01 8.6551104400351733e+00 1.5463589768341512e+02 2.7819288948611520e-01 -2.2653897227981901e-01 2.4888449541564661e-02 -2.6342123166750753e-01 1.0083040111692823e+01 4.9346308848661202e-03 7.7279246174457561e-01 9.4508691706787431e+00 -1.3545286796082223e+01 9.8790667447886005e-01 -4.9954411947586497e-01 -9.0974639160050419e-01 4.6377707868539275e-01 -4.1653126513054502e+01 -2.1996124259828520e-01 3.6088865258923114e-01 3.8514744397602385e-01 -1.9725161772879346e+02 4.4809034694021976e-02 -6.5409701928416442e-01 1.2194105263106727e+00 -8.2049590966439545e-02 1.9140814119755689e+01 4.4306382301794223e-01 -1.9592717915073532e-01 -7.8338677096043732e+00 9.2986818858353875e+00 8.0564720807131351e-01 1.0853525793113772e+00 2.3208998823102309e+01 
      </Row>
      <Row Index="35">
        3.4591492116970590e-01 2.6527213086313850e-01 -4.7510420493549185e+02 2.0152715684598572e+00 -1.0719777756555582e-01 5.8157746683514006e+01 1.2419466913576304e+01 -1.0312162787503378e+00 6.2493701107111548e+00 -4.4756907389071952e+00 9.0673824450624352e-01 -3.8344083470126932e+01 -7.7019758337513888e-01 -7.8275970436640985e-01 -1.0766530428175543e+00 5.1647350662659846e+01 -6.2916631261877853e-02 -1.4151639613308895e+01 -4.6899446652951653e+00 1.3777026210663621e+00 1.0550410027840474e+02 2.2079382255590474e-01 -1.4504283842570977e+00 -5.7855594229183225e+01 -3.0419143805257744e+02 -2.6661984926257780e+00 -2.1015700036187695e+01 -2.1314674263615991e+00 -1.8721081818233642e+00 -8.4783806954317129e+01 -8.6133196857261396e-02 -3.0714293287747934e+00 -1.3128152231172407e+00 3.0631193883367814e+01 -4.9954411948513311e-01 1.3916116422148068e+01 -4.8818849118970702e+00 -8.4138261934923975e-01 1.5645387511315454e+02 1.0430497273954151e+00 -2.7344302094969568e+00 -2.7045755597352240e+01 2.0092812975935976e+02 1.7313111556797178e-01 2.6420616525840146e+01 7.2094825355501655e+00 -2.8405072907133455e-02 -9.6169350713223238e+00 -2.8234920131858772e+00 1.8683065544934294e+00 -5.8741330839695664e+01 -5.2602726152451986e+01 -2.1206024152983929e+00 1.4889230288940801e+01 8.8855303258351242e+01 
      </Row>
      <Row Index="36">
        4.4659274613313919e+01 -1.8394057727399257e+01 -1.1317948008966257e+03 1.1280916245871087e+00 1.9974174814107215e+00 -3.8574801374710705e+02 -4.7366605378678491e+02 1.3323109457020870e+00 -2.2364094776526144e+00 1.4288248489487827e+01 1.2529106359124853e-02 -7.2532086983608497e+02 2.9998766944569866e-01 3.4182667960444713e-01 -1.7945294863939694e+02 1.5680229019982289e+02 -2.7888964531335603e-01 4.0556620682588687e+00 1.8078766826211279e+01 3.0575014118788886e+00 -4.9638010680281377e+02 -7.0728180425351894e-02 7.7661114339258575e-01 -2.3547973255876059e+01 -4.9676750923270447e+02 7.0236490134442633e+00 9.6281656806975207e+00 2.6966921513795313e+01 -7.6395923853397107e-02 -2.8451122390878749e+02 -4.5126980012578244e-01 1.4070742059111396e+01 -7.7876934974966389e+01 -3.1502468245119417e+02 -9.0974639138829616e-01 -4.8818849102082744e+00 6.9129438671732146e+01 -1.6611485199558416e+01 -1.3523565952262090e+03 8.6232687924378737e-01 1.2973346851842873e+01 -9.2222732827516666e+01 2.9071167922573295e+02 -4.3634249236739748e+00 -1.2403209591685846e+01 -9.8097892194002725e+01 2.2149749607338620e-02 -5.9723831202441340e+02 1.1423748455370344e+00 -9.4325779184803764e+00 -7.7608072980617419e+02 -2.8707481582697062e+02 7.7652239574273381e+00 -5.4510149495575888e+00 3.9533736310170980e+02 
      </Row>
      <Row Index="37">
        -1.0106088693530040e+01 9.6755816547740096e+01 1.2666311760190699e+03 -1.9828643992548702e+00 1.4077374637521829e+00 4.2363123034737055e+02 5.8593954276101135e+02 -1.7566556056512539e+00 -2.0671632482137625e+01 -8.3730925859629290e-01 -9.1169118619708343e+00 6.0522494116382506e+02 1.0035881776158391e+00 -3.9831276541222049e-01 2.8368170602702298e+02 -1.1044634663917532e+02 -1.1935447653315663e+00 1.4780324376131659e+00 -3.5364736739763032e+00 -7.8584462308526781e-01 5.9639170750023595e+01 -3.7362869072526195e-01 3.3504354186897700e-01 1.2973719425039326e+02 -1.9403272748274219e+02 -2.6070272819683353e+00 2.2984265585059802e+00 -6.8838622804814520e+00 -5.5651429833112616e+00 3.8068323850342017e+02 3.6594318709723694e-01 -5.1584211611219803e+00 4.4220906034456675e+00 2.5974665156116316e+02 4.6377707846498595e-01 -8.4138262130924701e-01 -1.6611485205505211e+01 8.3344669252015819e+01 1.1423415866385362e+03 -4.5489195530721593e-01 -3.5014286127005327e+00 8.1856884722894847e+01 7.3040925646427513e+02 -3.2610120846808321e-01 -1.8496187137585178e+01 3.2366816900783164e+01 6.0074619525409041e+00 7.7267455749978319e+02 4.2248256664684760e+00 6.3166432046446275e+00 8.2678774922619652e+02 2.4028189628335457e+02 -2.7879974687120921e+00 -1.3672986570112471e+00 -2.6700729479986529e+02 
      </Row>
      <Row Index="38">
        -7.3519682266766563e+02 1.1576153414935397e+03 6.1433485619444597e+04 7.8542686483299477e+01 6.3901532831620244e+01 2.7578321215985343e+04 1.7308591899199226e+04 -8.5233237847947748e+01 -2.7709837996761780e+02 -2.0853550090124236e+02 -1.6625495151127689e+02 2.9306066305397690e+04 -5.0541490933621390e+01 -4.3715414098351175e+00 1.4444205650794553e+04 -6.0928427904099226e+02 1.3773375631819363e+01 -4.4673499971337151e+01 -3.3203083842651540e+02 -3.6199381095333956e+02 9.2454952940646326e+03 4.6789761741820257e+00 -3.3647378513807780e+01 4.0003491400880739e+03 -5.8828139171935618e+03 -3.2363793556168457e+02 -1.8722696985315997e+02 -6.0992187611781264e+02 8.5888773407787085e+00 1.4981482760237875e+04 8.6775809453156398e+00 -5.7391285729081756e+02 3.7750207319436595e+03 1.8616917767867446e+04 -4.1653126516597695e+01 1.5645387528118226e+02 -1.3523565891934127e+03 1.1423415804570832e+03 2.1197609532933246e+05 3.3339888992296437e+01 -3.9025360864050316e+02 1.5539732886503916e+03 6.3222388373976573e+03 1.1663778745607513e+02 6.3467166052251400e+01 2.1967458567904832e+03 1.0218461686314875e+02 -2.0826895439745812e+05 -6.8500036034238292e+01 4.7587581646135368e+02 4.0474694607005375e+04 6.9997526425621036e+03 -3.5580420249159215e+02 3.4670276750980520e+01 -2.5461944232699918e+05 
      </Row>
      <Row Index="39">
        9.8656078001250536e-01 -1.0831336424335678e+00 -3.8576597502868346e+01 2.2721270793849535e+00 -3.6948602159252886e-01 2.7263368667096898e+01 3.0597615574283108e+01 8.6490899357475914e-01 2.4103955884930528e-01 -2.1643575679610258e-01 -5.9187391073700724e-01 -7.9569647154494358e+00 -4.2124812887778207e-01 -2.2830292482758396e-01 1.7742996369071761e+01 -2.3306652155755501e+00 -1.5420396713718887e-01 -1.7245020713673576e-01 -1.4661962098088726e+00 -7.5607462243718970e-01 -3.8441600768004491e-01 -4.2906564059189467e-02 1.9792172705503042e-02 -1.0499333845075967e+00 -8.7004923845031641e+01 -9.9866674781698439e-01 -3.8413345588269010e-01 -2.7325086153865286e-01 2.1277036948343664e-01 -7.0106826959482049e+00 5.9847362677425187e-02 4.6616093280371529e-01 -2.3769997975264801e+00 6.9799846163944039e+00 -2.1996124261073557e-01 1.0430497272822326e+00 8.6232687791584661e-01 -4.5489195418672601e-01 3.3339889223951978e+01 1.6785114525825284e+00 -5.1403433231744178e-02 -2.0880504601192911e+00 9.1030831165731342e+01 1.1140737619538577e+00 1.3760730731920878e+00 1.1890194639582354e+00 -1.3769868169245525e-02 3.8130535697268208e+01 -1.7866932759961092e+00 -9.2562498234215873e-01 1.7827384332728982e+01 -7.6629777739635756e+00 -1.2802376373705187e+00 3.2165676568022317e-01 2.7044876936426544e+01 
      </Row>
      <Row Index="40">
        2.4040139385382466e+00 -1.4382992749180410e+00 1.9031783134467042e+02 -3.4310539644150428e-01 9.7202984668593251e-01 -9.0497322099751898e+01 8.8072715199242566e+01 -5.6961604474589844e-01 8.7414948582214578e+00 2.9191513318542444e+00 1.3879382829655640e+00 -1.7031267088136983e+02 1.3423295977572769e-01 8.1417175442372847e-01 -3.4667508052108928e+01 3.5548238226515423e+01 -2.6503664982531738e-01 2.8085729994615569e+00 3.9065182223732542e+00 6.0195366453933588e+00 -1.2224441520785751e+02 -1.2772923556625670e-01 9.0444473945936288e-01 -1.9947425575359830e+01 2.5325493641142944e+02 3.8218214603604466e+00 6.4700503588639151e+00 9.4517034242473983e+00 -1.3333455583587011e+00 1.1312387320437384e+02 1.0135414005766386e-01 1.0825462036603726e+01 -9.5589388149270462e+00 2.7584821454438497e+00 3.6088865259797664e-01 -2.7344302091588428e+00 1.2973346854775968e+01 -3.5014286153118199e+00 -3.9025360905627753e+02 -5.1403433225504447e-02 1.0261743440283331e+01 2.1195347058864513e+01 -4.9121643829153982e+01 -3.0262987370707224e+00 -3.3950631343964321e-01 -1.1388867289403159e+01 6.2176799942655414e-01 -5.2786245857900148e+01 8.9909896604242689e-01 -4.2766423494445416e+00 -6.1977696547252101e+01 7.0922006596502456e+01 3.8908496100177814e+00 -3.8024423446072362e+00 -4.7401931028838980e+01 
      </Row>
      <Row Index="41">
        -8.8425811533020536e+01 1.0242611997925053e+02 9.5982118246463888e+03 -1.1426643503270606e+01 -1.4759786460913208e+01 2.0113939027838333e+03 4.2602600581249744e+03 7.2838358836638406e-01 5.6608650234518564e+01 1.4284927505675302e+00 9.1474252010029886e+00 1.4275768753517134e+03 4.6102555448260176e+00 -1.9550881705258849e-01 1.4045717456820821e+03 9.1409697262271948e+01 -4.0107309737070409e+00 1.9977654890128179e+01 -1.5637582329496183e+01 4.2666625749552168e+01 -2.3387026108893770e+02 -2.6285925940890138e+00 7.6431353912652185e+00 8.2595932567131968e+01 1.4724201003099834e+03 1.6508442102162789e+01 4.5772565861439489e+01 -3.2888624554144656e+01 -7.1799333422259224e+00 3.1281316075746854e+03 3.5696707379671935e+00 4.2108346361213265e+01 1.2451889982468310e+02 -5.2067533819065284e+02 3.8514744266785783e-01 -2.7045755608714160e+01 -9.2222732858823989e+01 8.1856884719622940e+01 1.5539733251049022e+03 -2.0880504666232795e+00 2.1195347074965383e+01 1.0392734541594346e+03 5.0512938220198375e+03 -1.3390707562280355e+01 -8.1626256011430840e+00 1.5777700444476477e+02 -1.5108859058003774e+00 4.6161286242306842e+03 1.6835383319277298e+01 -4.2633543017343271e+01 4.7588367934088092e+03 1.5038134773225970e+03 2.0582128053776842e+01 -4.2664698266794176e+01 -1.2022654993076972e+03 
      </Row>
      <Row Index="42">
        2.0935215192470102e+02 8.4283478531263006e+02 4.0738855564261466e+03 1.0566745168050758e+02 1.7183069285295767e+02 1.4517703125292146e+04 3.2901105847779305e+04 9.7571355632269956e+00 5.0815839564993439e+01 6.6904742505921732e+01 -1.9170062885137213e+02 2.2329348446148047e+03 -2.3299571748989635e+01 -1.3651415668190273e+02 1.0883546950917222e+04 8.8656006393584175e+03 4.3499947096897415e+01 1.3851098214333314e+02 4.7724653460048671e+01 -1.3546025465063076e+02 8.6403488980589827e+01 -1.4876744198303776e+01 -6.3796174652088126e+01 -6.3912323995283114e+03 -1.1602657581344235e+05 1.4178167029876036e+01 1.1353063503254498e+02 4.7046488603183349e+01 -6.8120676635281143e+01 -6.0075164485434243e+03 2.6347709951317952e+00 -1.0469695914771270e+02 -4.1123379067879232e+03 -2.7631194329080536e+04 -1.9725161773327122e+02 2.0092812969085219e+02 2.9071167887395791e+02 7.3040925669551370e+02 6.3222389683640667e+03 9.1030831149806829e+01 -4.9121643786663554e+01 5.0512938234870298e+03 1.8091783330762642e+05 -1.4388335721941905e+02 2.2359061092304694e+02 -3.0621815731808113e+02 -8.8750495550590500e+00 9.8128087766788376e+03 -1.2716126131851291e+02 1.1438505057591064e+02 2.0468386412073862e+04 -1.0419045499372303e+04 -3.1795680757104037e+01 -2.3063103002227035e+02 -9.5708292489317353e+02 
      </Row>
      <Row Index="43">
        -1.0718435782236924e+00 -2.0812680815221860e+00 -1.6332644040465311e+01 1.1316602509652474e+00 -1.9036349236729908e+00 4.0418038819868229e+01 -1.6139892906264059e+01 7.0876152825118321e+00 -6.2690821929374820e+00 -4.0450380699192046e-02 -9.0234840237737046e-01 3.4905553770593542e+01 2.1569229525298983e-01 -5.5061527688738410e-01 3.3495830996416714e+01 -1.0703773156810007e+02 6.5539097181300754e-01 6.0872625814933556e-01 -3.4581089228567805e+00 -4.3152162815982393e+00 -4.2835986826441015e+01 -1.3607933756484170e-01 -6.8514284351914512e-01 4.2556455226645653e+01 -1.0801595009816198e+02 -6.1008625621452683e+00 -3.3385434933502438e+00 -3.9335534806484391e+00 2.3939944107810049e+00 8.6689606887375135e+00 -8.1719362484333313e-02 -1.6087596115058671e+00 -6.8850615679552902e+00 1.2880487730902144e+02 4.4809034691452254e-02 1.7313111544857662e-01 -4.3634249253038142e+00 -3.2610120698213052e-01 1.1663778763025674e+02 1.1140737619642995e+00 -3.0262987370987897e+00 -1.3390707553437508e+01 -1.4388335719602026e+02 1.0709380734936161e+01 -2.0160400191265166e+00 2.7628521656435865e+00 -5.7385397350600653e-01 6.0881970522010938e+01 -1.5026225871108210e+00 -1.4420119888156258e+00 2.3987603766329705e+01 7.5739814483100494e+00 -5.9276504049810015e+00 -9.1037934849746360e-01 2.9476990518826078e+01 
      </Row>
      <Row Index="44">
        -7.2431367061294312e+00 -2.2616557620923160e+01 -4.7134955450495124e+02 3.4457954983284917e+00 -2.7017318353034661e+00 1.2762370208612788e+02 7.2551556105565021e+02 -5.4084534035198821e+00 7.7892360565531675e+01 -1.7183302738672662e+01 5.6266626347522788e+00 -4.8178670475066770e+02 -1.7631081229440984e+00 -5.9361443704163550e+00 7.7260758403608975e+01 1.3555235520501355e+02 2.6436647278981695e+00 -3.3101504265533933e+01 -1.4317828842634491e+01 1.9228488324202431e+00 -5.6893086441637820e+01 5.8185100566501902e-01 -5.9972813607676585e+00 -1.0150086740177539e+02 -1.0522212618969775e+02 -4.6395677814810057e+00 -6.1776973228540555e+01 4.1646963865440831e+00 3.2956121845688813e+00 3.1359206214132678e+02 -3.1356623500608727e-01 5.5616412218711897e+00 -7.2191736616528942e+01 5.6028728543530997e+02 -6.5409701940963316e-01 2.6420616526175294e+01 -1.2403209584857095e+01 -1.8496187145219096e+01 6.3467167130481585e+01 1.3760730728439565e+00 -3.3950631302591816e-01 -8.1626256471013221e+00 2.2359061081054006e+02 -2.0160400195206183e+00 1.1915932062487360e+02 2.0902741170878670e+01 -3.1990313436626918e+00 -6.3661336811195497e+00 -5.7357372548979981e+00 -2.1442885913534440e+00 4.7564412329812304e+00 1.9696801600545075e+02 -5.8300887378477455e+00 2.8933998970065808e+01 -1.8577734271912502e+02 
      </Row>
      <Row Index="45">
        -7.1350801835930511e+01 3.5740137663895894e+01 1.9624838633101490e+03 1.6339421292321443e+00 -5.2383907506107619e-01 6.7684763010306324e+02 8.7328177225223965e+02 -4.2446109425870304e+00 1.3231797004778286e+01 -2.7450021030427461e+01 -3.9153181153546939e+00 1.1128461864894239e+03 -1.0833947705810090e+00 -2.5735616776534664e-01 3.3589445008205166e+02 -3.2619584739546917e+02 1.7203289195209663e+00 -2.4201450109478628e-01 -3.6948785062924316e+01 -6.0871639329527625e+00 7.0891417773130979e+02 1.9959966255696315e-01 -1.1323885777238161e+00 5.2478785637817055e+01 6.4309252794289296e+02 -7.1621291742714135e+00 -4.2467366948762901e+00 -3.5488805687436056e+01 1.0630509016255019e-01 5.5272623150919298e+02 9.6722240035279583e-01 -1.4076937326081264e+01 1.1806668795086080e+02 5.7688974798572599e+02 1.2194105259335970e+00 7.2094825326675576e+00 -9.8097892194070980e+01 3.2366816890322866e+01 2.1967458673090941e+03 1.1890194616747554e+00 -1.1388867284294527e+01 1.5777700438905549e+02 -3.0621815794064241e+02 2.7628521628271496e+00 2.0902741182938033e+01 1.8745884976360321e+02 1.5442678299282075e+00 1.0294915308069321e+03 -2.7088892364234880e+00 1.4278034082014898e+01 1.3308233298752082e+03 4.9247604053901671e+02 -1.0701271545733107e+01 3.3887384861913858e+00 -6.4727097717937841e+02 
      </Row>
      <Row Index="46">
        -1.4183309549366172e+00 1.0049915601441681e+01 1.8927653272604537e+01 7.2191876288661472e-01 -5.2684589083485744e-01 1.9187452196926259e+01 -1.0546046409937800e+02 -9.4521348128318250e-02 -3.7368480238681290e-01 8.4178840043847392e-01 -4.6506012573402167e+00 9.1413311153380377e+01 -6.0841919549305445e-01 5.2529809083679813e-01 -2.8149195745325706e+00 -1.9888172792727147e+01 -2.6075139429216176e-01 2.0215179397420417e+00 2.7756743422505337e-01 1.5346503872550290e+00 8.9963625551593651e+00 5.4396147563068653e-02 7.6715972099822660e-01 1.7667753835559822e+01 -1.0549561352466287e+02 5.7521949322795474e-01 5.4706342901290981e+00 3.3411199380258672e-01 -4.9121328506135100e+00 1.4856849016297048e+01 -8.3281569603653016e-02 8.1028373816372601e-01 4.1709673655465167e+00 8.4251655596374349e+00 -8.2049590961187358e-02 -2.8405072978297474e-02 2.2149749148359321e-02 6.0074619528792006e+00 1.0218461692816993e+02 -1.3769868183030470e-02 6.2176799947665629e-01 -1.5108859036495232e+00 -8.8750495597413135e+00 -5.7385397351683176e-01 -3.1990313435201694e+00 1.5442678307262865e+00 3.9291764109411975e+00 5.1154046212706117e+00 -9.0431146700204978e-01 -9.3840845827684705e-02 2.3253242052566680e+01 -1.5760365968977666e+01 3.0135572237333541e-01 -2.7571860154178545e+00 -6.6444569845406027e+00 
      </Row>
      <Row Index="47">
        -3.5621901527751601e+02 8.1992446985698189e+02 3.5494963371253572e+04 3.5694252926794761e+01 -5.9258632923025289e+01 1.4924109849790111e+04 3.2042173577058078e+04 -7.3469359043861914e+01 -3.9953102069150191e+01 -3.4298188564524480e+01 3.8210584719898179e+01 1.8796282275781065e+04 -1.4786381422221893e+01 4.9107832198051256e+00 9.4664946827883832e+03 -4.6416706599891186e+03 2.1778559224912897e-01 -6.2138273757824209e+01 -1.3607561603469367e+02 2.3624322219751775e+01 9.1424387003998272e+03 -5.6509417489214684e+00 4.0555719596071867e+01 3.0722111218459904e+03 1.6566533487515058e+04 -1.7034424027536443e+02 -1.4788966343598440e+02 -2.7130876699536748e+02 5.0220063983695582e+01 1.0510258898270316e+04 1.9045183215861471e+01 -2.2592899468952965e+01 3.1220636791819707e+03 1.6906460826272145e+04 1.9140814095546375e+01 -9.6169356170394167e+00 -5.9723832331469498e+02 7.7267456828054856e+02 -2.0826895359424176e+05 3.8130535957154279e+01 -5.2786246257564926e+01 4.6161286882096902e+03 9.8128089768756181e+03 6.0881970636112783e+01 -6.3661308459631982e+00 1.0294915504950914e+03 5.1154046938254396e+00 4.5909778358340741e+05 -9.3239316988911014e+00 -1.3207177258329466e+01 3.3589934442285266e+04 1.5957859734543770e+04 -1.8244533003121614e+02 2.7331557558162785e+01 4.1071409005699045e+05 
      </Row>
      <Row Index="48">
        1.4427366574946936e+00 5.0829850242940324e+00 2.4777717163540979e+02 -3.3001558159227913e+00 4.1368535286175678e-01 -2.8436808836470959e+01 6.4527404954844755e+01 -1.1225918361390015e+00 -3.5476890531942900e+00 5.9090138982122575e-01 1.3042265309724996e+00 -7.1092539837466191e+00 1.1835141741459392e+00 2.0104912661112517e-01 -3.1237473963929574e+00 5.4387420732382452e-03 3.3967135364218493e-01 8.9978628760353274e-01 2.0272052230443762e+00 1.4276666808698337e+00 -4.8355891915098255e+01 -1.0273818027702397e-01 2.8814168178552535e-01 1.3434886742512617e+01 2.4746283252604582e+02 1.6117312780378645e+00 3.2325115779920566e-01 1.8001814940928540e-01 5.3089066434699816e-01 8.5135805931568257e+01 9.6202858261028368e-02 8.8978651517193708e-01 8.2898451071287127e-02 5.5884860916867183e+00 4.4306382301381575e-01 -2.8234920131096253e+00 1.1423748480059430e+00 4.2248256638381321e+00 -6.8500035880437508e+01 -1.7866932761119076e+00 8.9909896631987607e-01 1.6835383303937306e+01 -1.2716126138018240e+02 -1.5026225872382515e+00 -5.7357372548419505e+00 -2.7088892406710698e+00 -9.0431146706999965e-01 -9.3239323033851633e+00 4.0682880970145305e+00 -9.2500321467274915e-01 3.3369045508162039e+01 5.8398528746884551e+01 1.9132913670993048e+00 -9.7168535195774441e-01 -8.9354369765484705e+01 
      </Row>
      <Row Index="49">
        -7.1108318128661692e+00 5.0659205428387732e+00 -1.8516476619315253e+02 -2.8075073236863179e-01 8.2833921094418912e+00 2.4437068861021345e+01 -1.4833769623811179e+02 -4.1451284823447150e+00 -6.6978567209113997e+00 -1.6018832333330268e+00 -5.6055397911238458e-01 2.1039373011110419e+02 -7.3517934656284112e-01 1.5926316904654556e-02 -5.2647543017042295e+00 -7.3030853352326631e+01 1.2509322446122431e+00 -8.1595340108816394e-01 7.3068823185263376e-01 -6.1671979299352486e+00 1.5704722336184193e+02 2.3577635036959821e-01 -2.5369974784492957e+00 5.8774492410440757e+00 -3.8489513219524167e+02 -2.2653148780445820e+00 -2.2452401334336969e+00 -4.5448265269989463e-02 1.2921721948231948e+00 -2.7866190436778703e+02 -5.9968612818660727e-02 -1.4085491814275201e+01 3.6253608908990088e+01 2.0313493416185565e+01 -1.9592717915342650e-01 1.8683065543077613e+00 -9.4325779203544329e+00 6.3166432063739624e+00 4.7587581658089300e+02 -9.2562498232151613e-01 -4.2766423495784194e+00 -4.2633543006562846e+01 1.1438505061851390e+02 -1.4420119887906393e+00 -2.1442885915329235e+00 1.4278034085229201e+01 -9.3840845759290692e-02 -1.3207177252141570e+01 -9.2500321457727708e-01 1.8828681991852360e+01 2.4619744920186982e+01 -9.1364863199817705e+01 -3.0294419597118463e+00 1.2602163354527933e+00 2.3356764114028596e+01 
      </Row>
      <Row Index="50">
        -5.4877165056310503e+02 8.6812027843524993e+02 6.6403091922257256e+04 3.4641318662613685e+00 -2.8475056301655059e+01 2.0287852530072705e+04 2.6930888812787598e+04 -2.1467542555021510e+01 1.4943630428966753e+02 -2.4490232986206323e+01 -4.2991102136802510e+00 1.8226492032935421e+04 -5.8418956678308405e+00 5.1584940973471305e-01 1.2437697707252199e+04 -1.7936479148382787e+03 -1.1443209613495128e+01 5.2632496520219320e+01 -1.5928175499408690e+02 -1.8954024335147551e+01 1.4310822449565821e+03 -8.7530559202639324e+00 1.8403563921150635e+01 3.1606893430613272e+03 5.7370122593022752e+03 -9.1142569881972122e+01 8.1553212255334074e+01 -3.3944909667956927e+02 2.7923635548228049e+01 1.9147664370555329e+04 1.8750640677791807e+01 -6.3476340431809604e+01 2.7719866582568211e+03 9.8442726792483591e+03 -7.8338677205938438e+00 -5.8741330929240121e+01 -7.7608073000131208e+02 8.2678774914015048e+02 4.0474694900596020e+04 1.7827384277586134e+01 -6.1977696418988899e+01 4.7588367930488530e+03 2.0468386399615847e+04 2.3987603694156974e+01 4.7564415776996611e+00 1.3308233302204062e+03 2.3253242035932317e+01 3.3589933919194416e+04 3.3369045628998720e+01 2.4619744837486905e+01 3.8714823330212203e+04 1.1345302751350624e+04 -9.5112915308287484e+01 -1.6270666373687800e+02 -1.4309853345169951e+04 
      </Row>
      <Row Index="51">
        -2.3188976656623544e+02 2.6535789954979828e+02 2.6198780054175382e+04 -3.2882526655019888e+01 -4.8536744272111491e+01 4.5302830438394740e+03 2.1663282634804556e+04 -3.0091488160376912e+01 2.3414987350286356e+02 -8.5758182134571598e+01 7.4294979207523284e+01 1.7210592017993185e+03 1.4935085153767432e+01 8.5246699764874165e+00 3.8287163880222251e+03 1.9455956164306845e+03 8.7935960187719502e+00 7.5826434823770796e+00 -3.5840449632684567e+01 7.2235671105972870e+01 1.1383467767041730e+03 -3.4095343728661192e+00 2.1977520499279080e+01 7.0711072068748763e+02 2.3666411421181441e+04 -4.4857064441646742e+01 -1.1921336478999001e+02 -2.0634178262608657e+01 4.4571185411958140e+01 1.2760751657065564e+04 8.7318812149213727e+00 1.2248509807258284e+02 1.8616006869124249e+00 1.7677251851297653e+04 9.2986818813710670e+00 -5.2602726169625271e+01 -2.8707481580725016e+02 2.4028189616585678e+02 6.9997527453439179e+03 -7.6629777953526883e+00 7.0922006643074951e+01 1.5038134766463481e+03 -1.0419045505175280e+04 7.5739814206117444e+00 1.9696801615013021e+02 4.9247604050238078e+02 -1.5760365979717569e+01 1.5957859541070198e+04 5.8398528784823156e+01 -9.1364863221735959e+01 1.1345302747327203e+04 1.1978055580428505e+04 -5.3465340733662742e+01 -5.3883264370424513e+00 -6.1122093102676936e+03 
      </Row>
      <Row Index="52">
        2.0119119402619168e+00 -1.6290728463904287e+00 9.1811796566522247e+01 -1.7372865402373781e+00 4.4474294252567859e-01 -1.0469259598242877e+02 -2.0674243528053657e+02 -7.1901539795513925e-01 2.2921965314044002e+00 3.1812911763458946e+00 1.8398493038165782e+00 -1.2575480816730158e+02 1.1277579477093225e-01 1.3289974909461928e+00 -6.0855501845283371e+01 1.9964409080257724e+01 -1.6822297270700108e+00 -1.8511549139163641e-01 3.0911345755195594e+00 5.3742297201521723e+00 -1.1862539497093591e+02 1.9476306223897843e-03 5.4138355734813626e-01 -1.3509401350737789e+01 2.1349625486774175e+02 7.6855418275302654e+00 9.2226049943219834e+00 3.3786054885959702e+00 -1.2813832648950552e+00 2.3198345375020864e+01 1.5489439329685162e-01 3.5833577201474656e+00 7.2062917504222241e+00 -3.1174267493424998e+02 8.0564720811634327e-01 -2.1206024149944604e+00 7.7652239602588029e+00 -2.7879974706710211e+00 -3.5580420345452103e+02 -1.2802376372691002e+00 3.8908496098608141e+00 2.0582128042058699e+01 -3.1795680775793812e+01 -5.9276504048209819e+00 -5.8300887392553058e+00 -1.0701271550585648e+01 3.0135572239585739e-01 -1.8244532860849441e+02 1.9132913666770168e+00 -3.0294419596039246e+00 -9.5112915413783213e+01 -5.3465340776947279e+01 9.1859486760772384e+00 -1.6801124159052279e+00 -2.6446537509141351e+01 
      </Row>
      <Row Index="53">
        3.5254921390951113e+00 -5.0325196382367210e-01 -6.4424040810852239e+02 4.4859303304397358e-01 -4.6655707025139392e-01 8.3802913634337983e+00 3.0634557430592452e+01 -2.4285476475796628e+00 6.3954916242525428e-01 -6.6577907018544122e+00 1.0380388995624116e+01 -1.0937870395325793e+02 -7.4770655039557710e-04 -2.1332224169156442e+00 -5.5867289989324831e+01 2.7235202769596162e+02 -2.3881581701516268e+00 -2.2245076307239088e+01 -4.2060665935074866e+00 9.6322176959887997e+00 1.8856811671823471e+02 2.8605281058757015e-01 -2.9795192100155745e+00 -1.0025984998686818e+02 2.6732155525216194e+02 -4.2605613344899638e+00 -3.9080600911007650e+01 -2.4389259853326379e+00 -2.9412479609478623e+00 -9.8531982499421929e+01 -1.1275637179513609e-01 -2.9642219035862887e+00 2.0279982800320340e+01 2.6025914075703440e+01 1.0853525792977052e+00 1.4889230289162542e+01 -5.4510149516649875e+00 -1.3672986541292005e+00 3.4670276226039050e+01 3.2165676592344994e-01 -3.8024423452739562e+00 -4.2664698250581523e+01 -2.3063102990052130e+02 -9.1037934825900546e-01 2.8933998969609348e+01 3.3887384897748234e+00 -2.7571860153345082e+00 2.7331558856608154e+01 -9.7168535223178765e-01 1.2602163359080691e+00 -1.6270666360734052e+02 -5.3883264190558009e+00 -1.6801124165118040e+00 3.0591896972110703e+01 1.8760604960106667e+02 
      </Row>
      <Row Index="54">
        3.5712031375135064e+02 -2.8056385987065732e+02 -5.1552863169185352e+04 5.7939367021324870e+01 3.7022750171017833e+00 -9.1799176163394004e+03 -1.4534039123212620e+04 -1.7111845310348144e+01 -3.6642926305125002e+02 6.3055957998768463e+01 -1.5132854350376874e+01 -6.7296993334533181e+02 -1.9637567272846354e+01 -4.2228111834112951e+00 -6.2785347482797224e+03 -5.0459058732818812e+03 -4.1152748854074161e-01 -1.1789449940764462e+02 3.2748008317561471e+01 -2.1781964539550245e+00 6.2202763700585347e+03 5.3728298701971653e+00 3.4391725850582588e+00 -6.3966187461279333e+02 -9.7937640822583344e+03 -2.7305945859545318e+01 -1.0481683589983732e+02 6.5124378123946371e+01 -2.1524383110227063e+01 -1.9331170586072840e+04 -6.4190140540777065e+00 -5.0133666756373714e+01 4.9036505906656384e+02 -1.0023693019913509e+04 2.3208998813701328e+01 8.8855302816260519e+01 3.9533735201359377e+02 -2.6700728385883849e+02 -2.5461944190388219e+05 2.7044877268492201e+01 -4.7401931593441986e+01 -1.2022654345398769e+03 -9.5708270796574652e+02 2.9476990727640441e+01 -1.8577734035670983e+02 -6.4727095784607809e+02 -6.6444568863471432e+00 4.1071409073966410e+05 -8.9354369314067299e+01 2.3356764207142987e+01 -1.4309852819857188e+04 -6.1122091211865772e+03 -2.6446539069293067e+01 1.8760604844806949e+02 4.2923717494265281e+05 
      </Row>
    </InverseHessian>
  </Weights>
</MethodSetup>
